{"train_DA_loss": [0.03928118620333441, 0.03939248122942295, 0.040489381969220244, 0.04168720605018697, 0.04006494327671349, 0.039668584780484926, 0.03765134272970927, 0.03713539038432364, 0.03841147187014385], "train_regression_loss": [0.17848561539347035, 0.020326021231261423, 0.03010296730930752, 0.024715222421713458, 0.014291968961949486, 0.01789474185263326, 0.014476441597766915, 0.012449655240874949, 0.008283369233355035], "train_mve_loss": [-0.09829048674989499, -0.243028061195418, -0.20410192984631337, -0.25870735942636375, -0.21812238121980723, -0.2381419002042719, -0.27836637909931067, -0.24967566786344134, -0.19166570878034317], "train_r2_score": [0.4510634723628439, 0.9385434861127752, 0.908805553375174, 0.9250551535503314, 0.956683976372227, 0.9460207798831454, 0.9561001625745923, 0.9622180009237968, 0.9749415997232526], "val_source_regression_loss": [0.0441202394947221, 0.014742377119822592, 0.03951663681883601, 0.020497428772004344, 0.01425123244193913, 0.02075363510535865, 0.013574965757942653, 0.01002861542886571, 0.005378752395722873], "val_target_regression_loss": [0.04435698537132408, 0.016970578816872608, 0.041273410278785075, 0.023200711235404015, 0.013836413185713412, 0.023477730612400213, 0.015246358193174193, 0.012183550250115274, 0.006485269369581078], "val_source_r2_score": [0.8651566855161373, 0.9548105022468815, 0.8790850219896982, 0.9376828685696045, 0.9565088714804164, 0.9365775797882341, 0.9579136580288465, 0.9691934024043121, 0.9834154755090518], "val_target_r2_score": [0.8662065062500769, 0.949290096556764, 0.8772206963832494, 0.9315244125183665, 0.9586579038194062, 0.9302224720023411, 0.9512126647395521, 0.9639616672481843, 0.9807124297488237], "val_source_mve_loss": [-0.25589090680019766, -0.276950554379934, -0.197566317040709, -0.2541348455072958, -0.3428847680363474, -0.1642714363487461, -0.27703980554508256, -0.24532404032689106, -0.16997030151041248], "val_target_mve_loss": [-0.25613018417660194, -0.27055658154849765, -0.07453689978847021, -0.24497378117676022, -0.3433996476704561, -0.16232391324224352, -0.27318175231354147, -0.23853605268876762, -0.16449964518034005], "val_source_nll_loss": [-1.0322742032099375, -1.4553452005869225, 227.54574965449828, -1.3412301962888693, -0.7643510020231898, -0.20505069686642177, -1.4433567946470236, -1.6986300990551333, -2.151740312576294], "val_target_nll_loss": [-1.0236356658271597, -1.4257088099853903, 607.154926533186, -1.2679155280318442, -0.7657243005837067, -0.20254914990708797, -1.4089533075501648, -1.647914027865929, -2.057238367539418], "da_weight": [1.4, 1.4, 1.4, 1.4, 1.4, 1.4, 1.4, 1.4, 1.4], "beta": [0.5, 0.5, 0.5, 0.5, 0.5, 0.5, 0.5, 0.5, 0.5], "epoch_no": 9}