{"train_DA_loss": [0.03679973930052364, 0.03362450645504421, 0.03543779145674252, 0.038221399417279846, 0.036672548327928704, 0.037138878744116, 0.036998269064743516, 0.03585350018682493, 0.03631748862469218, 0.03526957040581123, 0.03574469080790741, 0.036805103660665, 0.03673367001034551, 0.03738263889915656, 0.037521400763031766, 0.039421276582687605, 0.039638328251907336, 0.04177346860332724, 0.04225755576895621, 0.04147002579375311], "train_regression_loss": [0.19734945132054893, 0.02079181105640787, 0.026818728612453237, 0.018591184828811797, 0.01500092316129444, 0.012830611864033357, 0.0165437972794544, 0.012496401371104027, 0.026639476804134234, 0.014208452815234225, 0.00954668264550036, 0.007860725696608969, 0.006042365681114428, 0.004741163697039242, 0.005230089152824318, 0.004169156754021643, 0.005799516172691417, 0.021281879219027335, 0.011994326245414274, 0.009712636356720431], "train_mve_loss": [-0.10345907551083217, -0.2600557931053573, -0.23625967839402462, -0.2534740071410017, -0.2564880634084262, -0.2586940195568083, -0.2358582807769505, -0.22103311526001698, -0.22525645207130168, -0.2713574573561086, -0.21213367686247694, -0.18650312770083138, -0.2263673822747942, -0.21954350135335102, -0.1811048348504076, -0.17735089936465626, -0.2020815985798291, -0.17301998538062166, -0.289877083227447, -0.32601863963076577], "train_r2_score": [0.3975995214544893, 0.9370013127652609, 0.918528884066168, 0.9436778037318039, 0.9545382167589944, 0.961140854653812, 0.9498248889802297, 0.9621002389313139, 0.9193935325661499, 0.9569078123038716, 0.9710184970635316, 0.9760804395588875, 0.9816517079452749, 0.9856329048091678, 0.9841220747396534, 0.9873649802327319, 0.9823947756587066, 0.9352731833931662, 0.9637188499094967, 0.9705784680905378], "val_source_regression_loss": [0.014825619073419631, 0.027588252638336978, 0.059999515550046026, 0.018515658588443375, 0.012490409402813337, 0.01611490579487025, 0.014574637259297732, 0.008133504209639151, 0.02585522342426113, 0.010219085165829976, 0.009270857123634483, 0.0063257700869742825, 0.005048389608464852, 0.010122330888775708, 0.004737411941036205, 0.004169393207029074, 0.003853143643752872, 0.019759676466354088, 0.009762801112064833, 0.010311081404267232], "val_target_regression_loss": [0.01847294891323847, 0.02858771357826794, 0.06078291387309002, 0.021357628575797323, 0.01388985195633354, 0.017386249891376195, 0.0158615769063936, 0.008681184794942412, 0.026011290052269077, 0.011516146621183504, 0.010734743810011238, 0.007025852422171001, 0.005522524893778978, 0.01162155814869683, 0.005365285612760654, 0.005112452326413197, 0.004731217181145013, 0.02121768581763476, 0.01054639445287706, 0.01115001473410786], "val_source_r2_score": [0.9546193201312455, 0.9155403716620741, 0.8147177329765165, 0.9431983000960076, 0.9619361080566367, 0.9507109545414439, 0.9554044619223337, 0.9750754034063958, 0.9209341318890188, 0.9686828234177376, 0.9714960889799109, 0.9807375780549986, 0.9844871626913237, 0.9690743466060145, 0.9854713544485083, 0.9872067697796915, 0.9882031817185014, 0.9393701018878732, 0.9700859765734006, 0.9683862411636264], "val_target_r2_score": [0.9446878645689921, 0.9151771543007067, 0.8182519218895579, 0.9357621275630068, 0.9584965954543448, 0.9479501349791375, 0.9530394094461204, 0.9740539028981879, 0.9222568914830259, 0.9656367572356607, 0.9680818189907856, 0.9787755476282325, 0.9836193950906222, 0.9654111263824612, 0.9839951737884416, 0.9847708031482526, 0.9859870667354358, 0.9370243804563272, 0.9686333610611553, 0.9668097275879934], "val_source_mve_loss": [-0.20082152851774723, -0.301368766570393, -0.2558071311516098, -0.295526915335957, -0.25927930334700816, -0.23316164314746857, -0.26468359877037095, -0.28810213713706295, -0.3021577909777436, -0.25512797074227395, -0.1784087438372117, -0.192905356235142, -0.17370627433816088, -0.2699492664276799, -0.18576653980756108, -0.22886450871636596, -0.2888942149621022, -0.2477126097000098, -0.3119050369987005, -0.3376034992405131], "val_target_mve_loss": [-0.1834408120263981, -0.29920801256276386, -0.2549890768301638, -0.2928842543801175, -0.254255821810493, -0.22986005982266197, -0.25644745970074134, -0.2871287521682208, -0.3010555551021914, -0.24960014393812494, -0.17031838924069947, -0.18908201591878, -0.17054234048988245, -0.2656852589755119, -0.1825791597366333, -0.22498614671109599, -0.28643591683122177, -0.2464140815825402, -0.3111852731885789, -0.33676600192166584], "val_source_nll_loss": [-1.6227256391621843, -1.0942586215236518, -0.4290616983854318, -0.5129375133333327, -1.5312526210953918, -1.578981213931796, 3.2652857861941373, -1.5844216557997692, -0.9676165731647347, -1.5434745474706721, -1.8645869659472116, -2.041344927836068, 2.877530076835729, -1.6112483136261566, -2.167308357697499, -2.0304973532881916, -1.7167956270749056, -0.36611457527438296, -0.5481512855879868, -0.6833681237848499], "val_target_nll_loss": [7.452432444955729, -1.0831448005724558, -0.427467187371435, -0.5081299924397771, -1.493405299850657, -1.5437452566774585, 10.886717376829703, -1.5705169997637785, -0.9631554190116592, -1.4938204982612706, -1.7463774454744556, -1.987310934670364, 8.496306751347795, -1.583735206459142, -2.1269844830790654, -1.9986378663702855, -1.7014067308812202, -0.3639497255222707, -0.5468470921999291, -0.6817317725736883], "da_weight": [1.4, 1.4, 1.4, 1.4, 1.4, 1.4, 1.4, 1.4, 1.4, 1.4, 1.4, 1.4, 1.4, 1.4, 1.4, 1.4, 1.4, 1.4, 1.4, 1.4], "beta": [0.5, 0.5, 0.5, 0.5, 0.5, 0.5, 0.5, 0.5, 0.5, 0.5, 0.5, 0.5, 0.5, 0.5, 0.5, 0.5, 0.5, 0.5, 0.5, 0.5], "epoch_no": 20}