{"train_DA_loss": [0.03679973930052364, 0.03362450645504421, 0.03543779145674252, 0.038221399417279846, 0.036672548327928704, 0.037138878744116], "train_regression_loss": [0.19734945132054893, 0.02079181105640787, 0.026818728612453237, 0.018591184828811797, 0.01500092316129444, 0.012830611864033357], "train_mve_loss": [-0.10345907551083217, -0.2600557931053573, -0.23625967839402462, -0.2534740071410017, -0.2564880634084262, -0.2586940195568083], "train_r2_score": [0.3975995214544893, 0.9370013127652609, 0.918528884066168, 0.9436778037318039, 0.9545382167589944, 0.961140854653812], "val_source_regression_loss": [0.014825619073419631, 0.027588252638336978, 0.059999515550046026, 0.018515658588443375, 0.012490409402813337, 0.01611490579487025], "val_target_regression_loss": [0.01847294891323847, 0.02858771357826794, 0.06078291387309002, 0.021357628575797323, 0.01388985195633354, 0.017386249891376195], "val_source_r2_score": [0.9546193201312455, 0.9155403716620741, 0.8147177329765165, 0.9431983000960076, 0.9619361080566367, 0.9507109545414439], "val_target_r2_score": [0.9446878645689921, 0.9151771543007067, 0.8182519218895579, 0.9357621275630068, 0.9584965954543448, 0.9479501349791375], "val_source_mve_loss": [-0.20082152851774723, -0.301368766570393, -0.2558071311516098, -0.295526915335957, -0.25927930334700816, -0.23316164314746857], "val_target_mve_loss": [-0.1834408120263981, -0.29920801256276386, -0.2549890768301638, -0.2928842543801175, -0.254255821810493, -0.22986005982266197], "val_source_nll_loss": [-1.6227256391621843, -1.0942586215236518, -0.4290616983854318, -0.5129375133333327, -1.5312526210953918, -1.578981213931796], "val_target_nll_loss": [7.452432444955729, -1.0831448005724558, -0.427467187371435, -0.5081299924397771, -1.493405299850657, -1.5437452566774585], "da_weight": [1.4, 1.4, 1.4, 1.4, 1.4, 1.4], "beta": [0.5, 0.5, 0.5, 0.5, 0.5, 0.5], "epoch_no": 6}