{"train_DA_loss": [0.0401513446394824, 0.040397900430795476, 0.038022988249413275, 0.03587501519912994, 0.03839551634282909, 0.03804975231833606], "train_regression_loss": [0.13315113727003336, 0.02600946671872568, 0.024330975263084965, 0.02227334625222184, 0.015523617871793521, 0.010619650434845654], "train_mve_loss": [-0.1438396649002702, -0.233030589723064, -0.21829789766609342, -0.29184543598831464, -0.23413203935218904, -0.2735381189263826], "train_r2_score": [0.5958568456173283, 0.9207860766467607, 0.9261318623038161, 0.9325189058648715, 0.9529866244006849, 0.9677463130268857], "val_source_regression_loss": [0.015423067244170587, 0.02207302763067846, 0.020604551710848566, 0.019512133484211148, 0.016958595336049417, 0.007712147658384299], "val_target_regression_loss": [0.01713758777190424, 0.02598260706172714, 0.0231481392667452, 0.020417575818734077, 0.019360569058151186, 0.008763407327564834], "val_source_r2_score": [0.9526039625247983, 0.9324538512798156, 0.9368788246212733, 0.940612697757013, 0.9479711395276376, 0.976419435009343], "val_target_r2_score": [0.9491055001402143, 0.922479659131348, 0.9308975601632237, 0.9395471815182016, 0.94239778152134, 0.9738741835799957], "val_source_mve_loss": [-0.26134318132189255, 0.21275311090712307, -0.3344667704799507, -0.30253429352482664, -0.2982282189628746, -0.1933265931998627], "val_target_mve_loss": [-0.2565026707664321, 0.29113599719314637, -0.3311190522169765, -0.30100044155422645, -0.2962226030192798, -0.185957334841354], "val_source_nll_loss": [-1.4491429721252829, 1412.0959601326833, -0.9101782011080392, -1.246438136583642, -0.5198714378513868, 27.738685557359382], "val_target_nll_loss": [-1.4215651101703886, 1626.1974517544613, -0.902367396445214, -1.233114376852784, -0.5166811422456669, 38.63728431810306], "da_weight": [1.4, 1.4, 1.4, 1.4, 1.4, 1.4], "beta": [0.5, 0.5, 0.5, 0.5, 0.5, 0.5], "epoch_no": 6}