{"train_DA_loss": [0.4823229176143842, 0.45340196589447246, 0.43362494153558007, 0.42023051460656646, 0.41652283813443436, 0.41054611531864355, 0.4103502410802806, 0.4104772177703638, 0.4050434996974969, 0.3971634857233961, 0.3927646792566972, 0.3814061908715386, 0.37474460921623154, 0.37079962526858395, 0.37242459390019583, 0.36978274594713173, 0.3680433632032963, 0.37015743474637786], "train_regression_loss": [3.209983528423135, 1.8869915908607748, 1.0223977818567531, 0.5659993827016088, 0.3777406669240547, 0.31278478459095826, 0.2828611876454606, 0.2544724958143461, 0.22037935077163376, 0.18114309173615367, 0.1406798562412942, 0.10306279784174026, 0.07469411839950674, 0.058117083517299925, 0.05024114509251044, 0.044804417012324065, 0.0417886462396307, 0.03930234336643267], "train_mve_loss": [1.4616569700145199, 0.7783212866055246, 0.3499701798942887, 0.12336437641753657, 0.025909280687080222, -0.011943851102150337, -0.03218548976896259, -0.04958156144018311, -0.06482182478896552, -0.07430793730102793, -0.07913989814294595, -0.08091528690888307, -0.07978891416825695, -0.08283214530204397, -0.0842718544077312, -0.09081451217533247, -0.09153499211128495, -0.08576325026138173], "train_r2_score": [-8.863407130412602, -4.799637067663551, -2.132105092374355, -0.7335869883548345, -0.153013849994084, 0.04652010623424637, 0.13843709168450932, 0.2241403620681012, 0.32902607626848174, 0.44806260360744676, 0.570486236277831, 0.6860529276252342, 0.772360341806429, 0.8222867371893388, 0.846087907683539, 0.8625110402625152, 0.8718867892509036, 0.8794111135991597], "val_source_regression_loss": [2.528742630270463, 1.413024058824853, 0.7546047134489953, 0.4502522547411013, 0.34133610619774346, 0.3009272517659996, 0.2728756479447401, 0.2410924474272547, 0.20464308503307874, 0.16462006749986094, 0.12464172072425674, 0.0893012111228478, 0.0694116712842561, 0.05499667693165284, 0.049480837875906424, 0.04482543496768686, 0.04223510915342765, 0.03877599629325957], "val_target_regression_loss": [2.51216294795652, 1.3866703412200831, 0.7319176393219188, 0.43586732239662845, 0.3318932928333554, 0.29819479056551484, 0.276974882506117, 0.24912332564215117, 0.21593384916269326, 0.1827717909141432, 0.14283840688346308, 0.1083318234621724, 0.08557624544335317, 0.07218726014694836, 0.06665975067623053, 0.0623196148419682, 0.060124751274721534, 0.05750431747564787], "val_source_r2_score": [-6.747748206813473, -3.3894137148127843, -1.3162308721124252, -0.3643500910047622, -0.04785635906480071, 0.08857151197073021, 0.168726442648557, 0.2595146377507508, 0.3805861597323174, 0.5006494042808909, 0.6208181399586855, 0.7293506656739778, 0.7663507309147638, 0.8303789585590862, 0.8471625693137618, 0.8603724045457073, 0.8720912925395652, 0.8822238632978993], "val_target_r2_score": [-6.827863045020708, -3.345138492211111, -1.2690502394900869, -0.35583846213801834, -0.024190282315344334, 0.07993547221432594, 0.14460067575163654, 0.23383276962571306, 0.33880093065978917, 0.441674213503448, 0.5641695160850656, 0.6677075131494327, 0.7359359834537288, 0.7763028313399661, 0.7936791166653181, 0.8051513554048749, 0.8159647176216663, 0.8227126560792511], "val_source_mve_loss": [1.0962707302238368, 0.5415236878244183, 0.21685543778953673, 0.06378687500859363, 0.004536733446831379, -0.021217750803909346, -0.03960832590355149, -0.05663199208771126, -0.06909509569029265, -0.07424691166799469, -0.0778505534546662, -0.07801889047568923, -0.07966463522443289, -0.0760725509799734, -0.12101953542685207, -0.07487383447115935, -0.09849005711229541, -0.07019010549293289], "val_target_mve_loss": [1.0880242254160628, 0.5254667397541336, 0.20175603607410117, 0.05314145145254045, -0.0028995145171220546, -0.02419532005545459, -0.03788822013413227, -0.05086527718231082, -0.0585637900954749, -0.05686017564981233, -0.057954099241502674, -0.05747866347620759, -0.05752415021386328, -0.04594965185970068, -0.095087147400349, -0.03456875424879261, -0.05445947380194181, -0.01409939336118913], "da_weight": [0, 0, 0, 0, 0, 0, 0, 0, 0, 0, 0, 0, 0, 0, 0, 0, 0, 0], "beta": [1.0, 0.996, 0.992, 0.988, 0.984, 0.98, 0.976, 0.972, 0.968, 0.964, 0.96, 0.956, 0.952, 0.948, 0.944, 0.94, 0.9359999999999999, 0.9319999999999999], "epoch_no": 18}