{"train_DA_loss": [0.45671128932475175, 0.4313708459328472, 0.4325300261677946, 0.43071336741857164, 0.43290810207998076, 0.43272247943189507, 0.44363846879118757, 0.47221876095156345, 0.490126467383104, 0.48806569470565975, 0.49503212774911354, 0.4951186590373407, 0.4998886347143916, 0.5055220929098739, 0.5089604754879444, 0.5338295600096095], "train_regression_loss": [1.7798182265305214, 0.3326193286034481, 0.22241927908096715, 0.1453932379210671, 0.0812946619564698, 0.051055033263874665, 0.041712800520974494, 0.038180303284847325, 0.03638769812555047, 0.0351619659812348, 0.03345019714583317, 0.031721938488293286, 0.029982422136274292, 0.028329509921657975, 0.02711425146677104, 0.026047998691961796], "train_mve_loss": [0.7435235217676738, 0.01096424388603888, -0.06348360445047346, -0.07593396675417122, -0.07619839619123249, -0.08043159862683993, -0.07231244250835758, -0.1373577120916499, -0.1211698942662811, -0.09660252657679796, -0.0725209514595146, -0.07586914071408007, -0.08850923361736852, -0.07392430368477182, -0.08209390167003902, -0.11236054484325528], "train_r2_score": [-4.466448190230935, -0.014914753405375203, 0.3227783359540768, 0.5566690423220215, 0.7519166902625275, 0.8438324317053313, 0.872124930301442, 0.882992804974133, 0.8882841330382275, 0.8918847933668456, 0.8969270973840336, 0.9027401697005798, 0.9081539725839829, 0.9131323757785506, 0.9167624160526503, 0.920090625295645], "val_source_regression_loss": [0.536534153207948, 0.2609699425063556, 0.18642156486269795, 0.10922792120070397, 0.06363971616271176, 0.04611955927331236, 0.040423755710826646, 0.0380167167728083, 0.03698620999444135, 0.03575683774167224, 0.03408152646609122, 0.03211541994934595, 0.032354668560850466, 0.02861887075101273, 0.02830000441002695, 0.027389098831181284], "val_target_regression_loss": [0.5316514957554733, 0.26789371518394617, 0.2012699218113211, 0.13112060423893265, 0.0834356290347214, 0.06671460241645197, 0.059304477717680264, 0.06115252746245529, 0.05786426440824436, 0.05886816261689874, 0.05644025967185256, 0.05410155363946776, 0.05614188077706325, 0.05750054413382011, 0.06008303712440442, 0.056360192785534675], "val_source_r2_score": [-0.638949075883756, 0.19962527274214606, 0.42369348562295944, 0.6681094395306921, 0.8030732644613332, 0.8602817077345896, 0.8752404533050157, 0.882546918395806, 0.8871279189089278, 0.8911245259638837, 0.8959500468343745, 0.9017961453034679, 0.8851914207588305, 0.9117742111249643, 0.9124066603317132, 0.9149885793990185], "val_target_r2_score": [-0.6450243169595343, 0.1725664311455694, 0.379841744060187, 0.5880934167710289, 0.7371413051749491, 0.7932435538742608, 0.8156501945013377, 0.8115534896895655, 0.8221931156755373, 0.8192531158990477, 0.8282218923880502, 0.8341380533341013, 0.8263278387831263, 0.8224907139708892, 0.8144996939548528, 0.8239554291616261], "val_source_mve_loss": [0.12881945545160317, -0.041867368689537804, -0.07402196244772853, -0.07139268163827402, -0.08480675796730609, -0.10530797665632224, -0.05765108467091488, -0.1564685630647442, -0.14506108153469954, -0.07125253357653376, -0.06425656694211537, -0.09889228217586686, -0.0672498671455851, -0.06516895318238795, -0.12358097137906883, -0.17705825027785724], "val_target_mve_loss": [0.11962037406201605, -0.039954274592190225, -0.06159105779060835, -0.05201728950855853, -0.0854569524526596, -0.09619665749465363, -0.043675092614809924, -0.1217927778068977, -0.09956523304498649, 0.0017598695328011167, 0.00794945541280027, -0.04123924460403527, 0.0075600320190379895, -0.01528548368229236, -0.0940902949888495, -0.1582223373123362], "da_weight": [0, 0, 0, 0, 0, 0, 0, 0, 0, 0, 0, 0, 0, 0, 0, 0], "beta": [1.0, 0.996, 0.992, 0.988, 0.984, 0.98, 0.976, 0.972, 0.968, 0.964, 0.96, 0.956, 0.952, 0.948, 0.944, 0.94], "epoch_no": 16}