{"train_DA_loss": [0.4823229176143842, 0.45340196589447246, 0.43362494153558007, 0.42023051460656646, 0.41652283813443436, 0.41054611531864355, 0.4103502410802806, 0.4104772177703638, 0.4050434996974969, 0.3971634857233961, 0.3927646792566972, 0.3814061908715386, 0.37474460921623154, 0.37079962526858395, 0.37242459390019583, 0.36978274594713173, 0.3680433632032963, 0.37015743474637786, 0.3704133740944662, 0.37292033036186667, 0.3728754036605249, 0.3698375076055527, 0.369298442571647, 0.3680864610118448, 0.3669071158281846, 0.3672440355504017, 0.36821479596865025, 0.3689724673300818, 0.36720957028146634, 0.3683174668761886, 0.3673325090565237, 0.3674927309727538, 0.3670665847318046, 0.36876665396271935, 0.3705385276124944, 0.36887637091293196, 0.36980353107835956, 0.3705829709931745, 0.3704521206549796, 0.3720788434284043, 0.37152341863572924, 0.3722869801782821, 0.37166862579324783, 0.37373081579722695, 0.37300373600213577, 0.3745848648726831, 0.37189774708294565, 0.3713938201585243, 0.370706808632427, 0.3701871482611138, 0.3708978574280329, 0.37053160878814334, 0.3724158098427426, 0.3740302543317596, 0.3757896392284407, 0.37520245295120114, 0.37469267529151123, 0.37371602926873204, 0.37288201372845736, 0.37259996863562184, 0.3699535765094339, 0.37098755784182924, 0.37308324859826614, 0.37227167431571584, 0.37229988262248, 0.3725532539583865, 0.3725451856470195, 0.37531940919607604, 0.3754353776601376, 0.3778260969156757, 0.3786592094510303, 0.3786155610895244, 0.3795822412048005, 0.37994516718540156, 0.37817041960015374, 0.37913603369670984, 0.37701768462139246, 0.375852882589675, 0.3762630056419582, 0.37787748554506945, 0.3784033069880832, 0.3778826069679295, 0.3761464658668316, 0.37618149830610703, 0.3770942986556337, 0.38086161535008517, 0.3824533989595103, 0.3812286940418606, 0.37991628661016225], "train_regression_loss": [3.209983528423135, 1.8869915908607748, 1.0223977818567531, 0.5659993827016088, 0.3777406669240547, 0.31278478459095826, 0.2828611876454606, 0.2544724958143461, 0.22037935077163376, 0.18114309173615367, 0.1406798562412942, 0.10306279784174026, 0.07469411839950674, 0.058117083517299925, 0.05024114509251044, 0.044804417012324065, 0.0417886462396307, 0.03930234336643267, 0.03768191343578604, 0.036531654096308964, 0.03496219955173609, 0.03388532028078924, 0.0326689102634161, 0.03161131523181795, 0.03039094656229128, 0.029227282940469668, 0.02833954025897618, 0.02758326637686334, 0.026479530332089014, 0.02567878192191913, 0.02491235883542127, 0.0244210657682372, 0.024118173862356262, 0.023973718307694417, 0.023920625982843544, 0.02356654521711239, 0.023193256440870395, 0.022825397896687662, 0.022436445233304823, 0.02208470347145031, 0.02163383458660987, 0.021207820773941944, 0.020845904583673264, 0.020591937366471212, 0.020271406335316912, 0.01989290682289075, 0.019531829194106176, 0.019308679810362498, 0.018937829543088973, 0.01873538389263957, 0.018686081534779377, 0.018506956889449023, 0.01819492912965348, 0.018095559803207133, 0.018047113037094394, 0.0180043714355943, 0.017856568283651713, 0.017765786340443155, 0.01747697462043444, 0.017396996146786473, 0.017159108535626688, 0.017219097462484453, 0.017165106578203942, 0.017007528762528895, 0.0167658580688443, 0.01659368869799174, 0.016673471467055286, 0.016391588972585185, 0.01634401416872548, 0.01645460937996233, 0.016294621248683555, 0.016185476083710272, 0.01618918162894859, 0.01603034406328332, 0.015951442919583, 0.015838630139058153, 0.015609300655348591, 0.015537469625690956, 0.015448278197558968, 0.01539757776361851, 0.015408384225499804, 0.015394699497580855, 0.015492142697411438, 0.015540489153102232, 0.015391916727010412, 0.015362848564335426, 0.015212824233591393, 0.015163788476608136, 0.015192725142324429], "train_mve_loss": [1.4616569700145199, 0.7783212866055246, 0.3499701798942887, 0.12336437641753657, 0.025909280687080222, -0.011943851102150337, -0.03218548976896259, -0.04958156144018311, -0.06482182478896552, -0.07430793730102793, -0.07913989814294595, -0.08091528690888307, -0.07978891416825695, -0.08283214530204397, -0.0842718544077312, -0.09081451217533247, -0.09153499211128495, -0.08576325026138173, -0.08328588823813407, -0.0988980029697719, -0.10850196086564927, -0.09153569636822183, -0.09089226781014333, -0.0769815253505868, -0.07853922375922229, -0.08328308895148569, -0.07804477116743433, -0.07956809970725608, -0.08709308411755771, -0.07613965848518682, -0.08879370710912962, -0.15154427140133908, -0.12825817647483712, -0.11151097691745601, -0.13154810252965476, -0.10723252733403194, -0.09292781004304206, -0.08166747231724275, -0.09954076170430977, -0.10568601252609895, -0.08835334434315317, -0.09635757703940219, -0.13701565751645858, -0.10867303366035605, -0.09867717711156203, -0.09703286737884638, -0.0953674249119471, -0.1015222914435201, -0.09301576195403906, -0.15265918145776886, -0.19065924909585572, -0.14602405547932254, -0.1701716209269747, -0.13985662558669365, -0.14097739617175115, -0.11171696318732319, -0.10527869026556311, -0.10585612717205471, -0.09602053968450378, -0.10819265647183497, -0.11823810534500662, -0.19157299392565513, -0.14025786186702943, -0.13788707157293884, -0.13604760633090296, -0.12489187212105861, -0.14848481034911093, -0.12507496873628504, -0.19111002074517106, -0.1816457547451722, -0.1786513957356731, -0.22032035336960823, -0.14129178338706275, -0.11373552164127557, -0.1303306992422837, -0.11494043368294535, -0.13922587991223911, -0.19052993741833096, -0.22167015244241062, -0.21714777555282636, -0.14788265575329607, -0.18388838299858287, -0.15307684474619584, -0.2079594844417609, -0.1923820591741114, -0.16065575026990453, -0.14081600203878591, -0.14204730416121986, -0.19813389835072173], "train_r2_score": [-8.863407130412602, -4.799637067663551, -2.132105092374355, -0.7335869883548345, -0.153013849994084, 0.04652010623424637, 0.13843709168450932, 0.2241403620681012, 0.32902607626848174, 0.44806260360744676, 0.570486236277831, 0.6860529276252342, 0.772360341806429, 0.8222867371893388, 0.846087907683539, 0.8625110402625152, 0.8718867892509036, 0.8794111135991597, 0.8845390238476505, 0.8878031079391849, 0.8924740819026465, 0.896010421432055, 0.8996687015774435, 0.9029650820088486, 0.907082846935384, 0.9101694504636937, 0.9130185571533889, 0.9152620257191434, 0.9186686943674195, 0.9213235741056934, 0.9236210731754122, 0.925282773811795, 0.9261645126086467, 0.9263936029241517, 0.9268365606663224, 0.9277836678532477, 0.9288824846389409, 0.9298556002799834, 0.9313060879437914, 0.9320637833378898, 0.933610326000766, 0.9352057769347452, 0.9361285712054297, 0.9369372873382861, 0.9378614168602362, 0.9388833630187899, 0.9401073920750104, 0.9406632369146409, 0.9419846668794226, 0.9426793934204074, 0.9428793504094342, 0.9433063477946564, 0.9442908410637146, 0.9446946311797474, 0.9446089014749797, 0.9449578199209725, 0.9452197881569798, 0.9454732085623001, 0.9464004509355372, 0.9467019663931798, 0.9475409468470004, 0.9472099655365728, 0.9474412107395087, 0.9477732300241768, 0.9486924104371589, 0.9491467936113541, 0.948718179822953, 0.9497164759703118, 0.9500162005934129, 0.9495365844422966, 0.9499825384017901, 0.9504220276785894, 0.9505607980006071, 0.9509376286650719, 0.9509871692447245, 0.951528358646111, 0.9521706959846162, 0.9523942147053341, 0.9526759281367657, 0.9529672237362117, 0.9528088678869681, 0.9527337601303514, 0.9525249598659353, 0.9523598886814819, 0.9528576058208085, 0.9528909390917412, 0.9533593689524753, 0.953571103956299, 0.9534766527948899], "val_source_regression_loss": [2.528742630270463, 1.413024058824853, 0.7546047134489953, 0.4502522547411013, 0.34133610619774346, 0.3009272517659996, 0.2728756479447401, 0.2410924474272547, 0.20464308503307874, 0.16462006749986094, 0.12464172072425674, 0.0893012111228478, 0.0694116712842561, 0.05499667693165284, 0.049480837875906424, 0.04482543496768686, 0.04223510915342765, 0.03877599629325957, 0.037793049447332756, 0.03636191085075276, 0.035469681142440326, 0.034186702221632004, 0.032978357440685925, 0.031655224653173095, 0.03132341707809062, 0.029905338594807856, 0.029582500363452526, 0.028091165696895574, 0.027888009171414225, 0.026331363858867297, 0.026462345277961298, 0.02582509285192701, 0.02553038497137118, 0.025198593311294724, 0.025409472139575815, 0.024772500395303286, 0.02443422498535129, 0.02425828992235887, 0.023567069357237482, 0.02340844053114894, 0.02279173916417964, 0.022175454746790325, 0.021940316427263278, 0.02205184296575151, 0.021572593623135662, 0.021127938481542884, 0.02049057911845702, 0.02042763394928431, 0.02001023804179475, 0.020031200250304197, 0.020052362976100625, 0.01972275839151838, 0.01942490608301721, 0.01952365186961391, 0.019343281836732278, 0.01916795724979307, 0.018833469546435378, 0.018703017654958406, 0.0186327687181721, 0.019080741048047814, 0.01808917641498243, 0.01862249064813309, 0.01834666751372286, 0.01820253381576342, 0.017805349541521524, 0.018252450795962088, 0.017973202351433567, 0.018094785735482656, 0.017924680138784874, 0.017387095803418493, 0.01716661441458177, 0.01743643041228569, 0.01718978870282822, 0.01756758622447901, 0.017039774138999136, 0.01665177523995502, 0.01698678454879341, 0.016565071737181535, 0.01681551708592267, 0.01682705548886634, 0.016451625400989114, 0.01680844336087945, 0.017066486674962165, 0.01672302247201906, 0.016737929981531976, 0.01655900540844172, 0.016350258023867123, 0.015990368173092226, 0.016380484652104257], "val_target_regression_loss": [2.51216294795652, 1.3866703412200831, 0.7319176393219188, 0.43586732239662845, 0.3318932928333554, 0.29819479056551484, 0.276974882506117, 0.24912332564215117, 0.21593384916269326, 0.1827717909141432, 0.14283840688346308, 0.1083318234621724, 0.08557624544335317, 0.07218726014694836, 0.06665975067623053, 0.0623196148419682, 0.060124751274721534, 0.05750431747564787, 0.05833560869663577, 0.05832097358718703, 0.05863511482182937, 0.058569014119573784, 0.057938117533922195, 0.058599599908235704, 0.057827013863038415, 0.05893585918164706, 0.06125847783081139, 0.06065655011636547, 0.06132625425352326, 0.061596720915617825, 0.06275027056660833, 0.0639737351691421, 0.06361039975493014, 0.06464891347892676, 0.06550666916219494, 0.06536328797287579, 0.06409594817440721, 0.06368295096238202, 0.0662987223248693, 0.06550170193555989, 0.06810294586835028, 0.0662204003126561, 0.06633110372703287, 0.06767899609064754, 0.06791762088107157, 0.06777450494185279, 0.06871596025892451, 0.06866030310150943, 0.0684850879390783, 0.07043258610028255, 0.06940783319782608, 0.06979205827169781, 0.0710341916714288, 0.07055541264671314, 0.07279336697693113, 0.07212903454333922, 0.07185569226364547, 0.07185730418261094, 0.0713984087298188, 0.07140877616556385, 0.07168824461442005, 0.07067556424608713, 0.07229936212489876, 0.07281632924193068, 0.07265443713227406, 0.06935594952370547, 0.07293971717546258, 0.07305673139664946, 0.07256890656544437, 0.07516830089160159, 0.07663331666513334, 0.074941304618422, 0.07589052792025518, 0.0764446013807496, 0.07606359439182885, 0.07671749054253856, 0.07570299878716469, 0.07711836417453198, 0.07868892025155357, 0.07691314212883575, 0.0773347487932519, 0.07786310501868211, 0.07537943252091166, 0.07517235341800164, 0.07784472132408166, 0.08020206196587297, 0.07671327690912198, 0.07940257430265221, 0.07719488715446449], "val_source_r2_score": [-6.747748206813473, -3.3894137148127843, -1.3162308721124252, -0.3643500910047622, -0.04785635906480071, 0.08857151197073021, 0.168726442648557, 0.2595146377507508, 0.3805861597323174, 0.5006494042808909, 0.6208181399586855, 0.7293506656739778, 0.7663507309147638, 0.8303789585590862, 0.8471625693137618, 0.8603724045457073, 0.8720912925395652, 0.8822238632978993, 0.8843161160519889, 0.8877924474598267, 0.8887823260671419, 0.896185487889377, 0.8991493083024641, 0.9037809254630059, 0.9031550837760951, 0.9090569170994474, 0.9064723651011746, 0.9143127676687818, 0.9145132558587128, 0.92016603253778, 0.9206118205140205, 0.9202465825737322, 0.9220671912129416, 0.9234213373744254, 0.9214070625590897, 0.924681214497375, 0.9261302580906496, 0.9257964917532033, 0.927987509062342, 0.928822674365708, 0.9305574405365464, 0.9325119584453304, 0.9331867660163456, 0.9318604538534293, 0.9340127495387346, 0.9365228314863152, 0.9376559226496949, 0.9381156599558809, 0.9389198053414369, 0.9391327812876842, 0.9392925422751418, 0.9399464053464026, 0.9402975674648841, 0.9402737999771796, 0.9412133734240522, 0.9414452417186081, 0.9426957846329305, 0.9433015181851649, 0.9437267785301199, 0.9413758613672337, 0.945083574339178, 0.9433511169049887, 0.9442434898026039, 0.9438026676312089, 0.9458440134599084, 0.9442119227074989, 0.9449639104784783, 0.9443414321934543, 0.9450427300573151, 0.9472831774976667, 0.9476485888198863, 0.9462616435244148, 0.9474284144213646, 0.9461393200856821, 0.9478363709479735, 0.9491217453543346, 0.9159380963004509, 0.9494262751991926, 0.9465567179088925, 0.9485594911206227, 0.9500976788282577, 0.9482680945557872, 0.9482804596675155, 0.9477095389205273, 0.9492487029876925, 0.949802090919457, 0.9504906384118351, 0.9514678675853979, 0.9505858915403634], "val_target_r2_score": [-6.827863045020708, -3.345138492211111, -1.2690502394900869, -0.35583846213801834, -0.024190282315344334, 0.07993547221432594, 0.14460067575163654, 0.23383276962571306, 0.33880093065978917, 0.441674213503448, 0.5641695160850656, 0.6677075131494327, 0.7359359834537288, 0.7763028313399661, 0.7936791166653181, 0.8051513554048749, 0.8159647176216663, 0.8227126560792511, 0.820660112214643, 0.8192061847011468, 0.8188554464289999, 0.8200496350070989, 0.8195646748529459, 0.8165816615176982, 0.8217535944102966, 0.818614934038042, 0.8099200917382675, 0.8138766000402885, 0.8099590219312857, 0.8108054760286196, 0.8075486206495935, 0.8017898740652183, 0.8034862601160359, 0.8006558849424316, 0.7961059528657104, 0.7988259562013124, 0.8034476399422322, 0.8033925239885186, 0.7967288153929817, 0.7965266171044426, 0.7791151282958912, 0.7951797958477547, 0.7930598204685457, 0.7926145868694884, 0.7915822925732363, 0.7904282226208752, 0.7857876845228058, 0.7880414938984578, 0.7874040352622261, 0.781868223195988, 0.7880993161207926, 0.785862018644126, 0.7746196731790449, 0.7833810805668793, 0.7760674956004411, 0.7776826013446968, 0.7784079663486132, 0.7799848607886822, 0.7821318877381124, 0.779052526933886, 0.7797841537627949, 0.7801416907925797, 0.7761099713615723, 0.776455060539336, 0.7765768666763551, 0.7848424497867318, 0.7717039104507313, 0.7750042412587662, 0.7699050962469242, 0.7683815514146628, 0.763961881751586, 0.7680223667789929, 0.7662296733247917, 0.7575711593781796, 0.7651332608505793, 0.7535471055521629, 0.766031788365686, 0.7615005179197774, 0.7512424492751283, 0.7643888759005645, 0.7601497371423446, 0.7595811455960004, 0.7684616928558009, 0.7680050183696158, 0.7566289272921884, 0.7490112473146142, 0.7638090426290078, 0.7537942976814012, 0.7623566307910496], "val_source_mve_loss": [1.0962707302238368, 0.5415236878244183, 0.21685543778953673, 0.06378687500859363, 0.004536733446831379, -0.021217750803909346, -0.03960832590355149, -0.05663199208771126, -0.06909509569029265, -0.07424691166799469, -0.0778505534546662, -0.07801889047568923, -0.07966463522443289, -0.0760725509799734, -0.12101953542685207, -0.07487383447115935, -0.09849005711229541, -0.07019010549293289, -0.07646872263543214, -0.07415828566196599, -0.09946116569298732, -0.12326305925468856, -0.08338353367923182, -0.0760964672022228, -0.07068640333187731, -0.0765465911053404, -0.09347198035898088, -0.07309070229530334, -0.08456925307459469, -0.07200627250573303, -0.17823272868047788, -0.1612589397007906, -0.1496367318720757, -0.09149793252537522, -0.09545750538759594, -0.10511458127558986, -0.09450440542607368, -0.07288575488366658, -0.08976084022205087, -0.13409013103080702, -0.0728343224883834, -0.06999113594618024, -0.1464440096405488, -0.09594297998502285, -0.07720184962772116, -0.08761564066892938, -0.07998712021338789, -0.08569513072695913, -0.0770959332113779, -0.20295819885368588, -0.16658905488026293, -0.13819219549245473, -0.1502880719077738, -0.1444737707512288, -0.12674215002150474, -0.10242774196063416, -0.12470667375416696, -0.0908855502552624, -0.08456754939088339, -0.06881632718340128, -0.15956818699082242, -0.15792543846595136, -0.14651093150995956, -0.10957675530940672, -0.14565543736083597, -0.18845489583437955, -0.1346606367939635, -0.13565869827436494, -0.15377217757550976, -0.16406903472505038, -0.23343301951130735, -0.18877346738229825, -0.11873701846675028, -0.12429644407916672, -0.11437608589288555, -0.08966435048776338, -0.11744260231528102, -0.1574238133204134, -0.23702107388761978, -0.19258532060098044, -0.09169189804056778, -0.12070470694688303, -0.24788850074327445, -0.1546183048830002, -0.20753070929005177, -0.12235020704661743, -0.08497937160390842, -0.1108017075052367, -0.23626858392093755], "val_target_mve_loss": [1.0880242254160628, 0.5254667397541336, 0.20175603607410117, 0.05314145145254045, -0.0028995145171220546, -0.02419532005545459, -0.03788822013413227, -0.05086527718231082, -0.0585637900954749, -0.05686017564981233, -0.057954099241502674, -0.05747866347620759, -0.05752415021386328, -0.04594965185970068, -0.095087147400349, -0.03456875424879261, -0.05445947380194181, -0.01409939336118913, -0.01448508950327582, -0.012853645295187642, -0.04374728377767002, -0.07358161128963096, -0.010336737844008433, 1.0240849555481838e-05, -0.0034365514646979827, -0.005699299605964105, -0.022914610720605036, 0.016522705938101193, 0.016380206045187726, 0.029955055635375313, -0.13883721677562857, -0.10396313011834893, -0.08056600026409083, 0.03934507257646964, 0.03870415893866669, 0.020144249377418544, 0.04759074342613922, 0.07947748043586182, 0.05693843346560681, -0.03965470836132388, 0.12830280217259557, 0.14693392784912376, -0.057040739026439344, 0.08454363882730279, 0.14842931648032576, 0.14119922451061917, 0.18238899637532385, 0.16245396461196338, 0.1548743871618298, -0.14503046705187123, -0.05382900889609245, 0.02301443602795465, -0.02022922192287596, 0.058505932835838464, 0.1644188584818776, 0.27355299741501293, 0.20213792688814522, 0.3248282757033653, 0.4046781250759016, 0.5094725532999521, 0.08917555274276794, 0.17271672778680355, 0.30393146574968777, 0.5560077599756703, 0.30023785912773654, 0.01203572226664688, 0.5432365371881029, 0.4825364344906581, 0.6415142445247385, 0.6310068973681972, -0.07993148936878276, 0.2728929271379226, 0.8727658369307276, 0.9939038255075111, 0.9878581999977932, 1.3551384974683671, 1.2389931559939928, 1.0849654035807788, 0.17820163139531128, 1.080748261648077, 2.6798212352102695, 2.5707327335412744, 0.05442416403867022, 1.984012612436391, 1.0252777271774374, 3.623528946804095, 3.9255196127710463, 4.125694585940506, 0.6380423998719529], "da_weight": [0, 0, 0, 0, 0, 0, 0, 0, 0, 0, 0, 0, 0, 0, 0, 0, 0, 0, 0, 0, 0, 0, 0, 0, 0, 0, 0, 0, 0, 0, 0, 0, 0, 0, 0, 0, 0, 0, 0, 0, 0, 0, 0, 0, 0, 0, 0, 0, 0, 0, 0, 0, 0, 0, 0, 0, 0, 0, 0, 0, 0, 0, 0, 0, 0, 0, 0, 0, 0, 0, 0, 0, 0, 0, 0, 0, 0, 0, 0, 0, 0, 0, 0, 0, 0, 0, 0, 0, 0], "beta": [1.0, 0.996, 0.992, 0.988, 0.984, 0.98, 0.976, 0.972, 0.968, 0.964, 0.96, 0.956, 0.952, 0.948, 0.944, 0.94, 0.9359999999999999, 0.9319999999999999, 0.928, 0.924, 0.92, 0.916, 0.912, 0.908, 0.904, 0.9, 0.896, 0.892, 0.888, 0.884, 0.88, 0.876, 0.872, 0.868, 0.864, 0.86, 0.856, 0.852, 0.848, 0.844, 0.84, 0.836, 0.832, 0.8280000000000001, 0.8240000000000001, 0.8200000000000001, 0.8160000000000001, 0.812, 0.808, 0.804, 0.8, 0.796, 0.792, 0.788, 0.784, 0.78, 0.776, 0.772, 0.768, 0.764, 0.76, 0.756, 0.752, 0.748, 0.744, 0.74, 0.736, 0.732, 0.728, 0.724, 0.72, 0.716, 0.712, 0.708, 0.704, 0.7, 0.696, 0.692, 0.688, 0.6839999999999999, 0.6799999999999999, 0.6759999999999999, 0.6719999999999999, 0.6679999999999999, 0.6639999999999999, 0.6599999999999999, 0.656, 0.652, 0.648], "epoch_no": 89}