{"train_DA_loss": [0.29884283793528293, 0.1749464609954758, 0.15876519789670676, 0.1520201009945089, 0.14919240602464084, 0.14665456494857887, 0.14293893741297328, 0.14139602831147707, 0.13917162548580378], "train_regression_loss": [0.8872231504789654, 0.14546064452746613, 0.05631382903339549, 0.04225674318149686, 0.03864819960757218, 0.035754308625510885, 0.03498230958136115, 0.03417734153078396, 0.0339845076613673], "train_mve_loss": [0.29745674148432644, -0.06919498317466344, -0.07057293420453203, -0.0607163729282331, -0.0952124782468463, -0.058243110586107594, -0.05540864765337605, -0.049973893096803314, -0.06420373235628267], "train_r2_score": [-1.787132509997108, 0.5474259577340871, 0.8231317498225684, 0.8674591041317252, 0.8783049361334218, 0.8873711942170983, 0.8898902053941476, 0.891971483285568, 0.893241382383191], "val_source_regression_loss": [0.23358750713478987, 0.08262382200948752, 0.05018237532134269, 0.04169855418075232, 0.03940072552461153, 0.03859201388635263, 0.03653531857309448, 0.035761181882042796, 0.035289817293927925], "val_target_regression_loss": [0.24815721771899302, 0.08873619715784006, 0.05296049309763939, 0.047363662427872606, 0.04212717255162206, 0.0394159331739803, 0.036934254584228915, 0.03775110034046659, 0.035604967136576675], "val_source_r2_score": [0.2731459243998464, 0.7380220506580226, 0.8415815146800325, 0.8704589424175361, 0.8754277184389285, 0.8800444554755062, 0.8844729532907303, 0.8872747225253627, 0.8889020958877762], "val_target_r2_score": [0.2172290476495399, 0.7204577861603293, 0.833644050901894, 0.8468005673387494, 0.8648863802799591, 0.8752453814449728, 0.8828676780197021, 0.8795975080641838, 0.8881218499378671], "val_source_mve_loss": [-0.058620377135267306, -0.06554062688236784, -0.1057616391094627, -0.10697533550915445, -0.05884189474259972, -0.0428502851871738, -0.041034540647913696, -0.16466854664550465, -0.04290617750898288], "val_target_mve_loss": [-0.051819185480166965, -0.061232957882201594, -0.10272839565755455, -0.10438060637112635, -0.05619303208247871, -0.0424021583311497, -0.04022400471482687, -0.1637010067511516, -0.042548876516758254], "da_weight": [1.4, 1.3973333333333333, 1.3946666666666665, 1.392, 1.3893333333333333, 1.3866666666666665, 1.384, 1.3813333333333333, 1.3786666666666665], "beta": [1.0, 0.996, 0.992, 0.988, 0.984, 0.98, 0.976, 0.972, 0.968], "epoch_no": 9}