{"train_DA_loss": [0.29884283793528293, 0.1749464609954758, 0.15876519789670676, 0.1520201009945089, 0.14919240602464084, 0.14665456494857887, 0.14293893741297328, 0.14139602831147707, 0.13917162548580378, 0.13416079414746226, 0.13771632272184875, 0.13701754321482107, 0.13716989611930996, 0.13817374402115723, 0.14114371972529718, 0.14342194867798788, 0.1442344261629599, 0.14293316655691843, 0.14622711270393793, 0.14825429896767875, 0.15290047190198078, 0.15037273507313276, 0.14730521440642189, 0.14627979970937238, 0.14590155553597092, 0.14514453643064612, 0.14512161718480548, 0.14693746202960747, 0.1452722093005285, 0.1459006672244948, 0.14451810076042765, 0.14380799399065688, 0.1450452751274028, 0.14567020607148545, 0.14447749490718573, 0.14525420210874168, 0.1424729823538356, 0.14704268237906193, 0.14949070233885722, 0.14715372270715493, 0.14328272341643297, 0.1438908166315073, 0.14454106655281712, 0.14498182023676212, 0.14773388613284424, 0.14564862078433716, 0.1446811049236785, 0.14328899102070977, 0.13761464177019608, 0.1375632254897159, 0.14033133446679907, 0.1394059543082426, 0.13655619364456567, 0.13908386537192263, 0.135399111495498, 0.13357594001942893, 0.1250246153732377, 0.12593575915359165, 0.12686506438390838, 0.11860128190501217, 0.11980665408728655, 0.11624101213804383, 0.11945761616513732, 0.11521973385317234, 0.119087479177733, 0.12030564360592984, 0.11690912252952645, 0.11670595374881158], "train_regression_loss": [0.8872231504789654, 0.14546064452746613, 0.05631382903339549, 0.04225674318149686, 0.03864819960757218, 0.035754308625510885, 0.03498230958136115, 0.03417734153078396, 0.0339845076613673, 0.03355223873214731, 0.03422226961208354, 0.03487674253558573, 0.035304406222800504, 0.035392091108973, 0.036722226386763826, 0.0362365273614048, 0.035334796236123095, 0.03475679283181862, 0.03382332480752626, 0.03664729637102355, 0.042236379477139256, 0.04873849383182483, 0.05896954982791784, 0.06480146567056286, 0.07139245005770564, 0.07978917965818694, 0.09017647261402725, 0.10421565263591694, 0.12220776761784959, 0.14731293423629113, 0.16839728101924525, 0.18980400908527253, 0.21884390161503822, 0.2459259569930965, 0.2728825420059495, 0.2907451940955802, 0.3024028043179233, 0.3104355498140429, 0.3149025195722606, 0.31895930607423484, 0.3208478049152076, 0.3233196239584761, 0.32533727432354276, 0.32671467701085527, 0.3279867351218595, 0.32924864985988606, 0.3306404212438646, 0.33162357833856204, 0.3312409811634468, 0.3319636765438416, 0.3325416923141349, 0.3333318891919727, 0.33365458517013563, 0.3337613291888612, 0.3342079041318004, 0.3337687889635018, 0.33433142063332216, 0.33413173980207284, 0.3344092640269827, 0.33451553104510034, 0.3344417770122479, 0.3343289528294063, 0.33470268449465146, 0.3345143419351613, 0.3348749732050425, 0.3347818067457384, 0.334923207841582, 0.3351156332783769], "train_mve_loss": [0.29745674148432644, -0.06919498317466344, -0.07057293420453203, -0.0607163729282331, -0.0952124782468463, -0.058243110586107594, -0.05540864765337605, -0.049973893096803314, -0.06420373235628267, -0.0515960258733093, -0.04887347504363772, -0.05473393520427156, -0.05657298917459899, -0.04900968203110828, -0.06852567160435674, -0.05105124942794905, -0.04950966858185855, -0.08788589155046062, -0.05085857638874699, -0.05318052604857498, -0.055633877849689865, -0.06142166880141583, -0.07379290364151463, -0.07140208143652357, -0.07430584156388584, -0.07741427753832347, -0.08065125383300471, -0.08364301551494345, -0.08481466030221861, -0.08406212059627721, -0.08139477247011319, -0.07702353882809362, -0.06878698201615098, -0.05938162939313125, -0.04843066717994738, -0.040452554379930374, -0.0350527962864678, -0.031190069313152564, -0.028948276977087125, -0.026953483216415143, -0.026102865144710007, -0.024946506689362213, -0.0238884689841399, -0.023277570320492512, -0.022785380613773897, -0.022059847363032455, -0.021424352081677277, -0.020972224485113794, -0.021284835254330822, -0.020957854940552585, -0.020734317955719325, -0.02038188266820722, -0.020320057131731423, -0.020366171479201323, -0.020142069471858686, -0.020489486863783865, -0.02022508055527594, -0.020386226750421635, -0.02035605639578533, -0.020407505928482554, -0.020546890912071836, -0.02067972878181466, -0.020544274379601414, -0.02076698720141891, -0.020648590087085295, -0.020796094493688487, -0.02077793438963156, -0.0207759006916404], "train_r2_score": [-1.787132509997108, 0.5474259577340871, 0.8231317498225684, 0.8674591041317252, 0.8783049361334218, 0.8873711942170983, 0.8898902053941476, 0.891971483285568, 0.893241382383191, 0.8940355172295577, 0.8916572630325437, 0.8895300030385007, 0.8892054873063368, 0.8884548572952854, 0.8838401136073851, 0.8854900103995005, 0.8888957062042113, 0.8907525380559832, 0.8933024020285162, 0.8849736701699943, 0.8672994659974516, 0.8477224760850656, 0.8158034567569619, 0.7976546644018675, 0.7778974117770674, 0.7513980561290464, 0.7189023448973526, 0.6752371445377026, 0.6202882042416051, 0.5427483528138871, 0.47739595342698443, 0.41194444202105185, 0.32363485551444077, 0.23745913149899514, 0.1546287416534156, 0.09889465962610246, 0.06299195087466183, 0.037299884125721355, 0.022769053005069335, 0.011118075170088662, 0.0042321852170140615, -0.0005837026161814743, -0.005833719272820877, -0.010107838244227662, -0.015170604775837893, -0.019485386612812364, -0.024310786341650025, -0.027921994082889954, -0.02704706057801264, -0.02767262388181871, -0.029648523698616334, -0.03247575941770948, -0.033124381395060194, -0.034344579031254166, -0.03523120151289162, -0.03327140198643828, -0.03706661747573455, -0.03550823647797516, -0.03506662296797045, -0.035586959425811526, -0.03631902506912077, -0.03758435292996887, -0.036895959795006705, -0.036642600285780494, -0.03982864491065946, -0.03569264535892447, -0.04133397381920372, -0.040520463592195854], "val_source_regression_loss": [0.23358750713478987, 0.08262382200948752, 0.05018237532134269, 0.04169855418075232, 0.03940072552461153, 0.03859201388635263, 0.03653531857309448, 0.035761181882042796, 0.035289817293927925, 0.03520659042913823, 0.0354369600380587, 0.03727670938108757, 0.03741972661535641, 0.03760357260419305, 0.03805456789815502, 0.03823751383194118, 0.036705473859076666, 0.034474660114497895, 0.03469037163741649, 0.0409392182816081, 0.04560118316892226, 0.057380840929735236, 0.06561979767718133, 0.0706067843374553, 0.07965948755384251, 0.0955916607313475, 0.09553225075078618, 0.11183413118124008, 0.1345386157749565, 0.15353403496704285, 0.1742380482565825, 0.2083256154493162, 0.2306079189678666, 0.2648086671236974, 0.2986816560766499, 0.2972522801274707, 0.3084426808888745, 0.3140229806778537, 0.31575769527702574, 0.320203891320593, 0.3213310843440378, 0.3258507306788378, 0.32685610614005167, 0.3283869149578605, 0.32852511136395157, 0.3335854164354361, 0.3320294451561703, 0.33138663582741074, 0.33143799272692126, 0.3363274585479384, 0.3395241333800516, 0.3362106654294737, 0.33598450367238114, 0.33278452998893276, 0.3342248741418693, 0.33363999189085264, 0.3402312742486881, 0.33481342634957306, 0.3357387808667626, 0.3357463290167462, 0.33503695136042916, 0.3344375848959965, 0.34141829420047204, 0.33615622645730425, 0.33828349905029226, 0.33612560637437616, 0.3344963604857208, 0.33404457189474895], "val_target_regression_loss": [0.24815721771899302, 0.08873619715784006, 0.05296049309763939, 0.047363662427872606, 0.04212717255162206, 0.0394159331739803, 0.036934254584228915, 0.03775110034046659, 0.035604967136576675, 0.03656992136506708, 0.03646242082902011, 0.037397500720753034, 0.037271705141682536, 0.03879457095839605, 0.0394071618949247, 0.038980223902851156, 0.03957937554616457, 0.03795381163834197, 0.039690500415956516, 0.04682994570440737, 0.048634386390067966, 0.05792670376646291, 0.06622937956385931, 0.07175411708700428, 0.08069358744723781, 0.09716490535124851, 0.09640332740867973, 0.11175082607349013, 0.13368137873661745, 0.15363769854899426, 0.17307985322490618, 0.20863020562442244, 0.2290506562229934, 0.2612185254218472, 0.2940316139512761, 0.29616740592725715, 0.3056604453143041, 0.31191883734457054, 0.3142336531999005, 0.3169627763852952, 0.3170726913365589, 0.32389332885575145, 0.32293861496980025, 0.3268019396598172, 0.32495136331221103, 0.3264378907194563, 0.3258807917309415, 0.3260343872058164, 0.3260253725727652, 0.33004279624504645, 0.3318659953630654, 0.3343255976392965, 0.3333493697035844, 0.32844403433571956, 0.32877064102394565, 0.33001101852222614, 0.3379222409930199, 0.32952296259296926, 0.33352316403464904, 0.3321073590570195, 0.33091681227562536, 0.3297202157176984, 0.3336114009284669, 0.3308709642499875, 0.33149841086120363, 0.3295617923140526, 0.3303695160682034, 0.3297154289332165], "val_source_r2_score": [0.2731459243998464, 0.7380220506580226, 0.8415815146800325, 0.8704589424175361, 0.8754277184389285, 0.8800444554755062, 0.8844729532907303, 0.8872747225253627, 0.8889020958877762, 0.8900172878342885, 0.8886068783540838, 0.8814452391353799, 0.8682382336190954, 0.8815926531329477, 0.8811223773372497, 0.8775091967792349, 0.8856822274666128, 0.8925060515954096, 0.8907740200536326, 0.8718351829597095, 0.856987746302796, 0.8217596127132626, 0.7969961150730805, 0.7813979315978673, 0.7508002230238016, 0.7053638915048046, 0.7029049078734251, 0.6541501768396628, 0.5805645965375641, 0.531100029964835, 0.4687137830498889, 0.3496684695338262, 0.28890349377720737, 0.182978250234699, 0.07955236687999814, 0.08202935065075459, 0.04809095026160807, 0.03402802090986575, 0.02867014679135239, 0.017646209047810047, 0.0031586475288858866, -0.0012606648485392472, -0.008408808489780853, -0.0201496183265343, -0.012820692778315875, -0.019412526570936013, -0.02448717154619478, -0.014072712883641434, -0.02381148501391176, -0.03489576316640466, -0.04684688699905211, -0.03569557138437061, -0.04134429973308261, -0.028170388195600037, -0.02711055545798594, -0.030869487820282576, -0.048875789792870473, -0.025613880498844405, -0.03176708719588172, -0.040018827950100797, -0.029888828463606347, -0.030364214430780523, -0.05087597229821498, -0.03914712029478712, -0.039112072820472105, -0.03847982088373881, -0.03049814329816072, -0.03393275884717952], "val_target_r2_score": [0.2172290476495399, 0.7204577861603293, 0.833644050901894, 0.8468005673387494, 0.8648863802799591, 0.8752453814449728, 0.8828676780197021, 0.8795975080641838, 0.8881218499378671, 0.883540608929014, 0.8834503307656933, 0.8818014280268537, 0.8816394864475837, 0.8766783984204182, 0.8744300201864746, 0.8761005790881959, 0.8749075389805666, 0.8800133151416308, 0.8749494227241347, 0.8519121949175409, 0.8476091691988414, 0.8184348807244926, 0.790564018598287, 0.771654058053539, 0.7472172601164531, 0.6949241108728414, 0.6950325764535707, 0.6500414215609492, 0.5799260978146626, 0.5200733748793406, 0.45575591481244276, 0.3462994114785956, 0.28483294497048056, 0.18555334913437163, 0.08036151065270394, 0.07151807359096488, 0.04486397476303725, 0.023182064533810578, 0.021901224971404086, 0.005606357706459829, 0.002684089882624436, -0.020914261709084385, -0.022376390503735064, -0.02301896395302027, -0.017075155571466133, -0.018771456327434422, -0.023097891918325272, -0.02072784905342404, -0.02169140352358399, -0.03262948677776627, -0.033995100313651674, -0.04548622920659349, -0.05964759100666828, -0.021705846104786986, -0.024719086923332655, -0.03213554095344584, -0.06091320941284791, -0.02537164834380156, -0.037507031473779616, -0.04036882985262095, -0.03564379862052002, -0.033126264765277205, -0.0470834483955053, -0.02694153525302374, -0.036922629138855786, -0.0309933308823307, -0.03906796409625516, -0.032944817412610156], "val_source_mve_loss": [-0.058620377135267306, -0.06554062688236784, -0.1057616391094627, -0.10697533550915445, -0.05884189474259972, -0.0428502851871738, -0.041034540647913696, -0.16466854664550465, -0.04290617750898288, -0.08125485285262393, -0.03680988443291681, -0.046319022804356305, -0.035714017369659845, -0.053049554122955936, -0.048061623350734925, -0.05402922040670161, -0.0587850519022934, -0.05510161013289052, -0.05605633976827761, -0.04727294689910427, -0.05359218771432995, -0.04076802985339313, -0.07587921123500842, -0.06685562994165026, -0.05144677272030882, -0.072540144026754, -0.08091998462132208, -0.08146454074722566, -0.09107041349456568, -0.09157310094043708, -0.07400520212331395, -0.06943204920667752, -0.06380954442344083, -0.048798883802429506, -0.03261640251192982, -0.03931344751339809, -0.032420457064939345, -0.029498964826914536, -0.027174713389627684, -0.027197960624767908, -0.024857272177483816, -0.022071486258891167, -0.022723527657829083, -0.023177124771947978, -0.022212167068793896, -0.019146884468259514, -0.01936301614519707, -0.02025102673596732, -0.02139968955948664, -0.0191037539855405, -0.016328450396158704, -0.019174283397069593, -0.018515098297221075, -0.021642060828792633, -0.020612053094123294, -0.02113119459111884, -0.01699658672497341, -0.019477501778513383, -0.02026890154933901, -0.02036955689263951, -0.0202403399458594, -0.020610645290309933, -0.01685921679944939, -0.020111686450719927, -0.01812987318143818, -0.019533660247993127, -0.021211377211555745, -0.02187443624849722], "val_target_mve_loss": [-0.051819185480166965, -0.061232957882201594, -0.10272839565755455, -0.10438060637112635, -0.05619303208247871, -0.0424021583311497, -0.04022400471482687, -0.1637010067511516, -0.042548876516758254, -0.08063449905176831, -0.0360226797616216, -0.04607667572274329, -0.03571743093976739, -0.051811684990764426, -0.04630244654977018, -0.052398204067899926, -0.055441798001622696, -0.0524964436746327, -0.052098343338651265, -0.04273856358875515, -0.051301996134648656, -0.04039773993953398, -0.07521806650195911, -0.06589240922479872, -0.05067835000764792, -0.07152047377245821, -0.0803340394643082, -0.08142384981653493, -0.0915573600703364, -0.09148644971524834, -0.0747040313710073, -0.06920154136457261, -0.06473349052582197, -0.050951078154478864, -0.0353927834784007, -0.039949140713140846, -0.034065101120715875, -0.030747814041675085, -0.028089596439081772, -0.02912371937084682, -0.027429724423582578, -0.02326135454806173, -0.025098742608716532, -0.02413023818450369, -0.02439284793124979, -0.023531141507018145, -0.02317299472263, -0.023574499179057445, -0.024742855303357267, -0.02296438454917282, -0.02111236587949809, -0.020346153566056187, -0.020179045517116214, -0.024353615987073085, -0.024050911443580868, -0.023426446476417364, -0.01846449707699999, -0.02290218168644199, -0.02166568591989055, -0.02267685404142282, -0.022922035514311805, -0.023700471306041738, -0.021926488255737883, -0.023578564600817337, -0.022645069757820505, -0.023927787929820785, -0.02396690545034162, -0.024763429510721545], "da_weight": [1.4, 1.3973333333333333, 1.3946666666666665, 1.392, 1.3893333333333333, 1.3866666666666665, 1.384, 1.3813333333333333, 1.3786666666666665, 1.376, 1.3733333333333333, 1.3706666666666665, 1.3679999999999999, 1.3653333333333333, 1.3626666666666667, 1.3599999999999999, 1.3573333333333333, 1.3546666666666667, 1.3519999999999999, 1.3493333333333333, 1.3466666666666667, 1.3439999999999999, 1.3413333333333333, 1.3386666666666667, 1.3359999999999999, 1.3333333333333333, 1.3306666666666667, 1.3279999999999998, 1.3253333333333333, 1.3226666666666667, 1.3199999999999998, 1.3173333333333332, 1.3146666666666667, 1.3119999999999998, 1.3093333333333332, 1.3066666666666666, 1.3039999999999998, 1.3013333333333332, 1.2986666666666666, 1.2959999999999998, 1.2933333333333332, 1.2906666666666666, 1.2879999999999998, 1.2853333333333332, 1.2826666666666666, 1.28, 1.2773333333333332, 1.2746666666666666, 1.272, 1.2693333333333332, 1.2666666666666666, 1.264, 1.2613333333333332, 1.2586666666666666, 1.256, 1.2533333333333334, 1.2506666666666666, 1.248, 1.2453333333333334, 1.2426666666666666, 1.24, 1.2373333333333334, 1.2346666666666666, 1.232, 1.2293333333333334, 1.2266666666666666, 1.224, 1.2213333333333334], "beta": [1.0, 0.996, 0.992, 0.988, 0.984, 0.98, 0.976, 0.972, 0.968, 0.964, 0.96, 0.956, 0.952, 0.948, 0.944, 0.94, 0.9359999999999999, 0.932, 0.928, 0.924, 0.92, 0.916, 0.912, 0.908, 0.904, 0.9, 0.896, 0.892, 0.888, 0.884, 0.88, 0.876, 0.872, 0.868, 0.864, 0.86, 0.856, 0.852, 0.848, 0.844, 0.84, 0.8360000000000001, 0.832, 0.828, 0.8240000000000001, 0.8200000000000001, 0.8160000000000001, 0.812, 0.808, 0.804, 0.8, 0.796, 0.792, 0.788, 0.784, 0.78, 0.776, 0.772, 0.768, 0.764, 0.76, 0.756, 0.752, 0.748, 0.744, 0.74, 0.736, 0.732], "epoch_no": 68}