{"train_DA_loss": [0.16258431138841936, 0.15055954351449144, 0.14401735265958898, 0.14347613536815756, 0.14560935971832797, 0.145144184577999, 0.14362552025145978, 0.1428933880773715, 0.14237812320809043, 0.1439608700260166, 0.14174959922321753, 0.14058113413466178, 0.14183597853049718, 0.1444868683147583, 0.14447197507406284, 0.14411256821243812, 0.1457855626395895, 0.14880392607131213, 0.15336378020195246, 0.159083159126246, 0.16092358698465706, 0.1613188995494485, 0.16005868528045072, 0.15987259236043505, 0.15734210446940045, 0.1587277275171315, 0.1561856924792857, 0.15570799432272667, 0.1551832038725316, 0.15699576630752526, 0.15705781634318108, 0.1585594803380901, 0.1575389564091806, 0.15747240988003053, 0.15984443239390958, 0.15746809753301594, 0.15988144716094682, 0.1592532775894325, 0.15825196648428602, 0.15859165983155396, 0.16094393668938053, 0.15998500704397559, 0.15943295529394852, 0.15903789434629667, 0.15802386606374322, 0.1591718827035462, 0.15659905047287018, 0.1574544106121473, 0.15588677587358782, 0.15642745068919942, 0.15513044305595228, 0.15346349637199472, 0.1547199181524502, 0.15239349990688142, 0.15235732117126366, 0.152060928551899, 0.1501472654873318, 0.148334808147068, 0.1489846800680407, 0.14806969588115076, 0.14974532610782756, 0.14705033586198768, 0.1460045910997136, 0.14685968654077003, 0.1439844982347824, 0.1437698044563887, 0.14393494817916938, 0.1414697663943663, 0.14260831433544158, 0.13923821003402717, 0.14025479065121527, 0.1394967167064466, 0.13852092077516331, 0.14017676280801214, 0.1368280351502477], "train_regression_loss": [0.5954736906769507, 0.13679160427989973, 0.0542578841806466, 0.04227811087287241, 0.04032352821598378, 0.03828623178508644, 0.0363841326566757, 0.034474414836281615, 0.03371769141140215, 0.03183026022024085, 0.030618208603528235, 0.029445809044005174, 0.028443744423981395, 0.0284832188496928, 0.029304986857933417, 0.030295972651895646, 0.030660248195524355, 0.03123799209794544, 0.03337725934400555, 0.03527473040108979, 0.03894281170502904, 0.04185428376134206, 0.043864929522481326, 0.044446726487115215, 0.04473205877662086, 0.04607857034628499, 0.0460536434728877, 0.04791500002837023, 0.04808518663474395, 0.04844219505980992, 0.04809135848646081, 0.04876350423055522, 0.049724813511550864, 0.05003326290527144, 0.05016814289151451, 0.0498939448451688, 0.05166822284548603, 0.05104959339850073, 0.052184231736794304, 0.0519986546077379, 0.054507740751126785, 0.05494191303467838, 0.054930156691023704, 0.056297602578044156, 0.05677473700862425, 0.05765625862898458, 0.059650451247963435, 0.06007664210215837, 0.059989336361321983, 0.060630301311544024, 0.06378472241584954, 0.06316501183786057, 0.0659506049541794, 0.06718290579152826, 0.06874686242055686, 0.07061243256795777, 0.06989039766382582, 0.074543944139449, 0.07490966400094126, 0.07740819425759683, 0.08102361449947959, 0.08116288617988827, 0.08378955301312795, 0.08380631959811534, 0.08394563296329659, 0.08680550558952244, 0.08728625302729104, 0.08832136233434272, 0.09159011814327846, 0.08877754741104854, 0.0914998612412587, 0.09013168511902012, 0.09259232009677608, 0.09387430509167571, 0.09210221991079164], "train_mve_loss": [0.142332860723034, -0.06789013287486675, -0.07002720424404854, -0.08859913634269122, -0.06606738139080119, -0.06514585183991266, -0.0662991418784154, -0.045336449446439255, -0.10289696164614771, -0.07482282990007448, -0.047764177625688985, -0.05510076955028927, -0.045538572729028885, -0.048710348773270955, -0.04766055521209617, -0.046342142198704715, -0.05914445435866659, -0.06394223853949137, -0.0488879823207198, -0.04945816109263401, -0.053456776160780865, -0.056609019328937124, -0.05842418586997012, -0.06032158085698402, -0.0606743684489709, -0.06272811814163635, -0.06330546534278003, -0.06421198048867231, -0.06560463617705627, -0.06713358727343367, -0.06829015823047935, -0.07012607210372801, -0.07308311847598722, -0.07173743467544712, -0.07391722745520031, -0.07455161287852817, -0.07613478362125257, -0.0766431907731597, -0.07909985770338591, -0.0799326532396064, -0.08227707749365452, -0.08459281767471617, -0.08462810336435095, -0.086828709043685, -0.08835414768038301, -0.08843470482416178, -0.09167957763099052, -0.09203916037850204, -0.09285527549622755, -0.09438435074667254, -0.09697477855265031, -0.09815105866645914, -0.09945431510173806, -0.10092984973086926, -0.10276411711306428, -0.10404793045209411, -0.10478708706540779, -0.10707857815925052, -0.10837095710951188, -0.10984459292089101, -0.1114383046642981, -0.11293345880507401, -0.1138683746490539, -0.11491871890450199, -0.11641071863826602, -0.11757848950756725, -0.1187123451756494, -0.12012284982207161, -0.1212584152306946, -0.12227916345170527, -0.12385583160380395, -0.1246298598006395, -0.12571385722620995, -0.1272593093380482, -0.12795698719347745], "train_r2_score": [-0.8598972553216062, 0.5720828534264666, 0.8284818404840804, 0.8665034754716985, 0.8719872410406555, 0.8787889478487587, 0.8849551088263037, 0.8912297597106613, 0.8930394675630973, 0.8990685301056829, 0.9028027302417942, 0.9069280748296147, 0.9106764652627153, 0.9101213589733385, 0.9073375120436781, 0.9041573075688104, 0.9031487371811668, 0.901448046972201, 0.8951647356427729, 0.8895351892904281, 0.8778938803717168, 0.8697124896542204, 0.8621809640777884, 0.8602430998976491, 0.8601494718442357, 0.854879255842691, 0.855577877824626, 0.8489500219842366, 0.8493292586261714, 0.8480074642522818, 0.8492553631254932, 0.8474057263840973, 0.8426487496097896, 0.8431434004316058, 0.8425595725825475, 0.8433998113660182, 0.838291397342925, 0.8400087211554924, 0.8355452794533965, 0.8373870277641985, 0.8277764688652158, 0.8272074979542353, 0.8268527175631343, 0.8232888537619449, 0.8230604332167722, 0.8195660648796901, 0.8119583607322216, 0.8118519870710199, 0.8122079833870698, 0.811318049038606, 0.799345347475627, 0.8028865771974647, 0.7942364346515245, 0.7898316880450602, 0.7842668264979266, 0.779029500235037, 0.7819817011067199, 0.7663886165879815, 0.7661611960906316, 0.7580882861423318, 0.7467719353580144, 0.7480873852152408, 0.7387308946902723, 0.7389310329041077, 0.7388134627773509, 0.7294630151361964, 0.7281971292221345, 0.724894454069692, 0.7141858775598581, 0.7232739743961576, 0.7145121927493616, 0.7200291194242734, 0.7108562952371213, 0.7078834333330023, 0.7136620337244085], "val_source_regression_loss": [0.2250581695490582, 0.08062855955094668, 0.045845181176996534, 0.04287644082407473, 0.04181095078634988, 0.03859303555908097, 0.03697302748870318, 0.03663930251221558, 0.03489596686165804, 0.03275731399323151, 0.03240619167970244, 0.030732170103272054, 0.03045461838175157, 0.03142244866485618, 0.03588260940400658, 0.03129123539254544, 0.03386048378814368, 0.03361470835390174, 0.03602554809278364, 0.0427879316993295, 0.0442686767145327, 0.04506565988728195, 0.04325609387248565, 0.047037300837647386, 0.04684515679433088, 0.05528023256475379, 0.0509043643547661, 0.046635802479306605, 0.044971350924509344, 0.04792927254204917, 0.048921193429239236, 0.04802616954941279, 0.05224364001754742, 0.04789757971788288, 0.05584468386450391, 0.05169924952469434, 0.0545018700538737, 0.049393177821425494, 0.05299082231132468, 0.05821602121232801, 0.05392318807399956, 0.05390523463060522, 0.060445809997855475, 0.058945540967545694, 0.05915283440214813, 0.06618345700868755, 0.06970057873779041, 0.06170519306116803, 0.05975389950404501, 0.06823665903774416, 0.07984865931378808, 0.06898639077071551, 0.0648743516652827, 0.06486745378014389, 0.06786307532364017, 0.0703721011093088, 0.06919581784754042, 0.09784867987036705, 0.08091135591173627, 0.08259126693484889, 0.09632024154731422, 0.10751972593082364, 0.08393833252369978, 0.08853304929509284, 0.07999492359531533, 0.0792296244080659, 0.09247997220439516, 0.08717165604993037, 0.08520294721149335, 0.09469293560951379, 0.08454596165828644, 0.09726489684099604, 0.10583579620927762, 0.08581744796436304, 0.09553812304215067], "val_target_regression_loss": [0.2219734343753499, 0.08047874391695876, 0.04801568804178268, 0.04514405030496181, 0.043500716436156044, 0.04030747667761745, 0.03767485739248004, 0.03713858336400075, 0.035212760708134644, 0.033102699804600254, 0.03298893314637956, 0.03159113909906832, 0.031288164264409786, 0.032666150931340114, 0.03446694079691627, 0.03358942149859515, 0.03401605666846417, 0.03488887485804831, 0.03599296014305133, 0.04157030048548795, 0.0456368634299298, 0.04663930437082698, 0.04476150627111553, 0.04979492332430402, 0.04835295079240374, 0.05492878858308504, 0.051922581781437445, 0.048876128782322455, 0.04810464569622544, 0.0493893263161562, 0.04988146015104784, 0.05015675683215166, 0.05620375387133307, 0.051160583913231354, 0.054657034670851035, 0.05323403061717559, 0.05555496316189599, 0.051653048415092905, 0.054986970321198175, 0.05769451689805574, 0.05566771621489601, 0.057137305510176976, 0.06295126896043113, 0.06057529487190353, 0.06043044742267982, 0.06605657317029064, 0.07051441381881192, 0.06147800202060277, 0.06157020983659917, 0.06867808756080403, 0.08017582282613797, 0.07008069977876108, 0.06569342347229742, 0.06613365923807879, 0.06922038289819174, 0.07111275948251888, 0.06887516276139742, 0.09618191131550795, 0.08160265729685498, 0.08109798690505848, 0.0918822584163611, 0.11204036443856112, 0.08494011042224374, 0.08851687164063667, 0.08098252340676679, 0.08120650024550735, 0.09186444267820401, 0.08684094179018288, 0.08601641132953061, 0.09198903712402483, 0.086716793643631, 0.09877468735738924, 0.10844899469595047, 0.08749957185736887, 0.09544889318050852], "val_source_r2_score": [0.2967139352969699, 0.746837556970108, 0.8559468784879436, 0.8654269990882028, 0.8677557750716292, 0.880438130991235, 0.8839302552830879, 0.8843363132566769, 0.8895741496824812, 0.898183929516102, 0.89656010255668, 0.9041091359331019, 0.9036429325172359, 0.901546180010121, 0.8875715538532439, 0.9035004444664565, 0.8927251619310903, 0.8962550884891299, 0.8868813548578786, 0.8657913912362915, 0.8625024021385893, 0.8597958856242294, 0.8640281925514837, 0.8519767313305215, 0.8537773218947778, 0.8273878347349217, 0.8393424192714158, 0.8543515207296974, 0.860593612739559, 0.8489727230637996, 0.8476812171474567, 0.8490704992578955, 0.8381868271782055, 0.8515844453892413, 0.8224710473189376, 0.8373907116872995, 0.830595617958852, 0.8472898310346181, 0.8338738130581395, 0.8186529221933458, 0.8300066292942728, 0.8322171811614103, 0.8134971801273752, 0.8155974836863076, 0.815484756169071, 0.7866751050743436, 0.7764500090526404, 0.8075344086401222, 0.8148418353569344, 0.7896854003923296, 0.7492102870588175, 0.7862477072369544, 0.7980412524425748, 0.7978772799597486, 0.7893105551721016, 0.7720102632742217, 0.784027191672516, 0.6960078643274544, 0.7494203638647069, 0.7442634626170453, 0.6989977241552329, 0.6671152866064107, 0.7385963290198626, 0.7140759852968803, 0.7532348778130727, 0.7567238848020488, 0.7134453143050287, 0.7293893619198412, 0.7370244011680984, 0.7070927926764933, 0.7395031306976366, 0.6944308593818022, 0.6739870370260908, 0.7340564068788595, 0.704590837827478], "val_target_r2_score": [0.29918655046288295, 0.7450139549524968, 0.8480792452254605, 0.8560923831942714, 0.859759960282998, 0.8706021398756015, 0.8797320841314246, 0.8808050444182509, 0.888147831786508, 0.8942735392768045, 0.894139046244446, 0.8988842425452681, 0.8992414785464445, 0.8967160463419392, 0.8902266489133289, 0.8911970560902036, 0.8920463952805262, 0.8892756316430778, 0.8863515435109146, 0.8678899163516702, 0.8558546356647924, 0.8507674582285202, 0.8568015437421447, 0.8413111687300515, 0.8468478942995429, 0.8268991626137009, 0.8371792354587574, 0.8438706335205045, 0.8480138675716528, 0.8424934189692812, 0.8424825439370008, 0.8418337818531942, 0.8059262491702224, 0.8353510070255508, 0.8280499679338754, 0.8342607864302082, 0.8240155770585375, 0.8364856283134565, 0.8241077721154866, 0.8184928276423694, 0.8198077949013919, 0.817707338564982, 0.8019318394699478, 0.8090113914048684, 0.8053027452342998, 0.7894597357763169, 0.7786605383163047, 0.8056386558512568, 0.8063642812211672, 0.7829383361582851, 0.7462940298528897, 0.7783280834005114, 0.7940914062744014, 0.7925641669925478, 0.7808407234954942, 0.7738324799357171, 0.7827531899825282, 0.6939395032058838, 0.7425606343673962, 0.7446296013254234, 0.7113524126770471, 0.6433953366860307, 0.7277076474856351, 0.7208775030346243, 0.7440761954244945, 0.7413963233742675, 0.7085552652464088, 0.7297939789595089, 0.7276318044095869, 0.7106736828435394, 0.7253043817364743, 0.6855281147243303, 0.6588266932476372, 0.7242008426274644, 0.7008682736401507], "val_source_mve_loss": [-0.05744057409702592, -0.05874868332865132, -0.07604503119067782, -0.08927448891150723, -0.04833225421844774, -0.067102048427436, -0.0559718529248883, -0.046064064677828434, -0.1508233588022791, -0.05761549017943774, -0.03384926608484832, -0.03633161278287317, -0.09428308832987099, -0.04787540674257051, -0.04651671632602336, -0.05183165435008942, -0.07069484645109268, -0.12557399581382228, -0.04612472414922942, -0.04651588705742055, -0.05669669548322441, -0.041785252049185664, -0.06943416706980414, -0.046636632774143844, -0.04452902502765891, -0.054986328248432866, -0.06356364910959438, -0.05450174933785846, -0.08396402978973025, -0.06463862467960567, -0.09462288869129624, -0.05431286750396915, -0.070722535323755, -0.05760744126857656, -0.09597498804900297, -0.08128457989804684, -0.07351142755312146, -0.06115925059339423, -0.05954850114478617, -0.05931324727690903, -0.06778032523668875, -0.0911006587943074, -0.0529349033311484, -0.0987570555109507, -0.05502223235904981, -0.11022892359430624, -0.08130887837392414, -0.0923299575758398, -0.07211648930267543, -0.09265805557844745, -0.09492084338881407, -0.11536204368825172, -0.08933605431656169, -0.10756038715410385, -0.0977471739196094, -0.1021523729654824, -0.0953501812686586, -0.07792053811228389, -0.13277208961688788, -0.09757579108522196, -0.1162284353071717, -0.09106966916020888, -0.12141783089394782, -0.10882915704730589, -0.11107391002736273, -0.13816682889962653, -0.10955467974399305, -0.11519421618075887, -0.11576238020685069, -0.0997071175652135, -0.122728237561929, -0.1198029736661987, -0.11094319010687292, -0.14225832040712333, -0.15425976356313487], "val_target_mve_loss": [-0.0601560995931838, -0.059630180252300706, -0.07500578331387346, -0.08678330537999511, -0.04632096461785637, -0.06468413298012345, -0.055051306274476325, -0.0448245414574245, -0.15039576518877296, -0.056873317463857355, -0.033128568582284225, -0.03519307622674164, -0.09376815720728249, -0.04698797099434646, -0.047055315416140164, -0.050214167399581074, -0.0699077388568289, -0.12441698831927245, -0.04488277479199467, -0.046633873977194165, -0.05535864077840641, -0.040454834687766755, -0.06818579360368146, -0.044416985492322855, -0.04303615144602242, -0.054742656066823915, -0.06234885775929044, -0.05219523704782793, -0.08127336405739663, -0.06295675736893515, -0.09347404938214904, -0.05198160213697108, -0.06722120265921305, -0.0545213721087499, -0.09643086397154316, -0.07966441748912927, -0.07219776337978187, -0.058771451508068735, -0.05739187115245754, -0.0593327300765427, -0.06598727440663205, -0.08825125865590801, -0.05039478398734929, -0.09731730042844061, -0.053572780055225276, -0.11021789764854939, -0.08043683422314134, -0.09239212186283367, -0.07025368331937464, -0.09228555713394646, -0.09463052420171013, -0.11443380133551397, -0.08863583508475571, -0.10649810055164015, -0.09659312570550639, -0.10157897517939282, -0.09570633060043784, -0.07957224000933444, -0.13225425677789246, -0.09906239978447082, -0.12012195753253949, -0.08701263030006248, -0.12064824519073887, -0.10898449013282539, -0.11041807895822889, -0.13649623314286494, -0.11024697283935395, -0.11572010779551639, -0.11516197736428421, -0.10265250807734812, -0.12083904502118469, -0.11849208750352738, -0.10850607856491189, -0.1408243345891594, -0.15448803535312605], "da_weight": [1.4, 1.3973333333333333, 1.3946666666666665, 1.392, 1.3893333333333333, 1.3866666666666665, 1.384, 1.3813333333333333, 1.3786666666666665, 1.376, 1.3733333333333333, 1.3706666666666665, 1.3679999999999999, 1.3653333333333333, 1.3626666666666667, 1.3599999999999999, 1.3573333333333333, 1.3546666666666667, 1.3519999999999999, 1.3493333333333333, 1.3466666666666667, 1.3439999999999999, 1.3413333333333333, 1.3386666666666667, 1.3359999999999999, 1.3333333333333333, 1.3306666666666667, 1.3279999999999998, 1.3253333333333333, 1.3226666666666667, 1.3199999999999998, 1.3173333333333332, 1.3146666666666667, 1.3119999999999998, 1.3093333333333332, 1.3066666666666666, 1.3039999999999998, 1.3013333333333332, 1.2986666666666666, 1.2959999999999998, 1.2933333333333332, 1.2906666666666666, 1.2879999999999998, 1.2853333333333332, 1.2826666666666666, 1.28, 1.2773333333333332, 1.2746666666666666, 1.272, 1.2693333333333332, 1.2666666666666666, 1.264, 1.2613333333333332, 1.2586666666666666, 1.256, 1.2533333333333334, 1.2506666666666666, 1.248, 1.2453333333333334, 1.2426666666666666, 1.24, 1.2373333333333334, 1.2346666666666666, 1.232, 1.2293333333333334, 1.2266666666666666, 1.224, 1.2213333333333334, 1.2186666666666666, 1.216, 1.2133333333333334, 1.2106666666666666, 1.208, 1.2053333333333334, 1.2026666666666666], "beta": [1.0, 0.996, 0.992, 0.988, 0.984, 0.98, 0.976, 0.972, 0.968, 0.964, 0.96, 0.956, 0.952, 0.948, 0.944, 0.94, 0.9359999999999999, 0.932, 0.928, 0.924, 0.92, 0.916, 0.912, 0.908, 0.904, 0.9, 0.896, 0.892, 0.888, 0.884, 0.88, 0.876, 0.872, 0.868, 0.864, 0.86, 0.856, 0.852, 0.848, 0.844, 0.84, 0.8360000000000001, 0.832, 0.828, 0.8240000000000001, 0.8200000000000001, 0.8160000000000001, 0.812, 0.808, 0.804, 0.8, 0.796, 0.792, 0.788, 0.784, 0.78, 0.776, 0.772, 0.768, 0.764, 0.76, 0.756, 0.752, 0.748, 0.744, 0.74, 0.736, 0.732, 0.728, 0.724, 0.72, 0.716, 0.712, 0.708, 0.704], "epoch_no": 75}