{"train_DA_loss": [0.16258431138841936, 0.15055954351449144, 0.14401735265958898, 0.14347613536815756, 0.14560935971832797, 0.145144184577999, 0.14362552025145978, 0.1428933880773715, 0.14237812320809043, 0.1439608700260166, 0.14174959922321753, 0.14058113413466178, 0.14183597853049718], "train_regression_loss": [0.5954736906769507, 0.13679160427989973, 0.0542578841806466, 0.04227811087287241, 0.04032352821598378, 0.03828623178508644, 0.0363841326566757, 0.034474414836281615, 0.03371769141140215, 0.03183026022024085, 0.030618208603528235, 0.029445809044005174, 0.028443744423981395], "train_mve_loss": [0.142332860723034, -0.06789013287486675, -0.07002720424404854, -0.08859913634269122, -0.06606738139080119, -0.06514585183991266, -0.0662991418784154, -0.045336449446439255, -0.10289696164614771, -0.07482282990007448, -0.047764177625688985, -0.05510076955028927, -0.045538572729028885], "train_r2_score": [-0.8598972553216062, 0.5720828534264666, 0.8284818404840804, 0.8665034754716985, 0.8719872410406555, 0.8787889478487587, 0.8849551088263037, 0.8912297597106613, 0.8930394675630973, 0.8990685301056829, 0.9028027302417942, 0.9069280748296147, 0.9106764652627153], "val_source_regression_loss": [0.2250581695490582, 0.08062855955094668, 0.045845181176996534, 0.04287644082407473, 0.04181095078634988, 0.03859303555908097, 0.03697302748870318, 0.03663930251221558, 0.03489596686165804, 0.03275731399323151, 0.03240619167970244, 0.030732170103272054, 0.03045461838175157], "val_target_regression_loss": [0.2219734343753499, 0.08047874391695876, 0.04801568804178268, 0.04514405030496181, 0.043500716436156044, 0.04030747667761745, 0.03767485739248004, 0.03713858336400075, 0.035212760708134644, 0.033102699804600254, 0.03298893314637956, 0.03159113909906832, 0.031288164264409786], "val_source_r2_score": [0.2967139352969699, 0.746837556970108, 0.8559468784879436, 0.8654269990882028, 0.8677557750716292, 0.880438130991235, 0.8839302552830879, 0.8843363132566769, 0.8895741496824812, 0.898183929516102, 0.89656010255668, 0.9041091359331019, 0.9036429325172359], "val_target_r2_score": [0.29918655046288295, 0.7450139549524968, 0.8480792452254605, 0.8560923831942714, 0.859759960282998, 0.8706021398756015, 0.8797320841314246, 0.8808050444182509, 0.888147831786508, 0.8942735392768045, 0.894139046244446, 0.8988842425452681, 0.8992414785464445], "val_source_mve_loss": [-0.05744057409702592, -0.05874868332865132, -0.07604503119067782, -0.08927448891150723, -0.04833225421844774, -0.067102048427436, -0.0559718529248883, -0.046064064677828434, -0.1508233588022791, -0.05761549017943774, -0.03384926608484832, -0.03633161278287317, -0.09428308832987099], "val_target_mve_loss": [-0.0601560995931838, -0.059630180252300706, -0.07500578331387346, -0.08678330537999511, -0.04632096461785637, -0.06468413298012345, -0.055051306274476325, -0.0448245414574245, -0.15039576518877296, -0.056873317463857355, -0.033128568582284225, -0.03519307622674164, -0.09376815720728249], "da_weight": [1.4, 1.3973333333333333, 1.3946666666666665, 1.392, 1.3893333333333333, 1.3866666666666665, 1.384, 1.3813333333333333, 1.3786666666666665, 1.376, 1.3733333333333333, 1.3706666666666665, 1.3679999999999999], "beta": [1.0, 0.996, 0.992, 0.988, 0.984, 0.98, 0.976, 0.972, 0.968, 0.964, 0.96, 0.956, 0.952], "epoch_no": 13}