{"train_DA_loss": [0.03928118620333441, 0.03939248122942295, 0.040489381969220244, 0.04168720605018697, 0.04006494327671349, 0.039668584780484926, 0.03765134272970927, 0.03713539038432364, 0.03841147187014385, 0.039091305163649795, 0.03992592968332702, 0.03697815784329797, 0.035059014955021346, 0.036444994520525395, 0.0356626244026902, 0.03531791904508741, 0.036069254763764914, 0.036484161558709156], "train_regression_loss": [0.17848561539347035, 0.020326021231261423, 0.03010296730930752, 0.024715222421713458, 0.014291968961949486, 0.01789474185263326, 0.014476441597766915, 0.012449655240874949, 0.008283369233355035, 0.013865876734304417, 0.014441494849106975, 0.014256653304414404, 0.009861579585405003, 0.009450929876164936, 0.014585318374983844, 0.010567517868554734, 0.005202285212445902, 0.0042951899717716836], "train_mve_loss": [-0.09829048674989499, -0.243028061195418, -0.20410192984631337, -0.25870735942636375, -0.21812238121980723, -0.2381419002042719, -0.27836637909931067, -0.24967566786344134, -0.19166570878034317, -0.2842921721229715, -0.2189414221486945, -0.3281867130909803, -0.2876650858840733, -0.2057052876466589, -0.2897818229643039, -0.21277770240683877, -0.179436134797618, -0.15957889132119946], "train_r2_score": [0.4510634723628439, 0.9385434861127752, 0.908805553375174, 0.9250551535503314, 0.956683976372227, 0.9460207798831454, 0.9561001625745923, 0.9622180009237968, 0.9749415997232526, 0.9580023532630573, 0.9566942571617713, 0.9567897974885399, 0.9700600746066232, 0.9712055680293168, 0.9554189099133822, 0.9677877324200679, 0.9841895391324633, 0.9869796543933277], "val_source_regression_loss": [0.0441202394947221, 0.014742377119822592, 0.03951663681883601, 0.020497428772004344, 0.01425123244193913, 0.02075363510535865, 0.013574965757942653, 0.01002861542886571, 0.005378752395722873, 0.008186697435294148, 0.01831466451145803, 0.014872942284881315, 0.006697302389465556, 0.006231962826951772, 0.008272526443853408, 0.007219664994155681, 0.005090233386506008, 0.00327919659652759], "val_target_regression_loss": [0.04435698537132408, 0.016970578816872608, 0.041273410278785075, 0.023200711235404015, 0.013836413185713412, 0.023477730612400213, 0.015246358193174193, 0.012183550250115274, 0.006485269369581078, 0.008913305788477766, 0.018502546993048884, 0.015485445473673223, 0.007499657848354759, 0.007339112531346611, 0.009377568317695132, 0.008351584348261734, 0.007406663473789828, 0.004138863427399457], "val_source_r2_score": [0.8651566855161373, 0.9548105022468815, 0.8790850219896982, 0.9376828685696045, 0.9565088714804164, 0.9365775797882341, 0.9579136580288465, 0.9691934024043121, 0.9834154755090518, 0.975029507272352, 0.9440094928231951, 0.9544618937796145, 0.9792149783661902, 0.9808285364827162, 0.9747692937404985, 0.9779578745313039, 0.984313116933151, 0.98996870364016], "val_target_r2_score": [0.8662065062500769, 0.949290096556764, 0.8772206963832494, 0.9315244125183665, 0.9586579038194062, 0.9302224720023411, 0.9512126647395521, 0.9639616672481843, 0.9807124297488237, 0.9736036520064599, 0.94480951965062, 0.9538750618990159, 0.9776599706248824, 0.9781739937492676, 0.9720760570632122, 0.9751691274623517, 0.9778109386818452, 0.98769982328312], "val_source_mve_loss": [-0.25589090680019766, -0.276950554379934, -0.197566317040709, -0.2541348455072958, -0.3428847680363474, -0.1642714363487461, -0.27703980554508256, -0.24532404032689106, -0.16997030151041248, -0.21812517111059987, -0.2762755529035496, -0.33618060320238524, -0.23773786651937268, -0.23847552983066703, -0.22356222815151455, -0.2777435077896601, -0.15987453902069526, -0.15100745460655116], "val_target_mve_loss": [-0.25613018417660194, -0.27055658154849765, -0.07453689978847021, -0.24497378117676022, -0.3433996476704561, -0.16232391324224352, -0.27318175231354147, -0.23853605268876762, -0.16449964518034005, -0.21507129431525362, -0.27589216149305995, -0.33505249815651134, -0.23214209155191348, -0.2356702072333686, -0.21848597952836676, -0.27457863582840447, -0.1461699679493904, -0.1460749608806417], "val_source_nll_loss": [-1.0322742032099375, -1.4553452005869225, 227.54574965449828, -1.3412301962888693, -0.7643510020231898, -0.20505069686642177, -1.4433567946470236, -1.6986300990551333, -2.151740312576294, -1.7994353318516212, -0.4451354493068743, -1.0328424904919877, 1.714439090294174, -1.876522503321684, -1.7455233667470231, -1.6505917325804504, -2.151898018921478, -2.4096996210798434], "val_target_nll_loss": [-1.0236356658271597, -1.4257088099853903, 607.154926533186, -1.2679155280318442, -0.7657243005837067, -0.20254914990708797, -1.4089533075501648, -1.647914027865929, -2.057238367539418, -1.7591183789168732, -0.44442248608492596, -1.0296687091453165, 9.034075275252137, -1.8338817659812638, -1.6856677864171281, -1.6259188531320306, -1.934303711486768, -2.3022850706607483], "da_weight": [1.4, 1.4, 1.4, 1.4, 1.4, 1.4, 1.4, 1.4, 1.4, 1.4, 1.4, 1.4, 1.4, 1.4, 1.4, 1.4, 1.4, 1.4], "beta": [0.5, 0.5, 0.5, 0.5, 0.5, 0.5, 0.5, 0.5, 0.5, 0.5, 0.5, 0.5, 0.5, 0.5, 0.5, 0.5, 0.5, 0.5], "epoch_no": 18}