{"train_DA_loss": [0.03928118620333441, 0.03939248122942295, 0.040489381969220244, 0.04168720605018697, 0.04006494327671349, 0.039668584780484926, 0.03765134272970927, 0.03713539038432364, 0.03841147187014385, 0.039091305163649795, 0.03992592968332702, 0.03697815784329797, 0.035059014955021346, 0.036444994520525395, 0.0356626244026902, 0.03531791904508741, 0.036069254763764914, 0.036484161558709156, 0.03748643687727028, 0.037844075182864825, 0.03912080990889499, 0.04017449732549774, 0.04120217207172235, 0.042104558842137485, 0.042525003815727, 0.04381988803350403, 0.04264992574601004, 0.042848951893243975, 0.0422491276946593, 0.04200603621220131, 0.04440571995319244, 0.04433150471986648, 0.04347959899052405, 0.043818144570402735, 0.043211354245814806, 0.04408502023006488, 0.04328763907540324, 0.044557498308269806, 0.04336621270428192, 0.04336974466767782, 0.04361394390300379, 0.04295963226686448, 0.04362156406262893, 0.043296736554401014, 0.043219159546238416, 0.04347128944107122, 0.04295144136484297, 0.04358775616441283, 0.04362771859974813, 0.043525256240362444, 0.04349599457882222, 0.04408123070064258, 0.04301051329310568, 0.04411224823724308, 0.043794996300933565, 0.043734530371765334, 0.04343882794245069, 0.04395348524548781, 0.04318410481310959, 0.04413838994091673, 0.043598006522007134, 0.04303787404865408, 0.04413422546817681, 0.04401386432840031, 0.043805908040574305, 0.044430538198112136, 0.04323892404327009, 0.04393658033781557, 0.04315296596961549, 0.04403099058778238, 0.04397562798963931, 0.04384664152246615, 0.04208502593285096, 0.043161929505017384, 0.04382280585861729, 0.043209139921683716], "train_regression_loss": [0.17848561539347035, 0.020326021231261423, 0.03010296730930752, 0.024715222421713458, 0.014291968961949486, 0.01789474185263326, 0.014476441597766915, 0.012449655240874949, 0.008283369233355035, 0.013865876734304417, 0.014441494849106975, 0.014256653304414404, 0.009861579585405003, 0.009450929876164936, 0.014585318374983844, 0.010567517868554734, 0.005202285212445902, 0.0042951899717716836, 0.005261291980052153, 0.00618743431631823, 0.005448433520337073, 0.006082209336641202, 0.005590744149723045, 0.026510566437678237, 0.0064167664650235144, 0.08129527348338864, 0.01583138900984358, 0.014092067855885303, 0.013676243154859848, 0.0118908222630225, 0.011572546941965437, 0.0087048256666769, 0.008278716412599333, 0.007279037402592041, 0.007087187551666848, 0.006456185159506702, 0.005761752781923009, 0.005613193473518167, 0.005943270006014453, 0.005640436818787464, 0.005331652708031523, 0.005122034214147566, 0.005424484616942309, 0.005909577324489298, 0.005782734440942678, 0.005018091052293887, 0.004549791606081824, 0.004793394705786334, 0.00449625650970725, 0.0044754095427892845, 0.005174041548624662, 0.004723218186644384, 0.004279254679014767, 0.0042339278222444775, 0.004739596646566836, 0.004231924923874056, 0.004305453006292215, 0.004338647583686837, 0.007779521328759749, 0.004482751044570733, 0.003904746023646915, 0.004410420686612672, 0.010506151244895604, 0.005755622961032298, 0.00425577026679499, 0.0044396368140130005, 0.0044130575183397615, 0.004510819328816053, 0.004208957037711397, 0.004558822090509373, 0.004256691596593361, 0.005307916047858582, 0.004569480918821159, 0.004380111166929836, 0.004622068309133202, 0.004248872710693239], "train_mve_loss": [-0.09829048674989499, -0.243028061195418, -0.20410192984631337, -0.25870735942636375, -0.21812238121980723, -0.2381419002042719, -0.27836637909931067, -0.24967566786344134, -0.19166570878034317, -0.2842921721229715, -0.2189414221486945, -0.3281867130909803, -0.2876650858840733, -0.2057052876466589, -0.2897818229643039, -0.21277770240683877, -0.179436134797618, -0.15957889132119946, -0.2060971996036973, -0.2201103634359332, -0.22267177089422233, -0.17493600144955096, -0.1794864669700972, -0.22868749050515444, -0.18648265723064134, -0.19070184817520638, -0.3445615190910465, -0.34409904812328124, -0.33648976171474354, -0.32053884297227947, -0.2619579820953296, -0.197689400580618, -0.17931470638600738, -0.1704443626963896, -0.1694666844617296, -0.16553322408327892, -0.16182306114672743, -0.16424521429794525, -0.1649706583313467, -0.1758575700444784, -0.16320408473448517, -0.17647214464066888, -0.16658391904978037, -0.21603145234463855, -0.22803284407642685, -0.1592929854008354, -0.15605393082066907, -0.15873328364799838, -0.15465464062607376, -0.16187691910216206, -0.1617017994605863, -0.1732834498849195, -0.1623469837132494, -0.16310853739584058, -0.18448650256868526, -0.15243768170339753, -0.1636142800894091, -0.17996311968216294, -0.21174625243984804, -0.156541098093093, -0.15759216221747493, -0.15934510535851693, -0.18035760579777158, -0.22066785938615555, -0.15079535516676998, -0.15629046269346852, -0.1554040648928508, -0.1803967762854243, -0.15976510779894684, -0.17278076623867808, -0.15781558072109328, -0.2375066003760483, -0.1609674829928378, -0.15473554230259368, -0.15804842102189823, -0.1600946562340861], "train_r2_score": [0.4510634723628439, 0.9385434861127752, 0.908805553375174, 0.9250551535503314, 0.956683976372227, 0.9460207798831454, 0.9561001625745923, 0.9622180009237968, 0.9749415997232526, 0.9580023532630573, 0.9566942571617713, 0.9567897974885399, 0.9700600746066232, 0.9712055680293168, 0.9554189099133822, 0.9677877324200679, 0.9841895391324633, 0.9869796543933277, 0.9840811049640583, 0.9812527208251138, 0.9834954934552037, 0.9814939561451231, 0.9830404692802849, 0.9197410727500895, 0.9805373301658177, 0.755936036469996, 0.9520767750221215, 0.9573225619712529, 0.9586004248705985, 0.9639947623020441, 0.9649744293658541, 0.9736104460004836, 0.9748969852391018, 0.9779191076985536, 0.9784843606352603, 0.9804290475972501, 0.9825155660978052, 0.9829220940031468, 0.9819587604924795, 0.9828799504200839, 0.9838936154724854, 0.9844773545950157, 0.9835581123113387, 0.9820747676807122, 0.9825028860902705, 0.9847632587590126, 0.9862375155263083, 0.9854531693489308, 0.9863574684403354, 0.9864616065834, 0.9843189662924399, 0.9857308430351411, 0.9870333927674009, 0.9871571268937616, 0.9856553992308413, 0.9871637808624227, 0.9869299530185044, 0.9868608833979621, 0.9763816545846176, 0.986440895023361, 0.988142380248304, 0.9866642585786856, 0.9677527403082749, 0.9824991876523459, 0.9870850674922225, 0.9865152535609987, 0.9866110878449111, 0.9862707665758169, 0.9872636669936664, 0.9861995207512506, 0.9871451602899687, 0.9838457075007221, 0.9861685905467238, 0.9867588901060174, 0.985958946309582, 0.9870909408689231], "val_source_regression_loss": [0.0441202394947221, 0.014742377119822592, 0.03951663681883601, 0.020497428772004344, 0.01425123244193913, 0.02075363510535865, 0.013574965757942653, 0.01002861542886571, 0.005378752395722873, 0.008186697435294148, 0.01831466451145803, 0.014872942284881315, 0.006697302389465556, 0.006231962826951772, 0.008272526443853408, 0.007219664994155681, 0.005090233386506008, 0.00327919659652759, 0.0037818576557019467, 0.003906726241819089, 0.005504844468558514, 0.004924593051258899, 0.004523891498794472, 0.00829572709206539, 0.004619965571438587, 0.020193542224131052, 0.017163099662129637, 0.013448947256643183, 0.012059843261973768, 0.010436218467694295, 0.012364610334080232, 0.006971873655396549, 0.013368416760305438, 0.005060902734794006, 0.008517912736374743, 0.006187948984789509, 0.0048196817883820854, 0.004927520590091619, 0.004854613688149595, 0.00443038794129521, 0.003632462123715425, 0.0034416861083547147, 0.004234176188047173, 0.010587852884414075, 0.008669475229056199, 0.00524845454087363, 0.0051368134025531476, 0.00556896853590785, 0.004596503796291691, 0.005117000861659269, 0.0050534311522835796, 0.0034645888482845283, 0.00841609636746064, 0.0038967630207019893, 0.0028835189192779834, 0.003651040600306248, 0.0032805766869053433, 0.0033793806281129392, 0.004219008633230306, 0.004624814054445375, 0.0029195554221426194, 0.0030260313688364776, 0.010919046140264106, 0.003853249095403884, 0.0029300385364036583, 0.002760922029331515, 0.004221857436991568, 0.0040999726315700934, 0.0034305692732900005, 0.006100894111102518, 0.00474795755706256, 0.007426389923342798, 0.00921922905040504, 0.0034574335367312725, 0.0038039565552026033, 0.002714784510869863], "val_target_regression_loss": [0.04435698537132408, 0.016970578816872608, 0.041273410278785075, 0.023200711235404015, 0.013836413185713412, 0.023477730612400213, 0.015246358193174193, 0.012183550250115274, 0.006485269369581078, 0.008913305788477766, 0.018502546993048884, 0.015485445473673223, 0.007499657848354759, 0.007339112531346611, 0.009377568317695132, 0.008351584348261734, 0.007406663473789828, 0.004138863427399457, 0.004998483258900763, 0.004654567287881163, 0.006436625996580984, 0.00611917422553878, 0.005722894359827984, 0.01003682017444244, 0.005589592933678363, 0.021360124638186224, 0.01770345144020983, 0.01520649241165647, 0.013301433117093541, 0.01186153905678399, 0.014201712299468396, 0.008656950472983756, 0.015620399676145444, 0.0064035291029022464, 0.008976263589449699, 0.008329443185578418, 0.007060917132663764, 0.006483160251091364, 0.006570677237608765, 0.005644673590630859, 0.004669321653775022, 0.004824368233049783, 0.006425952745153557, 0.012020999011642572, 0.010913086713209182, 0.0061029873352167726, 0.0072111049902778635, 0.006868732256131081, 0.006389758381638912, 0.0060301585818487635, 0.006311928853392601, 0.0048008003784933044, 0.011107263945137398, 0.005338994338165356, 0.004069671105546287, 0.00483617659280949, 0.004347155401129512, 0.004789839271762514, 0.006283634215522605, 0.006358131509910845, 0.003926648454787799, 0.004596448185134537, 0.012288777782475646, 0.0050132409433681, 0.004118281708370092, 0.003907740817558539, 0.005721865687519312, 0.0054498105015181285, 0.005362649104864442, 0.008128501816735238, 0.0065507039463123945, 0.009347414314935479, 0.011759533759065067, 0.00505157247409696, 0.005458949958976311, 0.0038963180135558302], "val_source_r2_score": [0.8651566855161373, 0.9548105022468815, 0.8790850219896982, 0.9376828685696045, 0.9565088714804164, 0.9365775797882341, 0.9579136580288465, 0.9691934024043121, 0.9834154755090518, 0.975029507272352, 0.9440094928231951, 0.9544618937796145, 0.9792149783661902, 0.9808285364827162, 0.9747692937404985, 0.9779578745313039, 0.984313116933151, 0.98996870364016, 0.988457275178591, 0.988026797837947, 0.983066973011253, 0.9849167908657454, 0.9862287364681834, 0.9745044165793925, 0.9859697948743484, 0.9383327293825297, 0.9470994345572273, 0.9587225069530658, 0.9631265329418623, 0.9679257332626411, 0.9620779716946347, 0.978663049055722, 0.9589898194385201, 0.9843771511172318, 0.9737412133720831, 0.981154523220809, 0.9852393862532383, 0.9848641028340483, 0.9851314876425334, 0.9863072997550137, 0.9888112918925815, 0.9893143829986459, 0.9871053280158656, 0.9673605750978851, 0.973573469435987, 0.9839758814480208, 0.9842282092432253, 0.9828781103343968, 0.9859121398900936, 0.9843618569973549, 0.9845643833499833, 0.9893502669535142, 0.9743192348484971, 0.9879972928669105, 0.9911897106299667, 0.988761350997387, 0.9899348479753729, 0.98962105981043, 0.9870663572908897, 0.9858939903200387, 0.9911079075152571, 0.9906756180116794, 0.9665432212809466, 0.9880263721410733, 0.9910674028398927, 0.9915372994008983, 0.9871014769365509, 0.9873082899397225, 0.9894813051737119, 0.9813640166212232, 0.9853036261561895, 0.97710274195065, 0.9718032472474861, 0.9894454928446956, 0.9883231046437239, 0.991683124093232], "val_target_r2_score": [0.8662065062500769, 0.949290096556764, 0.8772206963832494, 0.9315244125183665, 0.9586579038194062, 0.9302224720023411, 0.9512126647395521, 0.9639616672481843, 0.9807124297488237, 0.9736036520064599, 0.94480951965062, 0.9538750618990159, 0.9776599706248824, 0.9781739937492676, 0.9720760570632122, 0.9751691274623517, 0.9778109386818452, 0.98769982328312, 0.985052727221402, 0.9861676220832328, 0.9808985433247965, 0.9817015494157963, 0.9828616125452345, 0.9701257201112699, 0.9833715456083174, 0.9367808755569785, 0.9474623436979894, 0.9549374022943642, 0.9604952152386114, 0.9644594895603723, 0.9580003058173236, 0.9742797942418423, 0.9531674522029021, 0.9809654395249231, 0.973240228834529, 0.9752938108036294, 0.9786527088574194, 0.9808125899319395, 0.9803931871958476, 0.9831621145160547, 0.9861695062550944, 0.9856342906100201, 0.9809688744114284, 0.9640505642923007, 0.9675053789995934, 0.9818980310312515, 0.9784408530213569, 0.9795375456830422, 0.9809133795951243, 0.9819960465357147, 0.9812809332177626, 0.9856894101952535, 0.9669422593285761, 0.9841738593799888, 0.987841650901171, 0.9855352094847644, 0.986848074258844, 0.9857238764950658, 0.9813565225523532, 0.9811192296373832, 0.988352283863185, 0.9863481761251048, 0.9633161094998599, 0.9850994497865811, 0.987743438528181, 0.9884118487170547, 0.9828750126166655, 0.9837255014070164, 0.983988917907198, 0.9759343201299896, 0.9805504816323002, 0.9722848492957797, 0.9649480810502652, 0.9848831381399257, 0.9837166522002335, 0.9883077059476479], "val_source_mve_loss": [-0.25589090680019766, -0.276950554379934, -0.197566317040709, -0.2541348455072958, -0.3428847680363474, -0.1642714363487461, -0.27703980554508256, -0.24532404032689106, -0.16997030151041248, -0.21812517111059987, -0.2762755529035496, -0.33618060320238524, -0.23773786651937268, -0.23847552983066703, -0.22356222815151455, -0.2777435077896601, -0.15987453902069526, -0.15100745460655116, -0.14358632907837252, -0.1814847281084785, -0.2446987291302862, -0.13572544868611083, -0.2257914345098447, -0.3467633463913881, -0.17780125329766092, -0.33792140363137935, -0.34212601901609685, -0.34210073872457575, -0.3325583666940279, -0.3056426572648785, -0.2024650864208801, -0.18796580746958527, -0.14272013089702099, -0.1504894097960448, -0.15025353224217136, -0.1584800615718093, -0.13813148948210704, -0.16326009510438652, -0.1727525906849511, -0.15706050829796853, -0.20892981524708903, -0.19127490248861193, -0.23073643653453152, -0.34629542540900315, -0.12374552810871148, -0.1640396044601368, -0.176853007342242, -0.17249813524982596, -0.1327349281386484, -0.17383214425814303, -0.1318849813711794, -0.11825824066807952, -0.14721908939035633, -0.1334446475287027, -0.1783437909959238, -0.11877337711144097, -0.1711769581218309, -0.2705533700653269, -0.13793594305273854, -0.20831752087496505, -0.14499827408337895, -0.18281870589980595, -0.3526512086391449, -0.12383410730693914, -0.10407783326846134, -0.17014909375317488, -0.1615330769291407, -0.306825420147256, -0.16489527346212654, -0.1693119825441626, -0.2287101034499422, -0.1711801393311235, -0.19892854743366, -0.16324185495135152, -0.09059994507439528, -0.153266637385646], "val_target_mve_loss": [-0.25613018417660194, -0.27055658154849765, -0.07453689978847021, -0.24497378117676022, -0.3433996476704561, -0.16232391324224352, -0.27318175231354147, -0.23853605268876762, -0.16449964518034005, -0.21507129431525362, -0.27589216149305995, -0.33505249815651134, -0.23214209155191348, -0.2356702072333686, -0.21848597952836676, -0.27457863582840447, -0.1461699679493904, -0.1460749608806417, -0.13602679251115532, -0.17737327723563473, -0.2410870777278007, -0.12833005831211428, -0.22136132343660428, -0.34387067224405987, -0.1737697603581827, -0.3365631431718416, -0.34137756688685356, -0.33925924761385856, -0.33018344829354107, -0.3020240860649302, -0.1946001122646694, -0.17866256040862843, -0.12974350192124331, -0.14095183377024495, -0.14763242845671087, -0.14477449193408218, -0.12084861407410118, -0.15318697106234636, -0.1623343408485002, -0.14869043023525913, -0.2036982103239132, -0.1832505609792999, -0.2211969226975984, -0.34399631468555597, -0.10757577438143236, -0.15846157998223848, -0.1643456222513054, -0.16463664834257924, -0.1182477604362029, -0.16828431137189082, -0.12180613245390638, -0.1051287095569357, -0.12991142669056036, -0.12118850780438774, -0.17050298520281346, -0.10769637711817705, -0.16398275671880455, -0.2657809185830853, -0.12143030970156947, -0.1996410802195344, -0.1366034657517566, -0.17300367185586615, -0.3509374555153183, -0.11325972829061219, -0.0915042626895482, -0.16234572835360903, -0.15116894603530062, -0.3032758632038213, -0.1514583371485336, -0.15693417134918744, -0.22086025963101205, -0.16019567771802976, -0.18717346670506876, -0.15201770297334163, -0.07202163994123664, -0.14383749588380887], "val_source_nll_loss": [-1.0322742032099375, -1.4553452005869225, 227.54574965449828, -1.3412301962888693, -0.7643510020231898, -0.20505069686642177, -1.4433567946470236, -1.6986300990551333, -2.151740312576294, -1.7994353318516212, -0.4451354493068743, -1.0328424904919877, 1.714439090294174, -1.876522503321684, -1.7455233667470231, -1.6505917325804504, -2.151898018921478, -2.4096996210798434, -2.373312283165847, -2.2321873888184753, -1.8733071963998336, -2.2338404745995244, -2.036210200454615, -1.1619121802004078, -2.2094507549382465, -0.8089887809149826, -0.9607780138148537, -1.0668683082242556, -1.1971951255315467, -1.4079093993464602, -1.692504039293603, -1.9399158456657506, -1.5724327488790584, -2.150184877311127, -1.8600274943098236, -2.0486772618716276, -2.1738830140874357, -2.156998447225064, -2.151202277292179, -2.2078684885290603, -2.13584012321279, -2.220665403559238, -1.9995450022854382, -1.115416931200631, -1.7727569839622401, -2.126448433610457, -2.1139647975752625, -2.083626152593878, -2.1818666035615943, -2.1226295398760446, -2.1266214892834046, -2.315991265864312, -1.8619165812866598, -2.2737877368927, -2.32223197780078, -2.2817117639734774, -2.307379903672617, -1.8383173414423495, -2.245378891124001, -2.0648140590402146, -2.4110955226270456, -2.291489797302439, -0.8817526999908157, -2.235884239401998, -2.3489607376388357, -2.368842176244229, -2.2279415402231337, -1.5889250221131723, -2.305243531359902, -2.038218344314189, -1.979423065728779, -1.961941528923904, -1.8323498707783372, -2.306352398063563, -2.020752745338633, -2.419571431377266], "val_target_nll_loss": [-1.0236356658271597, -1.4257088099853903, 607.154926533186, -1.2679155280318442, -0.7657243005837067, -0.20254914990708797, -1.4089533075501648, -1.647914027865929, -2.057238367539418, -1.7591183789168732, -0.44442248608492596, -1.0296687091453165, 9.034075275252137, -1.8338817659812638, -1.6856677864171281, -1.6259188531320306, -1.934303711486768, -2.3022850706607483, -2.2244768504855, -2.176457824586313, -1.8442482903033872, -2.117463377457631, -1.9910548517975626, -1.1514307169974605, -2.141940116882324, -0.8046626614618905, -0.9590833375725565, -1.0580568479586252, -1.1894996196408816, -1.3924425146247768, -1.6268635520452186, -1.8394738465924807, -1.4218018945259383, -2.012293919732299, -1.828259185899662, -1.871301687216457, -1.9020193026790135, -2.0246693499480624, -2.022693707973142, -2.0903934723214257, -2.081922125212754, -2.1265104888360713, -1.9161276258999789, -1.1085684510725964, -1.5401714014101633, -2.0532825174210947, -1.9631861101222943, -1.9880694211283816, -1.9466385464125042, -2.0551634295077266, -1.9641016797174382, -2.0562239643893663, -1.6393903403342525, -2.0645737753638738, -2.218041747431212, -2.0698503376562383, -2.2096662340284903, -1.8057999927786332, -1.9810158542439908, -1.978113963634153, -2.271148803867871, -2.1681910843788823, -0.8773972429806673, -2.0306029878085172, -2.066142252728909, -2.2607449338405945, -2.084907175619391, -1.5705019552496415, -2.1177890315840515, -1.887293270871609, -1.9110541373868533, -1.8367762671241277, -1.7233811918693254, -2.148628203174736, -1.5861486513403398, -2.2698763382585745], "da_weight": [1.4, 1.4, 1.4, 1.4, 1.4, 1.4, 1.4, 1.4, 1.4, 1.4, 1.4, 1.4, 1.4, 1.4, 1.4, 1.4, 1.4, 1.4, 1.4, 1.4, 1.4, 1.4, 1.4, 1.4, 1.4, 1.4, 1.4, 1.4, 1.4, 1.4, 1.4, 1.4, 1.4, 1.4, 1.4, 1.4, 1.4, 1.4, 1.4, 1.4, 1.4, 1.4, 1.4, 1.4, 1.4, 1.4, 1.4, 1.4, 1.4, 1.4, 1.4, 1.4, 1.4, 1.4, 1.4, 1.4, 1.4, 1.4, 1.4, 1.4, 1.4, 1.4, 1.4, 1.4, 1.4, 1.4, 1.4, 1.4, 1.4, 1.4, 1.4, 1.4, 1.4, 1.4, 1.4, 1.4], "beta": [0.5, 0.5, 0.5, 0.5, 0.5, 0.5, 0.5, 0.5, 0.5, 0.5, 0.5, 0.5, 0.5, 0.5, 0.5, 0.5, 0.5, 0.5, 0.5, 0.5, 0.5, 0.5, 0.5, 0.5, 0.5, 0.5, 0.5, 0.5, 0.5, 0.5, 0.5, 0.5, 0.5, 0.5, 0.5, 0.5, 0.5, 0.5, 0.5, 0.5, 0.5, 0.5, 0.5, 0.5, 0.5, 0.5, 0.5, 0.5, 0.5, 0.5, 0.5, 0.5, 0.5, 0.5, 0.5, 0.5, 0.5, 0.5, 0.5, 0.5, 0.5, 0.5, 0.5, 0.5, 0.5, 0.5, 0.5, 0.5, 0.5, 0.5, 0.5, 0.5, 0.5, 0.5, 0.5, 0.5], "epoch_no": 76}