{"train_DA_loss": [0.0401513446394824, 0.040397900430795476, 0.038022988249413275, 0.03587501519912994, 0.03839551634282909, 0.03804975231833606, 0.038435621565068225, 0.0369744196064239, 0.03736937116538694, 0.03862068771812009, 0.039113711558922556, 0.0395419954524888, 0.03951001196241575, 0.04098022321215277, 0.04004402280235203, 0.041188805750562676, 0.04249230524017671, 0.043190114223951616, 0.04042439911534952, 0.041332543475154984], "train_regression_loss": [0.13315113727003336, 0.02600946671872568, 0.024330975263084965, 0.02227334625222184, 0.015523617871793521, 0.010619650434845654, 0.014224258193599786, 0.01364191776138119, 0.025062343940799425, 0.011720956825877675, 0.006028591378522148, 0.0051706088511051925, 0.004072078476001047, 0.004085654886379852, 0.005473805392259763, 0.0069627799898202124, 0.015563543917870036, 0.007659569088543273, 0.104178984926152, 0.040328257403913645], "train_mve_loss": [-0.1438396649002702, -0.233030589723064, -0.21829789766609342, -0.29184543598831464, -0.23413203935218904, -0.2735381189263826, -0.27436680667497343, -0.31425194936707423, -0.27244364387837583, -0.2663570044245537, -0.1875035254662717, -0.2437423108455468, -0.19642761517213947, -0.18768530273963263, -0.32468356630701906, -0.28356816761291004, -0.2097707310218153, -0.1823307445623539, -0.15016051735541694, -0.30595544983089734], "train_r2_score": [0.5958568456173283, 0.9207860766467607, 0.9261318623038161, 0.9325189058648715, 0.9529866244006849, 0.9677463130268857, 0.9569066676606937, 0.9586493839720631, 0.9242127607168064, 0.9646002087915065, 0.9817018970095716, 0.9843014524820891, 0.9876452212774981, 0.9876102442695628, 0.9834712127939561, 0.9789021068410922, 0.9524888397467937, 0.9768439197822082, 0.6838506381580319, 0.877700688242202], "val_source_regression_loss": [0.015423067244170587, 0.02207302763067846, 0.020604551710848566, 0.019512133484211148, 0.016958595336049417, 0.007712147658384299, 0.012423316700549065, 0.009562551633372336, 0.011429277743814113, 0.007552795259494193, 0.00487494117379943, 0.004122224203134074, 0.004090372246065283, 0.005314723606209589, 0.00598746694954513, 0.004759749571521637, 0.01671594123155633, 0.005725157184856413, 0.09492590721649459, 0.022045924528678762], "val_target_regression_loss": [0.01713758777190424, 0.02598260706172714, 0.0231481392667452, 0.020417575818734077, 0.019360569058151186, 0.008763407327564834, 0.012939354045245844, 0.01032263500898888, 0.013510700904681712, 0.010325959300080055, 0.006633873831457164, 0.005573580171205575, 0.005192026787708643, 0.006231213351004297, 0.006927743583587529, 0.006240379925864407, 0.019138542628740964, 0.007219808123109839, 0.09696432108743282, 0.025119881805834136], "val_source_r2_score": [0.9526039625247983, 0.9324538512798156, 0.9368788246212733, 0.940612697757013, 0.9479711395276376, 0.976419435009343, 0.9618512017589258, 0.9706973836343034, 0.9652512646034213, 0.9769406689323871, 0.9851018385366632, 0.9873277317004462, 0.9875447094698413, 0.9834697723072443, 0.9817467796898026, 0.9854888693135775, 0.9488679731544146, 0.9824666339460948, 0.7100763242689488, 0.9326937178554408], "val_target_r2_score": [0.9491055001402143, 0.922479659131348, 0.9308975601632237, 0.9395471815182016, 0.94239778152134, 0.9738741835799957, 0.9616039918956336, 0.9693460004025087, 0.9598096109063056, 0.9690824229494518, 0.9804615729464693, 0.9825946659345373, 0.98455157631631, 0.9813961646916755, 0.9794387631015614, 0.9814553511575618, 0.9424488518816219, 0.9785576513708614, 0.7126987678408941, 0.9254990546620394], "val_source_mve_loss": [-0.26134318132189255, 0.21275311090712307, -0.3344667704799507, -0.30253429352482664, -0.2982282189628746, -0.1933265931998627, -0.30087781744667247, -0.3207884355436397, -0.2720979878419562, -0.21408486083338532, -0.2447114381231839, -0.20400151402889927, -0.243192822306971, -0.3565515110009833, -0.35833518414557736, -0.19088246833674516, -0.2917630140539966, -0.17591833313809166, -0.23502528478827658, -0.33461793804470497], "val_target_mve_loss": [-0.2565026707664321, 0.29113599719314637, -0.3311190522169765, -0.30100044155422645, -0.2962226030192798, -0.185957334841354, -0.3003573006466974, -0.3193502037585536, -0.26500676911842974, -0.1573918446709838, -0.23664609880387028, -0.19532989757724956, -0.23865089518359944, -0.35545817922942247, -0.35714595906342134, -0.18515410736391816, -0.28719152566752854, -0.16921437201620657, -0.23314212092870398, -0.331109829341309], "val_source_nll_loss": [-1.4491429721252829, 1412.0959601326833, -0.9101782011080392, -1.246438136583642, -0.5198714378513868, 27.738685557359382, -0.5104513047616693, -1.3511792345892024, -1.409895412529571, -1.8408608828918844, -1.8870283757584005, -2.1295875537244577, -1.9342542992362493, -0.8328014966807787, -0.8849019174334369, -2.1757968679259094, -1.3701509569264665, -2.1397675954842867, -0.4101488167726541, -0.7495955138266841], "val_target_nll_loss": [-1.4215651101703886, 1626.1974517544613, -0.902367396445214, -1.233114376852784, -0.5166811422456669, 38.63728431810306, -0.5094247271743002, -1.3424291731436042, -1.3519056854368765, 124.84747704222232, -1.8094385047502155, -2.0046245523645907, -1.898261992237236, -0.8298667548577997, -0.8818933699704423, -2.0858441485634334, -1.3407623948930185, -2.0390378945990455, -0.4065534027316902, -0.7413475596452062], "da_weight": [1.4, 1.4, 1.4, 1.4, 1.4, 1.4, 1.4, 1.4, 1.4, 1.4, 1.4, 1.4, 1.4, 1.4, 1.4, 1.4, 1.4, 1.4, 1.4, 1.4], "beta": [0.5, 0.5, 0.5, 0.5, 0.5, 0.5, 0.5, 0.5, 0.5, 0.5, 0.5, 0.5, 0.5, 0.5, 0.5, 0.5, 0.5, 0.5, 0.5, 0.5], "epoch_no": 20}