{"train_DA_loss": [0.3310949718085896, 0.33283860962395256, 0.3332933153432728, 0.3330168168058779, 0.337513261483182, 0.33790903914399734, 0.341526112415346, 0.340098109879485, 0.33721071732327534, 0.3349421887064329, 0.3382913183958918, 0.3380620232638537, 0.3402112629639165, 0.3418220641462633, 0.3436023163893541, 0.34722950667742186, 0.3457924603489679, 0.3450376983507242, 0.3445521498565482, 0.343506530117945, 0.3464275356620496, 0.3482453175011675, 0.34930999696908527, 0.3564687238587322, 0.35190648061156926, 0.350106492284447, 0.35340139802402293, 0.3511061208557603, 0.34662799319248966, 0.34518381405683063, 0.3445026774293108, 0.3435354008589628, 0.34436261002825647, 0.34490732096775795, 0.3399030907008068, 0.3387968337514065, 0.3415251208479487, 0.34385043633267476, 0.3384642012185763, 0.3352359201779531, 0.33659811290679076, 0.3411721496330319, 0.3375891440256858, 0.34146467202651215, 0.33934725461428955, 0.3416743817614899, 0.3394527255916726, 0.3414529543608373, 0.33863121077717984, 0.33917740673861946, 0.33481306156358076, 0.3383445103926894, 0.3384938155057443, 0.3389436991875089, 0.3374019798020776, 0.33904718547732565, 0.33527408819475385, 0.3321042364323597, 0.3347256161830979, 0.3346570084719379, 0.3372033989189748, 0.3345551027267681, 0.33957316065837084, 0.3444478472582383, 0.342084644168234, 0.341330192737976, 0.3431763372212049, 0.33628374596945326, 0.33908591826720474, 0.33616459369659424, 0.3327618117905622, 0.3351501053440941, 0.33217286356678827, 0.3317091820907985, 0.3278804390233221, 0.33011964677238814, 0.32800034707381476, 0.3260197228934255, 0.32600721312342873, 0.3221234723762141, 0.321730297773913, 0.32153612715779534, 0.32081508994701796, 0.3221941826357702], "train_regression_loss": [2.4653597431601293, 1.3149495219617702, 0.6927232779358161, 0.42276676206200825, 0.31803304771509644, 0.2573606009293736, 0.20142378397898875, 0.14676314584188968, 0.1027810932009377, 0.07530141206393512, 0.06051365715167204, 0.05137239793278073, 0.045217155310337244, 0.04119576701734358, 0.03768139420387078, 0.03520623129031449, 0.03260680993634125, 0.03057226488601682, 0.029109077388505832, 0.027885678304287807, 0.02674852026936341, 0.025980208269992956, 0.025028022581633093, 0.02440584607258902, 0.023673178113901638, 0.023189755057885397, 0.022506898120931013, 0.02188420487257909, 0.021524265119073814, 0.021616439576817494, 0.021398979274920397, 0.02125351220348908, 0.02074988920861341, 0.02048052254710108, 0.0202215487985332, 0.020091029234788973, 0.01944808178569379, 0.01947239267433801, 0.019389346955340676, 0.01912083765202401, 0.018982210608584026, 0.01875571503561038, 0.018551289107330428, 0.018658959683051275, 0.018385485325424066, 0.018365232153051622, 0.018187364922594654, 0.018254306773489964, 0.018119988559491564, 0.017823527788426694, 0.017761733389750695, 0.017651985739945166, 0.01770616565376411, 0.017609863073805132, 0.0174191322303641, 0.017241035530197228, 0.017178043430259065, 0.01704811747654101, 0.01689623724635166, 0.016696911168981077, 0.01652714708169592, 0.016439124318674017, 0.016399233060560344, 0.016150992784233698, 0.016015897826776863, 0.01589333323397464, 0.015835999431160076, 0.015576097499613244, 0.015535032589472081, 0.015284823068167327, 0.015164210719875379, 0.015113609929788701, 0.014948431712318164, 0.015135007450728247, 0.014880872292399842, 0.014871743785207189, 0.01486195170982882, 0.014684468967468908, 0.014744829422227317, 0.014719102478890902, 0.014624915286639818, 0.014587366081760615, 0.014428507780121601, 0.014486039893350938], "train_mve_loss": [1.0800429512857301, 0.48656189008539297, 0.17789084172145322, 0.041448573855780255, -0.01577578337311445, -0.05058609119529616, -0.07642475432517105, -0.08706308079294356, -0.09078341881170787, -0.08974859017667648, -0.0810904315514473, -0.0778255412249504, -0.08082941297775431, -0.08128843264453371, -0.07531437457247997, -0.07358195587747493, -0.0712138288390484, -0.07028680898153804, -0.08265894403514304, -0.06732363356668945, -0.0751906523661487, -0.0673333050400509, -0.08529931176760297, -0.07171258166214448, -0.07214646637303519, -0.07186288044701111, -0.07211498825570783, -0.08445095460882353, -0.11217231105270725, -0.13652841991981596, -0.10773413291905871, -0.0923534708890989, -0.08291213084318738, -0.09991856379063299, -0.08749156532437971, -0.07699582311690835, -0.0770177934489041, -0.12914779923270564, -0.11211752318104616, -0.10712341025771345, -0.11191418307954258, -0.10905060571170594, -0.09509840113207889, -0.15529745443293339, -0.15313814218127095, -0.12554084204505087, -0.1105722141821598, -0.16434567466623387, -0.14094683245995798, -0.12287657013268531, -0.1349052947143968, -0.109358259260491, -0.13920100653029882, -0.1738257749751891, -0.15076721670749638, -0.14220419451185728, -0.11977154705707509, -0.12190644957901572, -0.11358028431669885, -0.1224218277461568, -0.17234938797392838, -0.12863176105581428, -0.12243426127369486, -0.14285812791184926, -0.12200391709368669, -0.12254651941672322, -0.12244598167034128, -0.11890575341485318, -0.13728240329833527, -0.13259048385365135, -0.13564291853845883, -0.15313649090378115, -0.13584247991524406, -0.19469142978980292, -0.1563716744918928, -0.17359827390754462, -0.15463725922857385, -0.21000603309932966, -0.18780510423115881, -0.21194430924202887, -0.2142308618621373, -0.19978693951690873, -0.18275209106300605, -0.17317055278139315], "train_r2_score": [-6.4872807344591195, -2.9779104965851335, -1.0963960465596516, -0.279862987264578, 0.03932652258043494, 0.2222094356108569, 0.39189556248626, 0.5564087218627853, 0.6893575114650627, 0.7724506574379875, 0.8167936032798591, 0.8444163488848891, 0.8629985128547757, 0.8751370767212171, 0.8857388230577532, 0.8932710409612622, 0.9011531817426031, 0.9073394270488452, 0.9115761862246131, 0.915513800173006, 0.9189338030199352, 0.9211532865272468, 0.9239986206640927, 0.9260325100855961, 0.9281578097144229, 0.9296783556925, 0.9318241334018793, 0.9336201797490252, 0.9347464818750634, 0.9344686505589938, 0.9350761043098416, 0.9356908133331874, 0.937129978675703, 0.9379936863925994, 0.9387118997166581, 0.9390714898849356, 0.9410145597810793, 0.9409750561089741, 0.9413035652102213, 0.9420824448853156, 0.942416482342367, 0.9430766411290418, 0.9437843601042742, 0.943519510454208, 0.9442273885428183, 0.9443264931084749, 0.9448423399791828, 0.944679718450367, 0.9450331943327137, 0.9459778833333299, 0.9462241197933994, 0.9465476083006955, 0.9462951399545672, 0.9466595028178079, 0.9471983793580807, 0.9477105688620716, 0.947910500686649, 0.9483093123829276, 0.9487565322536096, 0.9494255821327856, 0.9498476815881591, 0.9501367680159406, 0.9502449654023081, 0.9510443513121808, 0.9513766083266473, 0.9518364541876603, 0.9519486503576349, 0.9527717570142813, 0.9528920663864069, 0.953783353332102, 0.9539940558880334, 0.9541973223721775, 0.954689987870459, 0.9540727995795849, 0.9549190074113295, 0.954926399583221, 0.954878714984599, 0.955577344551954, 0.9553040381535576, 0.955411664605834, 0.9557093788697986, 0.9557756918398934, 0.95624579650669, 0.9561302737454973], "val_source_regression_loss": [1.7937951269029062, 0.9241310742836965, 0.5068629014341137, 0.3531755009029485, 0.2813456175448019, 0.22797039981129802, 0.17329928844789916, 0.12274840738199934, 0.08829552336018297, 0.06722808766025531, 0.05603918376602704, 0.04846726626723628, 0.04328493936623953, 0.04087765554932854, 0.03647057634271399, 0.033334949490013005, 0.031081954936815214, 0.029690889806687076, 0.02910416768981686, 0.02736245614441135, 0.026560328830080696, 0.025774510600898838, 0.025050854145348828, 0.024093024703803697, 0.023638631570848483, 0.022656577332770524, 0.02204173785646128, 0.021710625814297533, 0.02167740069282583, 0.021721312092452108, 0.021390486614707903, 0.021069066492911383, 0.02064196286793751, 0.020879006543774392, 0.020274860584000243, 0.020038421996692313, 0.01963968293246212, 0.019637177014558374, 0.019428744122291668, 0.01922744715326949, 0.0192146275098188, 0.018773418768674513, 0.01890757612742578, 0.019023688675104816, 0.01880110315742749, 0.01855058590822582, 0.01890215123237311, 0.018082560116684514, 0.01794642062645547, 0.01775440525357859, 0.017899948325526865, 0.01802054825651495, 0.01786526652123732, 0.01777183443685121, 0.017488046301693858, 0.017765143108141573, 0.017555673500593706, 0.017226493952772284, 0.01696762572266633, 0.017146253993711138, 0.016939010459316683, 0.016735030055234704, 0.01623790437662149, 0.016465171652881406, 0.015742171437868588, 0.016107567090871213, 0.015870794842514812, 0.016255915777969965, 0.015525954303956485, 0.015888426700441896, 0.01576311339305926, 0.015092539447772352, 0.015385947249169592, 0.015489753712958928, 0.015053394498138488, 0.015186400471042983, 0.015527677686908577, 0.015069326515533502, 0.015064547345325162, 0.014975534539811219, 0.014824774151644375, 0.01486594934912422, 0.01526081578546687, 0.014996196107962463], "val_target_regression_loss": [1.7299793581419354, 0.8944681301901612, 0.5193800266030468, 0.3803140928473654, 0.32427182906790625, 0.2790402615372139, 0.23265090773377237, 0.19032364480103117, 0.16478586196899414, 0.15441024397747427, 0.146832537896271, 0.13721984705027146, 0.1350489413436455, 0.13035889979027496, 0.1290121516094932, 0.13008297696898255, 0.1290857798502415, 0.12955222571197944, 0.12605325231635117, 0.129220212090619, 0.13106464688913733, 0.13337431857480278, 0.13292442997799644, 0.13153189288664469, 0.13041361680702318, 0.13249806522191326, 0.12921866557643383, 0.13256106855748576, 0.1350587850695924, 0.1370430638707137, 0.13664241587813897, 0.13476261157023756, 0.13652012883862363, 0.13654629216541217, 0.13915844770926464, 0.14016247370952292, 0.13914470440602, 0.1402633173179023, 0.1377732318036164, 0.13368254711356345, 0.13852450855170625, 0.14101361964322343, 0.13957889811902108, 0.14612180183205423, 0.14344068833544285, 0.14614100471327576, 0.15122550188363354, 0.1447081407414207, 0.14526010804538486, 0.14918822248148012, 0.1481310055602955, 0.15168202083699311, 0.14865652566091925, 0.1508076317325423, 0.15005242532189889, 0.15460113115325758, 0.15246264881725552, 0.15406058360881444, 0.15548300318702868, 0.15623482778857026, 0.15712114263184462, 0.15329543557725375, 0.15723188249747963, 0.15278036600049538, 0.15767136310474783, 0.16052031696219987, 0.1539890088989765, 0.15627636628437647, 0.158942592106288, 0.1574422811877124, 0.15746827659350407, 0.158758676504787, 0.15583378482091276, 0.156289088009279, 0.15444651661039907, 0.16142502644016773, 0.16164436926947365, 0.15916988479940197, 0.16124471333585208, 0.1599672125487388, 0.164729861047449, 0.15783404898417147, 0.16264494055811363, 0.17075700209110597], "val_source_r2_score": [-4.55216651146913, -1.8274135685272095, -0.5549762656746824, -0.0813227922957502, 0.14098101983651642, 0.3057574602956991, 0.4707442461663627, 0.626497896167412, 0.7303270401011942, 0.7911533153268251, 0.8280099222153503, 0.8527777353892296, 0.8675958208065969, 0.8737705708403783, 0.8879412921934924, 0.8983259879792198, 0.9049490256550613, 0.9089587847847039, 0.9109356847722209, 0.9164924827014498, 0.9180023753232047, 0.9210752768954672, 0.9233782183564391, 0.9257054829724616, 0.9278614137261032, 0.9308023843411928, 0.9313119889685032, 0.9335814932334103, 0.9335045722739506, 0.9330892136987877, 0.934145621899318, 0.9352102620934865, 0.9365407216873334, 0.935820404629524, 0.9372622534673641, 0.9384607110482569, 0.9401180597826383, 0.9396399097773345, 0.9406032570802687, 0.9409704969001174, 0.9416011515539688, 0.9424761093693654, 0.9421835712747215, 0.9416318732086445, 0.9424501916397384, 0.9428909365875279, 0.9420230566638551, 0.9444652515428618, 0.9448998297551378, 0.9454547750047068, 0.9450450746083764, 0.9447283434996311, 0.9451055268139553, 0.9452506858663462, 0.9461090497440653, 0.9448946142586033, 0.9458319161140412, 0.9471590125601057, 0.9482193647628053, 0.9476322118629827, 0.9483183283802323, 0.9487685760616905, 0.9503455621570862, 0.9492611990713126, 0.9518033306339441, 0.9505300308114749, 0.9513644186633502, 0.9495868783304608, 0.9524103918305715, 0.9512125965202108, 0.9516566172038338, 0.9536622739659507, 0.9527995165766653, 0.9527645249319081, 0.9539505782635613, 0.9532046450352423, 0.9523846854221374, 0.9540308434794255, 0.953931968598175, 0.9539849526290608, 0.9544835564579487, 0.9543285895624277, 0.9532698791967626, 0.9542482880598363], "val_target_r2_score": [-4.179792725816295, -1.661112494928036, -0.5390112082251279, -0.12622225394141864, 0.04218162808137112, 0.1713627469099654, 0.31156034144554934, 0.4345532022770941, 0.5115692219586929, 0.5405149292757675, 0.5644535311835935, 0.5919900601826248, 0.5978531052039596, 0.6127509653486631, 0.616572384982198, 0.6090849863059657, 0.6165320643747124, 0.6144500687727281, 0.6257023271540577, 0.6151403179412283, 0.612376410427483, 0.6044184798045108, 0.6029680285083232, 0.6111821530814853, 0.6144908232447419, 0.6051578828456725, 0.6156446856867269, 0.6061535335798823, 0.5993560731509814, 0.5864899006086689, 0.5918462921344783, 0.6008366671139274, 0.5943096317675083, 0.5935754173373601, 0.587918941825584, 0.5821123655927899, 0.5817058765086351, 0.5851693132145719, 0.5904885770372311, 0.6023916254811599, 0.5911726421204282, 0.5813914217727068, 0.5821177194410709, 0.5658605226734806, 0.5730982120275698, 0.5673927430867638, 0.5509446720080331, 0.5662091588330074, 0.5694010346457551, 0.557247078144863, 0.5605907968809638, 0.546245803332921, 0.5577015134274457, 0.5514584210672381, 0.5543096124251721, 0.537193121800085, 0.5497154339568168, 0.542638969935504, 0.5377731371678259, 0.5350604749890988, 0.5352235921674445, 0.5465875416340794, 0.5312458978485461, 0.5466575841930287, 0.5313856474484469, 0.5200450160362594, 0.5420037999007522, 0.5336185074135583, 0.5202912493649913, 0.5339884449833142, 0.5317237396344265, 0.5275947490053583, 0.5378937487075918, 0.5364496846744935, 0.5380965235725055, 0.5195346625560766, 0.517662630421877, 0.5254448881544678, 0.520319776261262, 0.5247007144018064, 0.5077094629208394, 0.5307885715285946, 0.5195481320632553, 0.49246197767406924], "val_source_mve_loss": [0.7232767796214623, 0.2917783573458466, 0.08489291492519499, 0.00404551104182684, -0.036807783490306216, -0.06611689232006858, -0.08427241199378725, -0.08510490497456322, -0.0853870849160454, -0.08670985868460016, -0.07780902012239528, -0.07032150567709645, -0.07375880019574226, -0.06887933640163156, -0.0758548774108102, -0.0847090303520613, -0.0706150639755062, -0.06271592480472371, -0.07065453630270838, -0.05928791932101491, -0.07835854014641122, -0.10589342771828929, -0.07592370493125312, -0.0644154726893087, -0.08075634550444688, -0.08413052162792109, -0.07242563282009921, -0.07678664211608187, -0.11804308798871463, -0.12559695108027397, -0.09183633374639705, -0.08765781760404381, -0.07525231590188003, -0.09248159684335129, -0.07486309686416312, -0.07078398023790951, -0.09289068502338627, -0.12529970658353612, -0.09003926983362512, -0.08743451941239683, -0.1120050331648392, -0.11924782253896134, -0.08290317560298534, -0.16656220808059355, -0.13311662581525271, -0.11374301123845426, -0.17259127920186973, -0.14963188144979597, -0.14015906058912037, -0.11448855320864086, -0.11644475718465032, -0.12070918281244326, -0.18281237950807885, -0.1650837318429464, -0.1406280443638186, -0.13569469528296327, -0.13105898840895183, -0.11964142077331301, -0.09918945518475544, -0.19040386246729502, -0.14431520862669883, -0.14005725915673412, -0.11986142882629286, -0.12448600038320204, -0.1186723190395138, -0.14652118181126028, -0.13775471843118908, -0.1074805870840821, -0.11641842989793307, -0.15269231041775475, -0.19409524319292623, -0.1912661153304426, -0.07625751973047287, -0.17761370039816143, -0.1415212487306776, -0.15391183507781994, -0.2205672181105312, -0.1944473107592969, -0.21502180982239638, -0.20923668768586992, -0.21221002577980863, -0.17935892967860909, -0.15578067925157427, -0.24476768246179895], "val_target_mve_loss": [0.6881145495402662, 0.27800716403164444, 0.09342256141237065, 0.02069961744997226, -0.013103647019030362, -0.03898086267983234, -0.05353725911412813, -0.0563553502146579, -0.059025374960295765, -0.06415578402295898, -0.05513867028529131, -0.05627209033015408, -0.05245593614593337, -0.04805596377936345, -0.05205678274925751, -0.05849301664135124, -0.053457752954733526, -0.045511257775788065, -0.0430513893171579, -0.03597386706549721, -0.046573137163031325, -0.07014773432401163, -0.049319521017089675, -0.03403461683258603, -0.04573924794698818, -0.045294996144698015, -0.02708670520223677, -0.0387333448021378, -0.062358131632208824, -0.06275331502473808, -0.0369561786934309, -0.03697566215031415, -0.021743744700156813, -0.035559886329677666, -0.02225995918476506, -0.006843371523096215, -0.024760669362554444, -0.049172971544999486, -0.013183856512643869, -0.010612034003097045, -0.03955202725939924, -0.03990628094046931, 0.02282413547045162, -0.06967521860276031, -0.004877380785072529, 0.04701982659606051, -0.08266997011967853, -0.059177645305289496, -0.052567874918444245, -0.018803086220227843, -0.020663038211509208, -0.009286485353036772, -0.09281602190642417, -0.06473373290434291, 0.010610536153463624, 0.018491910782324362, 0.04527002501101056, 0.04921301090618289, 0.0966170729031857, -0.07390348634482184, 0.1473353677723981, 0.154708673670605, 0.21972100977797673, 0.23348829918835737, 0.1937574468246555, 0.04192107054699637, 0.07876648529303036, 0.15635402471746637, 0.13264921333499347, -0.002830234662735764, -0.06892638945881324, -0.07186579314072299, 0.3184956963515923, 0.7241903117185906, 1.5052649887467298, 1.2578611998712714, 0.0006705831583070604, 0.20786277267822548, -0.0662498510902441, -0.03490344310014308, -0.06023704617201716, 0.10663212485658595, 0.239560727731478, -0.103308199138581], "da_weight": [0.0, 0.0, 0.0, 0.0, 0.0, 0.0, 0.0, 0.0, 0.0, 0.0, 0.0, 0.0, 0.0, 0.0, 0.0, 0.0, 0.0, 0.0, 0.0, 0.0, 0.0, 0.0, 0.0, 0.0, 0.0, 0.0, 0.0, 0.0, 0.0, 0.0, 0.0, 0.0, 0.0, 0.0, 0.0, 0.0, 0.0, 0.0, 0.0, 0.0, 0.0, 0.0, 0.0, 0.0, 0.0, 0.0, 0.0, 0.0, 0.0, 0.0, 0.0, 0.0, 0.0, 0.0, 0.0, 0.0, 0.0, 0.0, 0.0, 0.0, 0.0, 0.0, 0.0, 0.0, 0.0, 0.0, 0.0, 0.0, 0.0, 0.0, 0.0, 0.0, 0.0, 0.0, 0.0, 0.0, 0.0, 0.0, 0.0, 0.0, 0.0, 0.0, 0.0, 0.0], "beta": [1.0, 0.996, 0.992, 0.988, 0.984, 0.98, 0.976, 0.972, 0.968, 0.964, 0.96, 0.956, 0.952, 0.948, 0.944, 0.94, 0.9359999999999999, 0.9319999999999999, 0.928, 0.924, 0.92, 0.916, 0.912, 0.908, 0.904, 0.9, 0.896, 0.892, 0.888, 0.884, 0.88, 0.876, 0.872, 0.868, 0.864, 0.86, 0.856, 0.852, 0.848, 0.844, 0.84, 0.836, 0.832, 0.8280000000000001, 0.8240000000000001, 0.8200000000000001, 0.8160000000000001, 0.812, 0.808, 0.804, 0.8, 0.796, 0.792, 0.788, 0.784, 0.78, 0.776, 0.772, 0.768, 0.764, 0.76, 0.756, 0.752, 0.748, 0.744, 0.74, 0.736, 0.732, 0.728, 0.724, 0.72, 0.716, 0.712, 0.708, 0.704, 0.7, 0.696, 0.692, 0.688, 0.6839999999999999, 0.6799999999999999, 0.6759999999999999, 0.6719999999999999, 0.6679999999999999], "epoch_no": 84, "lr": [[1e-05], [1e-05], [1e-05], [1e-05], [1e-05], [1e-05], [1e-05], [1e-05], [1e-05], [1e-05], [1e-05], [1e-05], [1e-05], [1e-05], [1e-05], [1e-05], [1e-05], [1e-05], [1e-05], [1e-05], [1e-05], [1e-05], [1e-05], [1e-05], [1e-05], [1e-05], [1e-05], [1e-05], [1e-05], [1e-05], [1e-05], [1e-05], [1e-05], [1e-05], [1e-05], [1e-05], [1e-05], [1e-05], [1e-05], [1e-05], [1e-05], [1e-05], [1e-05], [1e-05], [1e-05], [1e-05], [1e-05], [1e-05], [1e-05], [1e-05], [1e-05], [1e-05], [1e-05], [1e-05], [1e-05], [1e-05], [1e-05], [1e-05], [1e-05], [1e-05], [1e-05], [1e-05], [1e-05], [1e-05], [1e-05], [1e-05], [1e-05], [1e-05], [1e-05], [1e-05], [1e-05], [1e-05], [1e-05], [1e-05], [1e-05], [1e-05], [1e-05], [1e-05], [1e-05], [1e-05], [1e-05], [1e-05], [1e-05], [1e-05]]}