{"train_DA_loss": [0.3505963116911473, 0.19709929595726935, 0.16935531175959262, 0.15894009469168932, 0.15400395688125812, 0.1515536367607182, 0.14935587312501789, 0.14816080592913208, 0.14671703057544105, 0.14495246229485576, 0.1474846196335347, 0.14626519303680338, 0.14515403032275614], "train_regression_loss": [1.2298766560648215, 0.22937159823897335, 0.1075967398712197, 0.05167951509084082, 0.04339334595662421, 0.039273559174566805, 0.036731930525370715, 0.035780918318778276, 0.0347491319306617, 0.03351133372345207, 0.032884995023153, 0.03202051926026261, 0.031021425640125378], "train_mve_loss": [0.48029669754396975, -0.054313527355677155, -0.0725895669498571, -0.10145489917089055, -0.08253349544279535, -0.07489088755543642, -0.08542970117774044, -0.1775892500406373, -0.12765868897575347, -0.10093768670392211, -0.11743172824508774, -0.10543129140582665, -0.11210235765023358], "train_r2_score": [-2.8755659714171076, 0.2869794375513508, 0.6641075355622091, 0.8384233926703971, 0.863487734287709, 0.8762831007065488, 0.8844173489034913, 0.8869855242378543, 0.8907208361351532, 0.8942805763171342, 0.896013895945355, 0.8987071235259418, 0.9026438138652074], "val_source_regression_loss": [0.30004738366148276, 0.1668160433886917, 0.07080497948607062, 0.047702233396043445, 0.044523030068654164, 0.04195962969071356, 0.03893141174439792, 0.03700189813259681, 0.03709301893498487, 0.03543375828748296, 0.034666781201009536, 0.03431804379697438, 0.03261815406571908], "val_target_regression_loss": [0.3150831657420298, 0.17785697164619044, 0.07615173683994135, 0.05368369095217271, 0.04929650140700826, 0.04492295666295252, 0.04175323304856659, 0.0419201982403352, 0.041091335000126225, 0.03928345636980739, 0.03901711813393672, 0.03824913603769746, 0.035360792301785036], "val_source_r2_score": [0.0681356276500716, 0.4755201383183993, 0.7776030480023128, 0.8517772295368989, 0.8595139786117497, 0.8696347334538321, 0.8766695176091303, 0.8836748520514344, 0.883235564399355, 0.8894237402819719, 0.8921766192061295, 0.8910956127654834, 0.887337161341064], "val_target_r2_score": [0.006674878460951395, 0.4440857472905099, 0.7624952400127474, 0.8280793574754431, 0.8420938236383381, 0.8580494218744398, 0.8677444742167173, 0.8662567366315133, 0.8705224928375159, 0.8750648766191599, 0.8754990889493944, 0.8788212107904511, 0.8881848426599819], "val_source_mve_loss": [-0.014412723778254666, -0.06850021585205178, -0.06849839619010877, -0.1297578310985474, -0.06414065411563512, -0.09457135226601249, -0.061533441437871025, -0.1768595217519505, -0.09634133093770902, -0.08285641838695593, -0.08651217773177061, -0.09005776650396882, -0.06899971755779093], "val_target_mve_loss": [-0.006738510257178905, -0.061368199071259635, -0.063789134578198, -0.1275887053198875, -0.06156015298833513, -0.09373418137336233, -0.061431650902814924, -0.17405875084126832, -0.0924326964909104, -0.07946490883162827, -0.08111973387444285, -0.08668363647191388, -0.0681311581105848], "da_weight": [1.4, 1.3946666666666665, 1.3893333333333333, 1.384, 1.3786666666666665, 1.3733333333333333, 1.3679999999999999, 1.3626666666666667, 1.3573333333333333, 1.3519999999999999, 1.3466666666666667, 1.3413333333333333, 1.3359999999999999], "beta": [1.0, 0.984, 0.968, 0.952, 0.9359999999999999, 0.92, 0.904, 0.888, 0.872, 0.856, 0.84, 0.8240000000000001, 0.808], "epoch_no": 13}