{"train_DA_loss": [0.3505963116911473, 0.19709929595726935, 0.16935531175959262, 0.15894009469168932, 0.15400395688125812, 0.1515536367607182, 0.14935587312501789, 0.14816080592913208], "train_regression_loss": [1.2298766560648215, 0.22937159823897335, 0.1075967398712197, 0.05167951509084082, 0.04339334595662421, 0.039273559174566805, 0.036731930525370715, 0.035780918318778276], "train_mve_loss": [0.48029669754396975, -0.054313527355677155, -0.0725895669498571, -0.10145489917089055, -0.08253349544279535, -0.07489088755543642, -0.08542970117774044, -0.1775892500406373], "train_r2_score": [-2.8755659714171076, 0.2869794375513508, 0.6641075355622091, 0.8384233926703971, 0.863487734287709, 0.8762831007065488, 0.8844173489034913, 0.8869855242378543], "val_source_regression_loss": [0.30004738366148276, 0.1668160433886917, 0.07080497948607062, 0.047702233396043445, 0.044523030068654164, 0.04195962969071356, 0.03893141174439792, 0.03700189813259681], "val_target_regression_loss": [0.3150831657420298, 0.17785697164619044, 0.07615173683994135, 0.05368369095217271, 0.04929650140700826, 0.04492295666295252, 0.04175323304856659, 0.0419201982403352], "val_source_r2_score": [0.0681356276500716, 0.4755201383183993, 0.7776030480023128, 0.8517772295368989, 0.8595139786117497, 0.8696347334538321, 0.8766695176091303, 0.8836748520514344], "val_target_r2_score": [0.006674878460951395, 0.4440857472905099, 0.7624952400127474, 0.8280793574754431, 0.8420938236383381, 0.8580494218744398, 0.8677444742167173, 0.8662567366315133], "val_source_mve_loss": [-0.014412723778254666, -0.06850021585205178, -0.06849839619010877, -0.1297578310985474, -0.06414065411563512, -0.09457135226601249, -0.061533441437871025, -0.1768595217519505], "val_target_mve_loss": [-0.006738510257178905, -0.061368199071259635, -0.063789134578198, -0.1275887053198875, -0.06156015298833513, -0.09373418137336233, -0.061431650902814924, -0.17405875084126832], "da_weight": [1.4, 1.3946666666666665, 1.3893333333333333, 1.384, 1.3786666666666665, 1.3733333333333333, 1.3679999999999999, 1.3626666666666667], "beta": [1.0, 0.984, 0.968, 0.952, 0.9359999999999999, 0.92, 0.904, 0.888], "epoch_no": 8}