{"train_DA_loss": [0.3768084167453445, 0.22330302437954672, 0.18744115192286492, 0.16954238550019002, 0.1600574252197359, 0.15232660210056323, 0.1457826551833144, 0.14021181933568208], "train_regression_loss": [0.9860752216000552, 0.11105635896209334, 0.07021122573410081, 0.055038994627662506, 0.0471049334455479, 0.04210197364305311, 0.03983921043309204, 0.04039014131426675], "train_mve_loss": [0.4408974596971758, -0.081589515562726, -0.09915704401724987, -0.09038928825701067, -0.09220458770603268, -0.10230282600458296, -0.11264008143916726, -0.11917604085728799], "train_r2_score": [-2.1078708754465323, 0.6505838195224956, 0.7784826443375272, 0.8266645152039895, 0.8523556462410369, 0.8677973082551789, 0.8756214459064564, 0.8739511818627534], "val_source_regression_loss": [0.17259839589998222, 0.0841420210636915, 0.06287771369668708, 0.05480032450976265, 0.047947810025541646, 0.0434133173530079, 0.04355242692978139, 0.043030531139700276], "val_target_regression_loss": [0.20092833730255721, 0.11235621146810283, 0.08451210569803881, 0.06722480689833878, 0.057920884091857895, 0.05109422480699363, 0.05137612960141176, 0.049449078691233495], "val_source_r2_score": [0.4592034730102153, 0.731597142851831, 0.8017518435520543, 0.8289451066830354, 0.8523172811195978, 0.8645071871045104, 0.8646804899126819, 0.8662872437564737], "val_target_r2_score": [0.36213413443710113, 0.6442869452763148, 0.7354331124389201, 0.7856195922005504, 0.8167875473569615, 0.8384767185871276, 0.8376989271823967, 0.8435724919289658], "val_source_mve_loss": [-0.06761205097909566, -0.08636933047870163, -0.09443575706166826, -0.04880854432844812, -0.06491673474383962, -0.08753555472109728, -0.12695387921705367, -0.14285338375788587], "val_target_mve_loss": [-0.04939702273032088, -0.07482077924024527, -0.09051994044499792, -0.04359457077114445, -0.06738588734749396, -0.0856144213871022, -0.11632400316892157, -0.1451998235788315], "da_weight": [1.4, 1.3946666666666665, 1.3893333333333333, 1.384, 1.3786666666666665, 1.3733333333333333, 1.3679999999999999, 1.3626666666666667], "beta": [1.0, 0.984, 0.968, 0.952, 0.9359999999999999, 0.92, 0.904, 0.888], "epoch_no": 8}