{"train_DA_loss": [0.3310949718085896, 0.33283860962395256, 0.3332933153432728, 0.3330168168058779, 0.337513261483182, 0.33790903914399734, 0.341526112415346, 0.340098109879485, 0.33721071732327534, 0.3349421887064329, 0.3382913183958918, 0.3380620232638537, 0.3402112629639165, 0.3418220641462633, 0.3436023163893541, 0.34722950667742186, 0.3457924603489679, 0.3450376983507242, 0.3445521498565482], "train_regression_loss": [2.4653597431601293, 1.3149495219617702, 0.6927232779358161, 0.42276676206200825, 0.31803304771509644, 0.2573606009293736, 0.20142378397898875, 0.14676314584188968, 0.1027810932009377, 0.07530141206393512, 0.06051365715167204, 0.05137239793278073, 0.045217155310337244, 0.04119576701734358, 0.03768139420387078, 0.03520623129031449, 0.03260680993634125, 0.03057226488601682, 0.029109077388505832], "train_mve_loss": [1.0800429512857301, 0.48656189008539297, 0.17789084172145322, 0.041448573855780255, -0.01577578337311445, -0.05058609119529616, -0.07642475432517105, -0.08706308079294356, -0.09078341881170787, -0.08974859017667648, -0.0810904315514473, -0.0778255412249504, -0.08082941297775431, -0.08128843264453371, -0.07531437457247997, -0.07358195587747493, -0.0712138288390484, -0.07028680898153804, -0.08265894403514304], "train_r2_score": [-6.4872807344591195, -2.9779104965851335, -1.0963960465596516, -0.279862987264578, 0.03932652258043494, 0.2222094356108569, 0.39189556248626, 0.5564087218627853, 0.6893575114650627, 0.7724506574379875, 0.8167936032798591, 0.8444163488848891, 0.8629985128547757, 0.8751370767212171, 0.8857388230577532, 0.8932710409612622, 0.9011531817426031, 0.9073394270488452, 0.9115761862246131], "val_source_regression_loss": [1.7937951269029062, 0.9241310742836965, 0.5068629014341137, 0.3531755009029485, 0.2813456175448019, 0.22797039981129802, 0.17329928844789916, 0.12274840738199934, 0.08829552336018297, 0.06722808766025531, 0.05603918376602704, 0.04846726626723628, 0.04328493936623953, 0.04087765554932854, 0.03647057634271399, 0.033334949490013005, 0.031081954936815214, 0.029690889806687076, 0.02910416768981686], "val_target_regression_loss": [1.7299793581419354, 0.8944681301901612, 0.5193800266030468, 0.3803140928473654, 0.32427182906790625, 0.2790402615372139, 0.23265090773377237, 0.19032364480103117, 0.16478586196899414, 0.15441024397747427, 0.146832537896271, 0.13721984705027146, 0.1350489413436455, 0.13035889979027496, 0.1290121516094932, 0.13008297696898255, 0.1290857798502415, 0.12955222571197944, 0.12605325231635117], "val_source_r2_score": [-4.55216651146913, -1.8274135685272095, -0.5549762656746824, -0.0813227922957502, 0.14098101983651642, 0.3057574602956991, 0.4707442461663627, 0.626497896167412, 0.7303270401011942, 0.7911533153268251, 0.8280099222153503, 0.8527777353892296, 0.8675958208065969, 0.8737705708403783, 0.8879412921934924, 0.8983259879792198, 0.9049490256550613, 0.9089587847847039, 0.9109356847722209], "val_target_r2_score": [-4.179792725816295, -1.661112494928036, -0.5390112082251279, -0.12622225394141864, 0.04218162808137112, 0.1713627469099654, 0.31156034144554934, 0.4345532022770941, 0.5115692219586929, 0.5405149292757675, 0.5644535311835935, 0.5919900601826248, 0.5978531052039596, 0.6127509653486631, 0.616572384982198, 0.6090849863059657, 0.6165320643747124, 0.6144500687727281, 0.6257023271540577], "val_source_mve_loss": [0.7232767796214623, 0.2917783573458466, 0.08489291492519499, 0.00404551104182684, -0.036807783490306216, -0.06611689232006858, -0.08427241199378725, -0.08510490497456322, -0.0853870849160454, -0.08670985868460016, -0.07780902012239528, -0.07032150567709645, -0.07375880019574226, -0.06887933640163156, -0.0758548774108102, -0.0847090303520613, -0.0706150639755062, -0.06271592480472371, -0.07065453630270838], "val_target_mve_loss": [0.6881145495402662, 0.27800716403164444, 0.09342256141237065, 0.02069961744997226, -0.013103647019030362, -0.03898086267983234, -0.05353725911412813, -0.0563553502146579, -0.059025374960295765, -0.06415578402295898, -0.05513867028529131, -0.05627209033015408, -0.05245593614593337, -0.04805596377936345, -0.05205678274925751, -0.05849301664135124, -0.053457752954733526, -0.045511257775788065, -0.0430513893171579], "da_weight": [0.0, 0.0, 0.0, 0.0, 0.0, 0.0, 0.0, 0.0, 0.0, 0.0, 0.0, 0.0, 0.0, 0.0, 0.0, 0.0, 0.0, 0.0, 0.0], "beta": [1.0, 0.996, 0.992, 0.988, 0.984, 0.98, 0.976, 0.972, 0.968, 0.964, 0.96, 0.956, 0.952, 0.948, 0.944, 0.94, 0.9359999999999999, 0.9319999999999999, 0.928], "epoch_no": 19, "lr": [[1e-05], [1e-05], [1e-05], [1e-05], [1e-05], [1e-05], [1e-05], [1e-05], [1e-05], [1e-05], [1e-05], [1e-05], [1e-05], [1e-05], [1e-05], [1e-05], [1e-05], [1e-05], [1e-05]]}