{"train_DA_loss": [0.2533837274888316, 0.26426770384176557, 0.25889720341405226, 0.25596948850634327, 0.25584850799448966, 0.25480622183906093, 0.24835185446458063, 0.24058270863030903, 0.23912006056777302], "train_regression_loss": [0.46495952397939055, 0.030898341246739274, 0.02229270764917707, 0.01889816441673656, 0.016464299317176915, 0.014223482334216754, 0.01297496226735386, 0.011940574005733106, 0.011073127563896383], "train_mve_loss": [0.1219590260956685, -0.06235073913072646, -0.06844070429319492, -0.07205732517673122, -0.05018948710658051, -0.05480102287908468, -0.08867180439212805, -0.04642523065468184, -0.07101328347654676], "train_r2_score": [-0.4291161007770227, 0.9054470584010533, 0.9316273314634107, 0.9419375895240031, 0.9495345893075278, 0.95642615518028, 0.960148425657972, 0.9632745343763657, 0.9659668776271945], "val_source_regression_loss": [0.0426387777967248, 0.024422710423304395, 0.01984785092626787, 0.01790699485547034, 0.015219116191955128, 0.013386397684811596, 0.012664437626197839, 0.011899346085324598, 0.010925413705527213], "val_target_regression_loss": [0.07795028324434712, 0.05981535602147412, 0.05617185995267455, 0.05898584835943143, 0.05274531973680113, 0.051811287654148545, 0.04886780285341724, 0.049796078745631654, 0.04825671381394195], "val_source_r2_score": [0.8682639967257656, 0.924735637621937, 0.9383564110565599, 0.9444593415862402, 0.9528173303821025, 0.9585033478878797, 0.9607511664635964, 0.9631400319694293, 0.9661263844770814], "val_target_r2_score": [0.7650943766427691, 0.820235449487099, 0.8301603024748345, 0.823747141447941, 0.8425430205830154, 0.8442706223491203, 0.8538313022773577, 0.8501257370303694, 0.8539721103889861], "val_source_mve_loss": [-0.07374725490808487, -0.03456320932763777, -0.041904708073966825, -0.13195492706860706, -0.03559422985336203, -0.05819707731627355, -0.02843603627032535, -0.126136448020768, -0.09055611828140392], "val_target_mve_loss": [-0.04205874721430669, -0.014443987903369081, -0.011638649461262971, -0.10511225039602086, -0.010529830172408824, -0.032010369171880805, 0.004052640652954341, -0.10786092646752193, -0.06792286652953002], "da_weight": [0, 0, 0, 0, 0, 0, 0, 0, 0], "beta": [1.0, 0.996, 0.992, 0.988, 0.984, 0.98, 0.976, 0.972, 0.968], "epoch_no": 9}