{"train_DA_loss": [0.11953618658035721, 0.09892889220519518, 0.0829094133562863, 0.05682660296041743, 0.05113736116131546, 0.07624702455928818, 0.062428433567258294, 0.05104771921823186, 0.054839559740487355, 0.06640152488469096, 0.05785890511310297, 0.05143062448575139, 0.054056743262046215, 0.05754105743340862, 0.06050266241024792, 0.055907951392083544, 0.06182367486072197, 0.061025595057490105, 0.08278462702793221, 0.08339310674783408, 0.0933334348243159, 0.08736903725746999, 0.0820221967000848, 0.06769385755443486, 0.06284900407359631, 0.06099507326372581, 0.05809128097849311, 0.05895964283720885, 0.05395258435642371, 0.055169162512424874, 0.05385604396230887, 0.053144789527304864, 0.050612200565731506, 0.051293683556713834, 0.050725111431379206, 0.05400065526066576, 0.07265507592606806, 0.07062209764635105, 0.07122636200958894, 0.07085903222507489, 0.07052930288520766, 0.07210817867021674, 0.07292532872483543, 0.07286923118548594, 0.07458534838812225, 0.0733100486480013, 0.07472759151535016, 0.07451538698002015, 0.07622352999105532, 0.07228519864911571, 0.05517473409269039, 0.05262475074617911, 0.05345527816843071, 0.053975069272234846, 0.05356526648595085, 0.05304940876430088, 0.05376732931004146, 0.05976959153110846, 0.056741765371678736, 0.05711848981732969], "train_regression_loss": [0.3169496231039874, 0.02700040703111582, 0.0248947206925485, 0.015743955218963584, 0.014334629996385174, 0.02142794261187642, 0.01091984065566246, 0.016622646064778458, 0.007967118731865036, 0.007971087408080097, 0.006331032987810004, 0.005508576499781754, 0.004085577444226177, 0.0029538584303985976, 0.005825741474271515, 0.0034934069194713473, 0.0048978931625532005, 0.005698820390488264, 0.004513699922308843, 0.008620791230223038, 0.0048715744645997094, 0.0032013054848589015, 0.002249255984122618, 0.0023226221948666275, 0.0018128931433621324, 0.0025918932980219314, 0.0015073486543566983, 0.0033671573576793223, 0.0024374676435220464, 0.00579603761892129, 0.0015873068652475012, 0.0022564033372838464, 0.0010710866521436114, 0.0011248104067832585, 0.0015639465572942436, 0.0056325093167536025, 0.005984278468558159, 0.00286570819579167, 0.002441369822007047, 0.0022253322934772703, 0.0019961487590394902, 0.0017257218184868995, 0.0014917887877111053, 0.0012942585626777119, 0.0011334245599052056, 0.0010065440643132687, 0.0008947581692958008, 0.0008333094364416937, 0.0008338389671756673, 0.0013432870207182464, 0.002068016785784357, 0.004136626797445609, 0.004033601736088864, 0.0015357554295582108, 0.001135347023375598, 0.0009783440455964595, 0.0010877584517546939, 0.0009572522726333045, 0.0015679964062207, 0.002032992883189113], "train_mve_loss": [-0.008701594909091209, -0.2724005569460405, -0.24325824560005033, -0.27608553151952503, -0.2698102240438762, -0.21020836853703154, -0.25899191817755673, -0.26823075415338415, -0.21506745986626832, -0.23010339623681478, -0.2193794906398169, -0.3055004410418449, -0.252505235748546, -0.2026021557926478, -0.28402666492860973, -0.30120551767307835, -0.18369079284860296, -0.25547695848443824, -0.32185111450920156, -0.3078098093351891, -0.35702505037597154, -0.3583426676567991, -0.24789830753528658, -0.14646747687889408, -0.23519855538822398, -0.16053196088405805, -0.1957328676278456, -0.21592823435659683, -0.22668324378906482, -0.2647718253938764, -0.29145599193394295, -0.254229609331821, -0.10397776810816699, -0.17925500861748753, -0.3319878292012912, -0.2942038421983911, -0.3571109052005154, -0.36301529794332094, -0.36397506724327966, -0.36450416677830644, -0.36498141632001624, -0.365459024306843, -0.36580965783739877, -0.36596621918939803, -0.36579806653193625, -0.3650268057473617, -0.363028053609719, -0.357945640082769, -0.3428576786949604, -0.2795183495286396, -0.183837693688584, -0.1818163953006431, -0.3183337037589476, -0.36208599075756737, -0.3538227615234403, -0.3090218346450185, -0.18700594007560278, -0.11613765505348525, -0.24428187104170185, -0.2684951024836566], "train_r2_score": [0.048027519683844964, 0.9184458982214584, 0.9245788645412014, 0.9521973478037599, 0.9564445142007449, 0.9351923329308663, 0.9669489547099911, 0.9497994402942295, 0.9758609870936483, 0.9758447685764994, 0.9807763402623153, 0.9833077854964046, 0.9876095212804559, 0.9910459506863633, 0.9824203053926611, 0.9894278130396614, 0.9852915303519346, 0.9824923131841574, 0.9862553371571714, 0.9739271160909099, 0.9852088945200004, 0.9902901943485172, 0.9931850074959802, 0.9929458879739554, 0.9945053331329569, 0.992115456416738, 0.99542854336282, 0.9897838432438357, 0.9926583808348242, 0.9825286244124847, 0.9951898892777385, 0.9931637846955171, 0.9967554616346335, 0.9965823617932228, 0.995272315581213, 0.9828450750785582, 0.9818006393173798, 0.9913071037795701, 0.9926064841418534, 0.993266630298818, 0.9939630403979336, 0.9947775950788992, 0.9954833970083197, 0.9960771913160673, 0.9965667027227352, 0.9969512183758518, 0.9972845231707314, 0.9974703290375144, 0.9974702290772465, 0.9959193784047181, 0.9937283790018115, 0.9877044891642595, 0.9877288533444645, 0.9953368147181233, 0.9965475394906951, 0.9970312514178263, 0.9967035464688728, 0.9970991272804475, 0.995261115779403, 0.9938107361702594], "val_source_regression_loss": [0.029893686263998853, 0.018481222087446646, 0.015952318187661563, 0.014962549616075769, 0.029318518913056278, 0.016797860671730735, 0.007035432854973817, 0.011319384273566022, 0.005288864114569335, 0.004256369266069576, 0.0045058967315745125, 0.010265359660917068, 0.003689932931638971, 0.0022371479021267423, 0.003644995376632749, 0.0028722396347365237, 0.0028838945812062373, 0.030763149874497065, 0.0024322057408103837, 0.0065000675194248365, 0.0039133946381839394, 0.002677068134911264, 0.001959989595969644, 0.0015858411243704113, 0.001647568536226791, 0.001960680193762896, 0.00108263427480065, 0.002259939375533899, 0.0012576036277533616, 0.0020187747181404994, 0.0016849290408618466, 0.0017226945794529365, 0.0009049513057475508, 0.0008562382375467805, 0.0015297949393692461, 0.016181639419231987, 0.0032728576496290633, 0.0025494956496890774, 0.002539782637518041, 0.0022531607618579003, 0.001980678119425532, 0.0017111417395357467, 0.001504141488849315, 0.0012686660143405293, 0.0011079770761919267, 0.0010818034650675386, 0.0008806038420953894, 0.0009096880632016478, 0.0010000421456356026, 0.0012949378917854327, 0.0015369867080751855, 0.0012377393314072602, 0.001958994479272279, 0.0013342487111487249, 0.001077738664955891, 0.0022771754626279015, 0.0024439703490396467, 0.0008953594900314001, 0.0009453076209071316, 0.001545574952247022], "val_target_regression_loss": [0.037479731053868426, 0.02936558583397654, 0.020940680646255046, 0.01769095489495917, 0.06392348159246053, 0.038629860982676095, 0.01796134224137928, 0.01625880360886266, 0.011175134844040568, 0.00935153139731552, 0.006850016362304929, 0.009666035028433875, 0.005185732488296455, 0.00379972413029003, 0.0056538583970145335, 0.004273201182743982, 0.009108630745801368, 0.04573367019714434, 0.003953416469282931, 0.008610875275033184, 0.00548559033807037, 0.004615796668030605, 0.0037198395680494703, 0.0026353429531372047, 0.0024831208866089582, 0.002984911403795586, 0.001924743444092949, 0.0028460884401928397, 0.0017663959540497464, 0.002539095070943991, 0.0021686820560901225, 0.0021833124175620606, 0.0015656258689852643, 0.0013348911100515175, 0.0021588325565327195, 0.022436416825821884, 0.005748255004446152, 0.004542697639546439, 0.004315087250492807, 0.0038222097585425725, 0.00351249228549909, 0.003114982900103625, 0.0029075668897786283, 0.0026346340869800953, 0.002333223281864407, 0.002465285422704831, 0.0022735697411802374, 0.00242902756863144, 0.0027377156237187454, 0.0027392174270522746, 0.00258574613128329, 0.002012965552320209, 0.0029576167897498117, 0.002418099874571626, 0.0023272792083694586, 0.0035801563954240157, 0.0061802475335948825, 0.00265179434496485, 0.0019845626820939816, 0.002132041001091181], "val_source_r2_score": [0.9083961773295371, 0.9432354527277291, 0.9511276119380334, 0.9539473386092553, 0.9104781157188804, 0.9487264142036516, 0.9785238546278544, 0.965328664568548, 0.9837706617826902, 0.9866423155724983, 0.9862674002053294, 0.9677881438256606, 0.9887562043126191, 0.9931786471724144, 0.988814096115653, 0.9911489482335002, 0.9911348968429153, 0.9058441498130158, 0.9925559036187809, 0.9801207827324354, 0.9880161370234288, 0.9917661903099069, 0.9939690814031024, 0.9951339830620041, 0.9949380519403418, 0.9939982735834025, 0.9966758575196241, 0.9930943438028315, 0.9961374185457319, 0.993782421672262, 0.9948265829940359, 0.9947163018250275, 0.9972172087345385, 0.9973692931420306, 0.9952970524476642, 0.950439661210186, 0.9899815382615197, 0.9921835075169307, 0.9922415850096223, 0.9931196447208566, 0.9939385240102719, 0.9947497247708488, 0.9953877577881441, 0.9961053532781847, 0.9966137091012872, 0.9966838990353124, 0.9973012069545241, 0.997202297985501, 0.9969328103753713, 0.996016302564499, 0.9953223113081191, 0.9961713108984296, 0.9939780071125084, 0.9958283774990923, 0.996686212623035, 0.9930137139486059, 0.992432005090736, 0.9972555774985653, 0.9970825866673269, 0.9952307528680109], "val_target_r2_score": [0.8882311009993213, 0.9128595755466593, 0.9376504364491742, 0.9475017676574999, 0.8091469192627957, 0.8843871835807141, 0.9464052977943405, 0.9516730071360954, 0.9653316598967727, 0.9720287530286237, 0.979508578881484, 0.9710682294524056, 0.9844495861201051, 0.9884748640111685, 0.9831909120968154, 0.9872351629008186, 0.9730222278065727, 0.8637268237773476, 0.9882984740322956, 0.9742970111727716, 0.9835637006424984, 0.9862299473315538, 0.9889063154313441, 0.9921468736989759, 0.9925832079659791, 0.9910640905531778, 0.9942862183882751, 0.9915479293970855, 0.9947398463840601, 0.9924151967295515, 0.9935625295056406, 0.9934374070748582, 0.9953487619746926, 0.9960253887384741, 0.9935847289903396, 0.9333094854384886, 0.9828448658910546, 0.9865228597758008, 0.987153940872347, 0.9885768773755994, 0.9895052898233596, 0.9906982693272817, 0.9913524118354693, 0.9921772125807419, 0.9930359032034584, 0.9926611542957962, 0.9931934824941299, 0.9927157217749139, 0.9918495137198812, 0.9917509579370822, 0.9922502505132778, 0.9939657069719728, 0.991210124462852, 0.9928104746593415, 0.9930198595109746, 0.9893844225069501, 0.9815867749532271, 0.9921009820481428, 0.9940924054643467, 0.9936877393496844], "val_source_mve_loss": [-0.2780224358356452, -0.3051255334027206, -0.006921567965911914, -0.3463224976123134, -0.13388698142540606, -0.28394201133824604, -0.30866829956634134, -0.2755000247985502, -0.21183684864376165, -0.15779247483875178, -0.20250318227689476, -0.2803459484365922, -0.3419154018540926, -0.11053828253776213, -0.36233533032332793, -0.27082619976393785, -0.17828324946421611, -0.303287471019769, -0.34623544163341763, -0.34923296223712874, -0.36171849279464047, -0.3472863647002208, -0.13927377854721457, -0.10994378269850454, -0.13320910459077812, -0.24282270801972738, -0.09123516337403768, -0.35646459045289436, -0.11549919136340105, -0.3616854921926426, -0.11782772971104973, -0.12523724789483637, -0.09448542606227006, -0.2088404807108867, -0.29037200499184523, -0.34234884607641003, -0.3620992842354352, -0.36367030460623245, -0.36400034835066974, -0.36456351265122616, -0.36507101111774204, -0.36551325343832186, -0.36576651395121706, -0.36586610576774503, -0.36548285657846474, -0.36411650459977646, -0.36121550051471857, -0.3530804231951508, -0.32543507369258734, -0.2765476782865162, -0.14806414272966265, -0.1407698358916029, -0.3634567743615259, -0.35957788515694533, -0.3445674158349822, -0.19598072993604443, -0.16632049898558024, -0.0960594925887977, -0.1562578216006484, -0.24055309669126437], "val_target_mve_loss": [-0.2595423680694797, -0.28304480299164975, -0.036543097960043555, -0.34287065305287323, -0.11271132434470744, -0.24211875603923314, -0.28622731679602514, -0.26230502788779103, -0.19679859601244143, -0.13764040370153474, -0.19333435293239884, -0.2817430654658547, -0.3391332513169397, -0.0992866140094739, -0.3594472898712641, -0.26520307418666306, -0.13885608956783632, -0.2800258458415164, -0.34327757698071154, -0.3464459063886087, -0.3594985875902297, -0.34374829409997676, -0.1210162782970863, -0.09505374644753299, -0.12284021079540253, -0.23854777198049087, -0.07854152678311625, -0.35547619869437397, -0.1112514410780955, -0.3607928967928585, -0.11205232671544521, -0.1199525190116484, -0.08542782379479348, -0.2061524726921999, -0.28870298779463466, -0.3350397310679472, -0.3589734933044337, -0.36110155303266983, -0.3616921313201325, -0.3625006419193896, -0.36303068678590317, -0.3636163469356827, -0.3638359685487385, -0.3639467928228499, -0.36370930679236785, -0.3620313888863672, -0.35899263658101044, -0.3503889460352403, -0.32158476340619824, -0.2727005587348455, -0.11886888346340083, -0.13315344073727162, -0.3619302914866918, -0.35775847299189506, -0.34210139022597785, -0.19031843561914902, -0.14410222057677521, -0.07656157356274279, -0.14739479360323918, -0.23806052438065975], "val_source_nll_loss": [-1.136740108079548, -1.1287274058861068, 600.9226401259627, -0.8437849177589899, -0.16237083662159835, -1.4082114605963985, -1.5022699636749075, -1.5446805787991873, -2.036031928243516, -2.2512183657175378, -2.1242963875396343, -1.5575824070580397, -1.3266425449636918, -0.6518415167361875, -1.0266682316985312, -1.8566835650914832, -2.344627178167995, -1.0492995147463642, -1.3123471586010125, -0.7718863381615167, -0.9743452736094028, -1.3005049439925183, -2.5373662121688265, -2.7030601923978783, -2.6131676058225994, -2.0753068229820153, -2.949603298042394, -1.205285902264752, -2.8455622980866253, -1.108840693401385, -2.6975040420701233, -2.539614633668827, -3.036757100986529, -2.37737713584417, -1.763600429402122, -0.7793288095087945, -0.9048383492457716, -0.9290459148491486, -0.9425790830503536, -0.9549659928189048, -0.9689411196527602, -0.98515197144279, -1.0047499016870427, -1.0292984624452228, -1.06169169311282, -1.105978964250299, -1.1738186078735544, -1.2877774208406858, -1.5481786954252026, -1.892842481407938, -2.617237489434737, -2.730403906182398, -1.0806474942195265, -1.1859644213809242, -1.3761237256134613, -2.20823626276813, -2.406069067460072, -3.00900613507138, -2.710795037354095, -2.1148811684379094], "val_target_nll_loss": [-0.9913420873352244, -1.0141017595423927, 466.28801193267486, -0.8350178252292585, -0.13766276308252842, -1.2015686623657806, -1.394752959661846, -1.4542492371571214, -1.8970303565640994, -1.0014796407916877, -2.018576027471808, -1.5672807120069672, -1.3132792183115511, -2.331576286237451, -1.0181798980205874, -1.8196757051009167, -1.8460770739784724, -0.9639897542663768, -1.298843908913528, -0.7635835937306851, -0.9665587333184255, -1.2845347546323944, -2.020964910712423, -2.2047611339182795, -2.3406050688103783, -2.0393196284016475, -2.536807561222511, -1.2018719458881812, -2.7100832733926894, -1.1063826401022416, -2.5546094133884094, -2.2580513757995413, -2.7264787517016447, -2.347264169137689, -1.7536183308951463, -0.7610296938992753, -0.8975699619401859, -0.9226205786572227, -0.9366244002233578, -0.9495071995107434, -0.9634532619126236, -0.9799705464628679, -0.9992779787582687, -1.0236652606650243, -1.0563379571407656, -1.099395543714113, -1.1661080016365535, -1.2773972055580043, -1.5281593588334095, -1.8591516862941693, 66.9382411196262, 6.600882653948627, -1.0760433809666694, -1.179908690573294, -1.3657857224911074, -2.143869538850422, -2.075356821470623, -2.338020963004873, -2.5317191474045377, -2.0911423043359685], "da_weight": [0.0, 0.0, 0.0, 0.0, 0.0, 0.0, 0.0, 0.0, 0.0, 0.0, 0.0, 0.0, 0.0, 0.0, 0.0, 0.0, 0.0, 0.0, 0.0, 0.0, 0.0, 0.0, 0.0, 0.0, 0.0, 0.0, 0.0, 0.0, 0.0, 0.0, 0.0, 0.0, 0.0, 0.0, 0.0, 0.0, 0.0, 0.0, 0.0, 0.0, 0.0, 0.0, 0.0, 0.0, 0.0, 0.0, 0.0, 0.0, 0.0, 0.0, 0.0, 0.0, 0.0, 0.0, 0.0, 0.0, 0.0, 0.0, 0.0, 0.0], "beta": [0.5, 0.5, 0.5, 0.5, 0.5, 0.5, 0.5, 0.5, 0.5, 0.5, 0.5, 0.5, 0.5, 0.5, 0.5, 0.5, 0.5, 0.5, 0.5, 0.5, 0.5, 0.5, 0.5, 0.5, 0.5, 0.5, 0.5, 0.5, 0.5, 0.5, 0.5, 0.5, 0.5, 0.5, 0.5, 0.5, 0.5, 0.5, 0.5, 0.5, 0.5, 0.5, 0.5, 0.5, 0.5, 0.5, 0.5, 0.5, 0.5, 0.5, 0.5, 0.5, 0.5, 0.5, 0.5, 0.5, 0.5, 0.5, 0.5, 0.5], "epoch_no": 60}