{"train_DA_loss": [0.06247635674024413, 0.05593080670186327, 0.17043852476467816, 0.12319306169774458, 0.11080900858917446, 0.11340199458588195, 0.10707172229749846, 0.09270731043717544, 0.09374206849600324, 0.10119167388411719, 0.09941646689634219, 0.09759152869283608, 0.09231166161555912, 0.09317559092365192, 0.09498449812696011, 0.08759668620619956, 0.08939488388775035, 0.09448170378613516, 0.12280374758585716, 0.11896147980768458, 0.11752550407454126, 0.1135479888216451, 0.11579131732747586, 0.1120824691119316, 0.10141888237686, 0.09429318193598246, 0.15487553365869103, 0.12186812771521713, 0.1000681642027507, 0.09526556694856292, 0.09750783438002605, 0.09797038396708055, 0.09905554282000557, 0.09805100351245137, 0.09539779917195684, 0.11460119344198726, 0.10962629582480932, 0.10517275872788438, 0.10732547534285777, 0.10879718880058424, 0.11077393923751615, 0.10365309583966431, 0.08541207397577967, 0.12272474921599602, 0.14204171419797476, 0.1110261326257337, 0.09097314710427463], "train_regression_loss": [0.1879497500548524, 0.021131758268248337, 0.028561399418731277, 0.016877256633485695, 0.014426409507807093, 0.011848083425694617, 0.011906052209178099, 0.011866041488938673, 0.012718071689458063, 0.011536369377736963, 0.00966758920319065, 0.008927994213616935, 0.005827759415544638, 0.005503313801075984, 0.0040942627323239745, 0.004281564651208655, 0.002348801301165707, 0.004598965100480935, 0.009268522664174179, 0.0035948466189917334, 0.002104716688642275, 0.00319114037584241, 0.002448928459859036, 0.002298261776610773, 0.002285384073754742, 0.0020253115847163666, 0.003780934956457663, 0.002853204488755975, 0.002609085900090989, 0.001644415901680145, 0.001154211344677526, 0.001289246295675826, 0.0009590348604874144, 0.0009306484986700193, 0.0014571251663812682, 0.0025005172894479303, 0.001367740787568262, 0.0010591506314424754, 0.0009169101963454765, 0.000840008691067329, 0.0014959693560930108, 0.0023553530533220856, 0.004548203257458213, 0.0034689679469443327, 0.0016018931460873287, 0.0012759570889191963, 0.002324462718444398], "train_mve_loss": [-0.12188293871987387, -0.22168267563230595, -0.25422651511387157, -0.23246614644184735, -0.2708702017936236, -0.25703274137195764, -0.26833882210759186, -0.2404025913755898, -0.28858093130087287, -0.2655332291829085, -0.2684069301735548, -0.24836295764123717, -0.19481653818891298, -0.24293427655585723, -0.24037998341282718, -0.2486260911582593, -0.17057210453522054, -0.3152541858731502, -0.3402603084742478, -0.23597362588484938, -0.12284695205893334, -0.1871000791353325, -0.19503328788487523, -0.30132345800412313, -0.19091559053012178, -0.1392583175335876, -0.2933385299222452, -0.34810236995355304, -0.3193874977515428, -0.17403359389038148, -0.09719223864172233, -0.1457494675186914, -0.10762436297710243, -0.1214514331725278, -0.2691862565180937, -0.29648881159055385, -0.35919216198938636, -0.3547976522057758, -0.3466690394625585, -0.32743212275574807, -0.2311378323644999, -0.19114609906480562, -0.185125661610372, -0.27917651396918997, -0.2992824013234274, -0.15515532685099834, -0.2263885060022202], "train_r2_score": [0.42634079440602757, 0.9362785436740321, 0.9135175615751762, 0.9488653088635379, 0.9562069083691376, 0.9640772481697955, 0.963910658889088, 0.9640271721671949, 0.9614191352262031, 0.965003499448612, 0.9707442966526192, 0.9729335214606326, 0.9823022230497062, 0.9833263373505762, 0.987590839357506, 0.9869708890876157, 0.9928756119691922, 0.98603946971966, 0.9722008702443294, 0.9890849072042494, 0.9935979369662534, 0.9902948047879292, 0.9925935570680507, 0.9930093038205953, 0.993065533206353, 0.9938492773090053, 0.9884783582998568, 0.9913550566000888, 0.9921233935665141, 0.9950165527390239, 0.9964961237431506, 0.9960910082651055, 0.9970995495392514, 0.9971740548912543, 0.9955731088027319, 0.9924568266887116, 0.9958476479999385, 0.9967795518750924, 0.9972141537369061, 0.9974505316932636, 0.9954670260932362, 0.9928483638808012, 0.98611591407378, 0.9894807202083996, 0.9951412682946336, 0.9961320821798081, 0.9929298791398512], "val_source_regression_loss": [0.014330926304093645, 0.024591826751262327, 0.020015927444247506, 0.014498214319914202, 0.012842363453929938, 0.00962197255413932, 0.018181333153308193, 0.013183726422205756, 0.012423537836610517, 0.010963998970728887, 0.007528009836243678, 0.006837009741111269, 0.004364579270558455, 0.0036715930534078726, 0.004054240605357705, 0.002770772529471241, 0.0022353441852345306, 0.002738049818214642, 0.005069928956984342, 0.0024304895756082443, 0.001803754226163124, 0.0017102287192180565, 0.0025436307548227003, 0.0029819219673783343, 0.0018490651973134167, 0.0013321438079251897, 0.0035081681488907035, 0.0030454664131555754, 0.0022722268064470984, 0.003079375667686138, 0.0010929295544135325, 0.000970285682043037, 0.001091483974522805, 0.0006922825382907486, 0.0013399806324557602, 0.001762798173895365, 0.0012126484019328145, 0.0011330606921316608, 0.0009360056122929989, 0.0007803523058331088, 0.0013999955985058523, 0.0012923949096009983, 0.0019042770351766598, 0.0021700327788609303, 0.001295528029787201, 0.0009776455596313353, 0.0016303378145528745], "val_target_regression_loss": [0.029087925235493275, 0.03402479554090319, 0.11613959064589272, 0.07239020542724978, 0.06707254455342324, 0.05877174446477166, 0.041958345005972474, 0.03125176203873339, 0.049398824360363094, 0.08517250890218758, 0.0657406642655783, 0.033260180815299856, 0.031167063661674155, 0.021799985673042793, 0.020417822678160818, 0.010424087176252676, 0.011081959120929241, 0.021044593151140063, 0.01352607779487779, 0.009897349979964238, 0.00960702508027795, 0.011373418294883605, 0.006929468392995717, 0.00915354777929149, 0.008626243966053935, 0.008869736585058744, 0.006687954009239432, 0.006109478547461802, 0.005699481490905149, 0.004735490510570286, 0.004839087597719288, 0.0051025591932142835, 0.004091973301565534, 0.004667055728267642, 0.006273575295116516, 0.010013984127229527, 0.007028079267496927, 0.008179872423481149, 0.007667033844686384, 0.007083434369886601, 0.004807738071496162, 0.003550332614303201, 0.0030269496470006017, 0.008842062782731992, 0.0051543183618849965, 0.0031306120107256912, 0.005272148406911123], "val_source_r2_score": [0.956104724545534, 0.9250388930547371, 0.9384163277398258, 0.9557715323314546, 0.9608616843760702, 0.9705647609637285, 0.9443030667478206, 0.9595871307093305, 0.9619440098181136, 0.9664198774260182, 0.9768954367801205, 0.9791738455072647, 0.9865913727505102, 0.9887689183785525, 0.9875721803689526, 0.9914899239742623, 0.9931854497759468, 0.9915751986577707, 0.9844202730777831, 0.9925445776688708, 0.994438947149407, 0.9947495518433341, 0.9922252897274809, 0.9908759270398233, 0.9942649897585337, 0.9959340511774324, 0.9892479920248839, 0.9905987368071985, 0.9930707433162177, 0.9905464356498516, 0.9966368205147718, 0.9969794748364007, 0.9966590882436627, 0.9978765970318039, 0.9958841865919934, 0.9946062839193409, 0.9962768518979526, 0.9964876888775458, 0.9971265117098305, 0.9976030246400549, 0.9956878390228088, 0.9960308618391311, 0.9941340793172029, 0.9933133529992845, 0.9960321774682775, 0.9969987607591365, 0.9949755673994812], "val_target_r2_score": [0.9128520610857783, 0.8992557299373313, 0.6529386807972204, 0.7838349981540803, 0.7992674357938649, 0.8247655364641461, 0.8752020087544525, 0.9069641666178839, 0.8516464436847925, 0.7464907954970613, 0.8048029712001424, 0.9003198563331865, 0.9071867202705349, 0.9352130782168968, 0.9392385049225286, 0.9687875775387637, 0.9670495032292186, 0.9372330127905574, 0.9594415997579956, 0.9703942523349638, 0.9713459342928559, 0.9661746424113982, 0.9792273242080537, 0.972659683057088, 0.9740996437526855, 0.9735998307893959, 0.9801370529174374, 0.9817762207407293, 0.9830174248996492, 0.9858954575506356, 0.985527993923125, 0.9848900290887946, 0.987795958657267, 0.9861003120419795, 0.9813354793087515, 0.9702246754531794, 0.9791593334408326, 0.9756292183183392, 0.9772191662049657, 0.9786768623737006, 0.9853518547005967, 0.9893238360681029, 0.9910459604838132, 0.9736629701224581, 0.984675159800787, 0.9906716812267325, 0.9843127097695099], "val_source_mve_loss": [-0.32686128948308246, -0.24492917294743694, -0.1738536342789855, -0.26230708481390264, -0.2722243385601647, -0.317009730429589, -0.30516394444658784, -0.3087837499908254, -0.34932029926324193, -0.1611322470103638, -0.24177141845980776, -0.3316685364970678, -0.1519467945717558, -0.17655420944660524, -0.3615102386927303, -0.12476929267750511, -0.2689974364600604, -0.2582557733300366, -0.3394370207303687, -0.13084945657962485, -0.09159069376278527, -0.10574738285209559, -0.3562155513069298, -0.28414546349380587, -0.1363303648142875, -0.12298979025475587, -0.35404906016361865, -0.338387514594235, -0.2847938556459886, -0.17020083548901957, -0.09010457096597817, -0.08904177648357198, -0.07633036596676972, -0.07336764113058018, -0.3188102173654339, -0.3605147222929363, -0.3572938721391219, -0.3512405515471591, -0.34004420268384716, -0.3068288108216056, -0.17114080752753005, -0.14284865180902842, -0.14719761922201025, -0.3430186638349219, -0.25632739331148846, -0.2497573666557481, -0.35636763897123214], "val_target_mve_loss": [-0.30109259259851673, -0.22262783857840526, 0.08127346953164928, -0.20322250357911556, -0.21113264805908444, -0.2757334186683727, -0.2855687518663044, -0.2936200352409218, -0.3071975696690475, 0.16772819790234672, -0.10769457098898254, -0.2820885156906104, -0.006244809296029278, -0.07681207396561586, -0.3398390631132488, -0.06561052437305828, -0.23970956930631324, -0.19276726396777963, -0.32231886628307876, 3.043905124634127, 5.307069077144695, 1.2603921065684645, -0.34894938333125053, -0.26376870236819305, -0.07231018060370337, -0.04586604902450042, -0.3486150348488289, -0.3323789665216132, -0.27397822654699977, -0.16486720401275007, -0.04500014906678396, -0.034413704633877815, -0.03919720484674731, 0.0030318921302221243, -0.30666061820863166, -0.34716281860689574, -0.347272021861016, -0.33812139305887345, -0.3259489630596547, -0.28944836688947073, 0.09564102516521382, -0.12463530435969558, -0.14119688742145708, -0.3286801508710354, -0.2416405562735811, -0.24015451382987107, -0.3492810020718393], "val_source_nll_loss": [-1.1853798326057723, -1.0442416494405722, 194.09446088875396, -1.527682520166228, -1.3668016331105293, -0.5755690343772308, -0.538128436366214, -0.5880922478965566, -0.957695955717111, 146.6029800580272, 0.9153762512569186, -1.3324174835712095, -2.2262677286244648, -2.263112155697014, -0.941378431984141, -2.488100610201872, -1.8516912113262127, -1.896273057672042, -1.299927172781546, -2.521782666822023, 0.0811363866057577, -2.7408148186116277, -1.162226092966297, -1.7630908021444007, -2.619480220577385, -2.8052481035642987, -1.1685610587083841, -1.3557856716687167, -1.7648840086369575, -2.33113954640642, -2.9526109635075435, -3.001840343958215, 34.9650963624067, -3.1879521563083313, -1.5908164072640334, -1.1510434588299523, -1.2223417849480351, -1.302657546876352, -1.4229332525518876, -1.69753016248534, -2.5103987379919124, -2.6758437398113784, 1.2149167392827287, -1.3575754965407938, -2.0273517219326163, -2.089458646653574, -1.212157290193099], "val_target_nll_loss": [-1.099975927721096, -0.8747231643411177, 615.30880287101, -1.2967578006696097, -1.105687478675118, -0.505603582044191, -0.5052251623401159, -0.5605610805221751, -0.8525074418587021, 602.2564091276896, -0.9228984291040445, -1.1405232956137838, -0.3042166852686979, -1.0715463825418978, -0.8846995747542079, -1.3372738146329228, -1.6415599312963365, -1.3049526953999, -1.2338242229027083, 9764.81843130498, 16871.811234486253, 3865.778312039526, -1.1318510529361194, -1.6153443025637277, -1.342575027972837, -1.0861479934257796, -1.1488603911822355, -1.3278418749193601, -1.68947842905793, -2.2473062895521334, -0.8204086720943451, -1.1224875295463996, 61.16950015252149, 0.26503467871041236, -1.5304582375514357, -1.1033568261544915, -1.184769942790647, -1.2516715345503409, -1.3645705708974525, -1.6070709832106964, 770.9188622568228, -2.243006740944295, -2.3781127990046635, -1.3043503459495833, -1.9022865385948857, -2.004335481909257, -1.192340378519855], "da_weight": [0.0, 0.0, 0.0, 0.0, 0.0, 0.0, 0.0, 0.0, 0.0, 0.0, 0.0, 0.0, 0.0, 0.0, 0.0, 0.0, 0.0, 0.0, 0.0, 0.0, 0.0, 0.0, 0.0, 0.0, 0.0, 0.0, 0.0, 0.0, 0.0, 0.0, 0.0, 0.0, 0.0, 0.0, 0.0, 0.0, 0.0, 0.0, 0.0, 0.0, 0.0, 0.0, 0.0, 0.0, 0.0, 0.0, 0.0], "beta": [0.5, 0.5, 0.5, 0.5, 0.5, 0.5, 0.5, 0.5, 0.5, 0.5, 0.5, 0.5, 0.5, 0.5, 0.5, 0.5, 0.5, 0.5, 0.5, 0.5, 0.5, 0.5, 0.5, 0.5, 0.5, 0.5, 0.5, 0.5, 0.5, 0.5, 0.5, 0.5, 0.5, 0.5, 0.5, 0.5, 0.5, 0.5, 0.5, 0.5, 0.5, 0.5, 0.5, 0.5, 0.5, 0.5, 0.5], "epoch_no": 47}