{"train_DA_loss": [0.14171619084025214, 0.09225848329064507, 0.07979442462856308, 0.07323397145056637, 0.06684570040696827, 0.06243915718314417, 0.05767048345078498, 0.05509403502054417, 0.052122701768179375, 0.04898816087645848, 0.046121740475351454, 0.04322753274401265, 0.040741130873097796], "train_regression_loss": [0.48797291247565744, 0.03681657696483313, 0.0248203984567286, 0.021167933382434428, 0.019252844411927452, 0.018367398354025656, 0.01762187559075885, 0.016796160388867314, 0.0162510190659647, 0.015770970979940412, 0.015412867565978134, 0.014812508088041104, 0.01441324403989631], "train_mve_loss": [0.12884222775258436, -0.06342198094267949, -0.07188334695695196, -0.053166032222251136, -0.05129256914156937, -0.06390282991674254, -0.06874899839270704, -0.04888637131846202, -0.04850901755754593, -0.056530264846408496, -0.06544209545277317, -0.04280055099263978, -0.059414897539688635], "train_r2_score": [-0.49979648475019134, 0.8873025205855821, 0.9239114428872056, 0.9350051754363062, 0.9409889233848747, 0.943718481879523, 0.9458721963104108, 0.9483725934437932, 0.9500836708817414, 0.9515645915715317, 0.9527079332028403, 0.9545449890398916, 0.9557342463974813], "val_source_regression_loss": [0.051814438858229644, 0.027630478950442783, 0.0224764665268409, 0.020298777254903394, 0.01928927276022495, 0.017792470071013946, 0.017744074210785568, 0.0167125386903715, 0.016574918933117844, 0.015902592403114223, 0.015143137128584705, 0.014357324218033415, 0.014091840980776177], "val_target_regression_loss": [0.06415419845254558, 0.033434229386839896, 0.0277156011397197, 0.02397008357676351, 0.023027009241710042, 0.021273163319298415, 0.021317287680402305, 0.020805746619441328, 0.020579806647625317, 0.021474506836503173, 0.020394615692555147, 0.020541145175600507, 0.020641704196715432], "val_source_r2_score": [0.8399696292275641, 0.9148710329463267, 0.9301380664908823, 0.9370247728006877, 0.9402642934707086, 0.9448092411813235, 0.9449630806478571, 0.9483446584572867, 0.9487821564313333, 0.9505649364243427, 0.9530006893920329, 0.9554846199574395, 0.9564465888207299], "val_target_r2_score": [0.8066832267226567, 0.8995040169584023, 0.9162438546690537, 0.9278095521979335, 0.9310664844153784, 0.9358293890313744, 0.9362258626352917, 0.9373671224858965, 0.9375227204036035, 0.9352590132781653, 0.9385712524824693, 0.9372726821708306, 0.9375286729869561], "val_source_mve_loss": [-0.06713845205914443, -0.05127740563575629, -0.04376831228376194, -0.06132041745979315, -0.09432690562146484, -0.04546093577697019, -0.052066776047276844, -0.04633616786568787, -0.04594902138990961, -0.04115345915126952, -0.05026393374250193, -0.039581300607722275, -0.13451714168308646], "val_target_mve_loss": [-0.0611632282187225, -0.04840892071651805, -0.04212847040005171, -0.059766008904215635, -0.0918535756742119, -0.04718508673416581, -0.052015588945074444, -0.047380129005878596, -0.04701664481478132, -0.04170601257378129, -0.050490549629091455, -0.03942202300924784, -0.13239493126132687], "da_weight": [1.4, 1.3983999999999999, 1.3967999999999998, 1.3952, 1.3936, 1.392, 1.3903999999999999, 1.3887999999999998, 1.3872, 1.3856, 1.384, 1.3823999999999999, 1.3807999999999998], "beta": [1.0, 0.996, 0.992, 0.988, 0.984, 0.98, 0.976, 0.972, 0.968, 0.964, 0.96, 0.956, 0.952], "epoch_no": 13}