{"train_DA_loss": [0.46571406569515766, 0.3151848816893436, 0.20076656389225553, 0.13516764084670618, 0.09632676307936038, 0.07679947984610877], "train_regression_loss": [2.074006853199528, 0.4476490915094041, 0.24448237013773247, 0.16882287080261782, 0.11202421932867719, 0.08566228849251484], "train_mve_loss": [0.883496187804386, 0.06467565289426977, -0.04754676097932474, -0.08258738649678732, -0.09234802385747869, -0.09875229366082813], "train_r2_score": [-5.3215408737193775, -0.35311903274446316, 0.2616024380152131, 0.49014089093758556, 0.662058148601214, 0.7410349481195512], "val_source_regression_loss": [0.7791940901852861, 0.28466814077353175, 0.2011979971128174, 0.13358284674490553, 0.09396284356524673, 0.0770800773856006], "val_target_regression_loss": [0.7236893282660956, 0.29719466272788714, 0.2341066502694842, 0.16704121929935262, 0.122245517618294, 0.0995061389064487], "val_source_r2_score": [-1.3842716219677729, 0.1322551986110978, 0.38661080124769454, 0.5916084663452083, 0.7129440598831682, 0.7650456178337339], "val_target_r2_score": [-1.1479454603945873, 0.11411292327925415, 0.3071164501084741, 0.5045840800855015, 0.6372425769862232, 0.7032368232204873], "val_source_mve_loss": [0.23364228519457805, -0.021601545205929235, -0.07153596684242351, -0.08882059180472471, -0.12682263788920414, -0.07771292036469979], "val_target_mve_loss": [0.20261395034156268, -0.019917044930065735, -0.05635408187120021, -0.06428638317539723, -0.1067164760978916, -0.05597573801686492], "val_source_nll_loss": [0.468348626471773, -0.07256644499735741, 294.7994344389137, 1459.271948707066, 326.8099325544472, 8015.804017463817], "val_target_nll_loss": [0.4783958362627633, -0.04276905995145251, 114.17037622446689, 5831.001442042427, 895.1224421451363, 16065.25053850005], "da_weight": [1.4, 1.4016, 1.4032, 1.4047999999999998, 1.4063999999999999, 1.408], "beta": [1.0, 0.9966666666666667, 0.9933333333333333, 0.99, 0.9866666666666667, 0.9833333333333333], "epoch_no": 6}