{"train_DA_loss": [0.19547155252921733, 0.06539222514307913, 0.045140297477298724, 0.03679165354090482, 0.03304383196822032, 0.030927792048486974, 0.02946755634978332, 0.023953781245272927, 0.020847678473951393, 0.01900062004148524, 0.016781206269130464, 0.014571130782250022, 0.017509860380755318, 0.032308292760764, 0.03428669697460352, 0.03448067108336053, 0.033577396287506195, 0.03391201230586665, 0.032831567586476235, 0.0317566140743834, 0.03381800906940396, 0.03407644640851827, 0.035452339604115576], "train_regression_loss": [0.7559638725665195, 0.11428318590851981, 0.05401239239047171, 0.034723267630015035, 0.0272588413072515, 0.030290880710417762, 0.07598810039556005, 0.040976773835105694, 0.028483605540103842, 0.02496451322820167, 0.023234621591021527, 0.019166564774891905, 0.02069087115914937, 0.05067315874399934, 0.023201037017829457, 0.016933882365537844, 0.014145004880568609, 0.01421239971944303, 0.010710302665421034, 0.02161593379033985, 0.012098753993387524, 0.015374413635275263, 0.009383347549457001], "train_mve_loss": [0.9410671864958033, -0.04762196140423403, -0.10711600725629267, -0.07843752089892965, -0.09333649126325871, -0.04588874511274303, -0.044550344800845576, -0.1545487876089334, -0.171150629517624, -0.18101706173631893, -0.19369633781163523, -0.11938075044139593, -0.024562398521263677, 0.034195116342265006, -0.21001511989280555, -0.16007469091870885, -0.13368058820992326, -0.14928045718363694, -0.0855055572379932, -0.22118542334524544, -0.10056714361475634, -0.14748092821817949, -0.06774514472244862], "train_r2_score": [-1.3074530562997175, 0.6548835403344216, 0.8367477518263953, 0.8949548213721069, 0.9176928758835046, 0.9084381276946244, 0.76985924158678, 0.8758380323820925, 0.9137387604504624, 0.9244152328443287, 0.9295145498056372, 0.9418973783471288, 0.9372282459979734, 0.8462736365888867, 0.9296165166733115, 0.9486299255200338, 0.9570845647866845, 0.9568342324717293, 0.9675483761617902, 0.9344011476518455, 0.9633684219487575, 0.9533128905445445, 0.9715244136160366], "val_source_regression_loss": [0.21401939758017094, 0.06894975768614418, 0.044018962102223044, 0.03018251591939715, 0.02368819609850268, 0.06428622643027125, 0.07238730264804032, 0.033040424620237534, 0.0282898000618325, 0.02236047989535558, 0.022292618580822703, 0.01608734258415201, 0.032456207454581804, 0.02578114013222954, 0.020264428439019603, 0.01299132770988383, 0.019102047704443147, 0.011989018443641784, 0.009472840011732864, 0.014687629793829557, 0.010109854390538192, 0.010368296788133021, 0.00922134532770024], "val_target_regression_loss": [0.2616028944148293, 0.0872671283498595, 0.05761543255818041, 0.038251906586221504, 0.030262071710032753, 0.07240549691870243, 0.07305266726997835, 0.0360841109075501, 0.03337115596366834, 0.02470452568340528, 0.026373118280044086, 0.01914041215860391, 0.0353853429514396, 0.030242876963147633, 0.023128716110051434, 0.014837764097448391, 0.02058035160025841, 0.01236041672409901, 0.010790885078331714, 0.015920854821989808, 0.010812855579100455, 0.011614335441513907, 0.009473193330760998], "val_source_r2_score": [0.347283904440232, 0.7896504837837317, 0.8657394975375365, 0.9076073207363995, 0.9274340290231684, 0.803726659136742, 0.778728317498359, 0.8988997789185023, 0.9138625763159185, 0.9317032857498925, 0.9313933439013944, 0.9498959059412732, 0.9001823983620459, 0.9207135840164831, 0.9382818858632392, 0.9599422366248359, 0.9413982242955637, 0.9632475327645542, 0.9709690562073507, 0.9543698634137053, 0.9689808992548943, 0.9681362893438812, 0.9716261866552823], "val_target_r2_score": [0.22577537840647213, 0.7394188945177195, 0.8294384762112021, 0.8861602078854288, 0.9102344286346804, 0.7834565830294326, 0.7845140589668556, 0.8928450206819445, 0.9006990343976307, 0.9262868168863488, 0.9213222413957851, 0.9426023323197924, 0.8949315798736467, 0.9100456690639487, 0.9309407770479751, 0.9559709187019511, 0.9381006073270534, 0.9631366368016208, 0.9677994669501591, 0.9528403465764469, 0.967557565834011, 0.9654653377034678, 0.9718979523737407], "val_source_mve_loss": [0.08738243010460953, -0.13441691005343123, -0.1149288813901853, -0.2152509270589563, -0.00010303832897091214, 0.204603668255142, -0.1765260384241237, -0.16941623672654357, -0.2099849721298942, -0.2404925208302993, -0.2313688742586329, -0.10222409599566762, 0.13153151960312565, -0.08476580113549775, -0.21745658203770843, -0.09689734428177905, -0.2408615512938439, -0.09007349539595315, -0.06286575602768343, -0.1726947734250298, -0.07695485396852976, -0.07730589759877965, -0.07017939127510107], "val_target_mve_loss": [0.5325978598262691, -0.12273128357822005, -0.09070697591840467, -0.20577304951752287, 0.04197353083652126, 0.2049581565057175, -0.18411935521643372, -0.15753319708606864, -0.20495643249795406, -0.23985867673837685, -0.2052023588102075, -0.09421564089252224, 0.132277404488642, -0.08129632751209827, -0.2150788024256501, -0.09566988451760026, -0.2397549701265142, -0.09196726341224924, -0.06122215823093547, -0.1710242287644857, -0.07686479304787479, -0.07538892008081267, -0.07029682704353635], "val_source_nll_loss": [3325.654290792202, 2941.5123485421077, 6020.749655421776, 560.1012020284617, 7866.543324144581, 0.10922655208578592, 649.1069678784926, 1731.506686516955, 135.220113298561, 125.88914564742318, 255.63486461624314, 319.3801777875876, 0.10475482867111134, -0.10318240419596056, -0.9829978618440749, 294.32011546364316, -0.7233364868767654, 231.99565112364442, 631.0915230059926, -1.2962499690961233, 9.850678587261635, -1.7644309544865089, -0.8570956821683087], "val_target_nll_loss": [36124.347002148024, 2710.4462471513807, 6727.914689848694, 682.3272419651098, 11942.643505241298, 0.33175423109455954, 287.464354928913, 2010.3159193268305, 248.98083852438987, 33.759145003708106, 2088.538906962057, 489.29995856104017, 0.10523709409599062, -0.09901280936938298, -0.9664284866067427, 361.05330505250373, -0.7182959801034082, 94.73707078227514, 648.6552074755294, 28.253329827815673, 11.79866208909433, -1.706992666932601, -1.8913440100754364], "da_weight": [1.4, 1.4, 1.4, 1.4, 1.4, 1.4, 1.4, 1.4, 1.4, 1.4, 1.4, 1.4, 1.4, 1.4, 1.4, 1.4, 1.4, 1.4, 1.4, 1.4, 1.4, 1.4, 1.4], "beta": [0.7, 0.7, 0.7, 0.7, 0.7, 0.7, 0.7, 0.7, 0.7, 0.7, 0.7, 0.7, 0.7, 0.7, 0.7, 0.7, 0.7, 0.7, 0.7, 0.7, 0.7, 0.7, 0.7], "epoch_no": 23}