{"train_DA_loss": [0.074045705692451, 0.03930873027108814, 0.03540397714653224, 0.027051034002093226, 0.018039567373910922, 0.017921314067403077, 0.017798688115426075, 0.019872512702423215, 0.02286352974939853, 0.01902650184486695, 0.021921510346765056, 0.029781210083017293, 0.03459399504420199, 0.03830306778169855, 0.041547407094777396, 0.04241959189815648, 0.04235764157701236, 0.04293590959100226, 0.041780782543408806, 0.04304447176251595, 0.04155815750959804, 0.04126241278087199, 0.04163046694365781, 0.04463974491674351, 0.04193432115944583, 0.042612193877616354, 0.04177060786300974, 0.04080152949846096, 0.0417766792553271, 0.041394713333036605, 0.04190679544232227, 0.04264732957281295, 0.04375689884331043, 0.0430843654672668, 0.04347288217293388, 0.0429419421435928, 0.04261594180569352, 0.04319251888521847, 0.04217405423821653, 0.0439699475314652, 0.043291229935162025, 0.04205884066643619, 0.0425263743922523, 0.04170765139680131, 0.043447986347311375, 0.04186795687667304, 0.04323217141658231, 0.04310443841084375, 0.04299754020119498, 0.04121091751078692, 0.04223691974809118, 0.041852703130713764, 0.04159096007999816, 0.04350901305866198, 0.042854198743291265, 0.04278458308231024, 0.04132850564185401, 0.042053620366743975, 0.04228061670522585, 0.04299970826226026, 0.0414045032256809, 0.04351231308698218, 0.042200462565752224, 0.041465179422628506, 0.04216756480294782, 0.04263565223153265, 0.04262839214130555, 0.042701338126683364, 0.04176695931913975, 0.042401316008739975, 0.04203751774154045, 0.04162576390426926, 0.042285708121451424, 0.042513361731901685], "train_regression_loss": [0.3390971788152426, 0.018209799403968305, 0.013946445384684276, 0.014198767006826303, 0.012644226030298463, 0.011436801892407306, 0.010585138982015456, 0.009959127610103249, 0.010260955428864665, 0.00869415259078976, 0.008313806761154936, 0.008463798418566176, 0.007379672943803412, 0.008759929483987976, 0.01007752703465317, 0.009521717606180464, 0.017037060711076534, 0.01830178025047511, 0.03418595196468112, 0.037871483722752744, 0.032419991784199555, 0.029995242599397898, 0.05420196077137695, 0.038185573967047706, 0.025306444494241007, 0.04156066499092025, 0.025576546143781277, 0.030828506371663573, 0.02824339074452137, 0.027354820683373776, 0.07143218896881263, 0.04747870672405638, 0.02965562762879857, 0.03425937659112256, 0.03370689478033721, 0.032623287682784156, 0.04485248431897087, 0.023757079718345044, 0.02915135872681409, 0.03258965059713047, 0.031139069811442707, 0.02666778999365444, 0.03190240201964239, 0.031126539985661207, 0.028568792433547745, 0.05787034671995414, 0.06214223929784742, 0.02787158375016841, 0.02576445869614508, 0.026286719717643816, 0.01186911879325289, 0.013195558137837559, 0.011268689765354833, 0.016013616022621528, 0.013863465650827782, 0.015060547213163737, 0.01646103863936374, 0.015858390935487243, 0.014813454940036566, 0.015249663133044784, 0.015288393185141972, 0.013282247172018183, 0.02527461148767819, 0.017647237043616648, 0.0147544502483262, 0.02111907088379946, 0.014646329172125846, 0.01590647069410416, 0.01506074720149148, 0.027623396850373235, 0.01819311301998617, 0.02367746618693827, 0.02374640598695664, 0.02409291182009595], "train_mve_loss": [0.6005080581431564, -0.12668590899216356, -0.16647876338893633, -0.14943660240215156, -0.16028476857207374, -0.15615616186770528, -0.13086536727076092, -0.11698148356004869, -0.08493164197117825, -0.09820279015919409, -0.1249698691237786, -0.11256592867851693, -0.13306109609177688, -0.1619013603206322, -0.15956809004543987, -0.1547912219168969, -0.08293393459954253, -0.16030652330033957, -0.07277100881577811, 0.04671070929889106, -0.14667081509732133, -0.13404199248094664, 0.05656307799676927, 0.26840263749157817, -0.1455861196974105, 0.06594938185139197, -0.12979376962803427, -0.128466267755061, -0.1283600759799754, -0.1282797367524839, -0.08045086261545609, 0.19639534661222854, -0.13266543457812377, -0.0692905996674144, -0.1397553656600974, -0.1280364801211647, -0.036211166590438576, -0.13944146976724497, -0.13037185406676702, -0.13346243268977068, -0.1242725900689334, -0.13541126008429846, -0.057004586786671904, -0.12505659872114358, 0.5646459874015989, 0.13659884776559128, 0.013882478889353723, -0.040852503321121635, -0.12675434119413714, -0.12555355041213775, -0.10498295699065752, -0.10859120661142525, -0.10946398396113073, -0.08859369829569481, -0.08688649953593257, -0.08851236332943442, -0.13341844532727323, 0.06952732994512295, -0.07259992392132675, -0.1013142235434088, 0.1468733527018285, -0.1148021743893351, -0.09902481264494346, -0.10536046642418508, -0.10856467726686374, -0.11177652947846425, -0.11875741584209464, 0.06898041756336715, -0.11956748827249901, -0.10276789976355417, -0.13437412225707712, -0.04573787244673566, -0.10739768893667369, -0.09019323595641164], "train_r2_score": [-0.04530006250976835, 0.9446485593856297, 0.9574518622622085, 0.9568315024106998, 0.9618152807734378, 0.9652017593493721, 0.96783988641834, 0.9697568193001149, 0.9689948410914466, 0.9734233694868306, 0.9747778988636145, 0.974366720071954, 0.9776025831302321, 0.9733116406276585, 0.9694172514701067, 0.9710108102510211, 0.9483965942326854, 0.9447445188040496, 0.8961859743161873, 0.8853586893969362, 0.9015034696297971, 0.910190833805681, 0.8363663483471184, 0.8856250251591992, 0.9239145636575188, 0.8739987320580018, 0.9234589383918024, 0.9063192446785651, 0.9147891090505618, 0.917450213274598, 0.785375931981844, 0.8562669182132742, 0.9100556967991819, 0.8964542691893603, 0.8978404040859129, 0.9014722085758481, 0.8646710343183747, 0.9277470617767439, 0.9122310098189923, 0.9018950639224521, 0.9045944136524771, 0.9194888130476012, 0.903086194240849, 0.9051444620672288, 0.9128160669133518, 0.8254789393993128, 0.8130574200963617, 0.9156570099533957, 0.9213573086899494, 0.9206609290234452, 0.9640840510528327, 0.9597880836416388, 0.9659717622340012, 0.951022285366385, 0.9580155869564001, 0.9534801415805382, 0.9499408705525713, 0.9523945984504312, 0.9547240776226075, 0.9538215762479904, 0.953887764925934, 0.9597280252545028, 0.9236979509439663, 0.9466028034508007, 0.9551902499565207, 0.936125523335651, 0.9558325293640493, 0.9516491534866551, 0.9549334919655207, 0.9164908440808647, 0.9447487080937149, 0.9282642470710858, 0.9276766447223818, 0.926939785436041], "val_source_regression_loss": [0.016274939208656927, 0.012027408750845662, 0.011052786148613013, 0.022830985073896148, 0.03581412626972681, 0.009688264100894899, 0.03188005077970933, 0.045378657977415034, 0.005398560188639956, 0.005573129732326805, 0.014013795671347954, 0.021976208750488637, 0.005362725292061326, 0.005462822365822105, 0.006629355151583499, 0.00991552956166524, 0.009352574360710157, 0.010786547968046198, 0.025380035591182074, 0.014156922167520734, 0.01477262192653327, 0.028578223802054985, 0.014020697909254061, 0.01768020739708143, 0.012006568551487937, 0.018216886522271967, 0.04044109547534321, 0.011212218611772302, 0.010463244588220422, 0.023427725144768062, 0.05779256152955792, 0.01316051723883499, 0.02712467171346085, 0.16428581691240962, 0.07248314267283754, 0.013956742868110349, 0.01114058241106664, 0.010938409845568712, 0.017418024059432217, 0.009144040190060682, 0.010473867359606526, 0.010411503488975989, 0.011562843901352792, 0.026624051500347596, 0.008447093859645007, 0.011349683886841882, 0.021522054118634778, 0.02245005641038282, 0.013593157953759538, 0.02628284567802013, 0.013215473864840555, 0.017234134016252015, 0.008888484880658267, 0.008026889896704048, 0.009470347350439693, 0.02046120232796367, 0.01093902171271134, 0.02106756337364263, 0.008948641110070144, 0.011742592447354823, 0.007602337405934364, 0.01377414689175313, 0.022574424955852424, 0.008059564700845298, 0.0119666823221347, 0.007629647939406996, 0.008489099396039037, 0.012357976028247725, 0.0076712917218197, 0.16501755804955204, 0.008488763990234348, 0.011712082331599314, 0.009307639060329788, 0.006483611338359269], "val_target_regression_loss": [0.02174374418733995, 0.014568245403845853, 0.011626596350364293, 0.02555116850741302, 0.040585558059849314, 0.01191336680439454, 0.030643937284056143, 0.04997606995173647, 0.007245964724334735, 0.006370711759251507, 0.019099810355213246, 0.022079443889139575, 0.0063472002614996855, 0.006226788802496806, 0.0073333586495416825, 0.010898745153099298, 0.010247252421760106, 0.011993604841866071, 0.027098467054812215, 0.015110899411330495, 0.01670053673177203, 0.029606687989604624, 0.013845637181325804, 0.02008806884618877, 0.01384608777640741, 0.019483379819253577, 0.04404311330069469, 0.012437402860178977, 0.01146892649180527, 0.02348830451882338, 0.06024487821173064, 0.014800673704358596, 0.029406277934395816, 0.16040330955499335, 0.07476764884364756, 0.015871561544982694, 0.012251052203812177, 0.012866081705293323, 0.01865751220832897, 0.010396089782065984, 0.01180322988170989, 0.011636405782420424, 0.01287141353882189, 0.028797892169861852, 0.009191301822237954, 0.01276556055851375, 0.0231172972936419, 0.022375051332991336, 0.015891153530418117, 0.029547896613425845, 0.014520258230121829, 0.01628122710964725, 0.010429949688288984, 0.009451745950345751, 0.011231196767214355, 0.023234234981333153, 0.01257926385991181, 0.02257774196140751, 0.010526123598123653, 0.01362947129373309, 0.009426491470606644, 0.01547284110720399, 0.023842466782919968, 0.009573187991458027, 0.013816681725880768, 0.009193266576886931, 0.00941964142802584, 0.014566917703310145, 0.009516922556618346, 0.1581145749439167, 0.010185314949507578, 0.01388896235465249, 0.011236626501607744, 0.00831722319597685], "val_source_r2_score": [0.9500989715822983, 0.9632970040355491, 0.9661447096078181, 0.9296309392290663, 0.8900184222692502, 0.9703090308672688, 0.9017647433996039, 0.8610178054628729, 0.9835350889700976, 0.9829073597945976, 0.9570199837292167, 0.9314092524525457, 0.9835175815989597, 0.983223578327624, 0.9797992513327863, 0.9695274109421294, 0.9713863370730685, 0.9669675666241573, 0.9222807499322858, 0.9559710993386908, 0.9548153434331641, 0.9125211863338957, 0.9570522934325817, 0.9464078323245917, 0.9631325293381621, 0.944330965978689, 0.8761722610837581, 0.9657733062553192, 0.9679383464648545, 0.9281588476049869, 0.8225525977623853, 0.9598293018226091, 0.916707141208189, 0.49494854434641355, 0.7774421428781184, 0.9570945935815077, 0.9657843131154871, 0.9668696571266453, 0.9462992592103525, 0.972124484354282, 0.9680563215858234, 0.9679775615468931, 0.9643519504350326, 0.9187072277005275, 0.9740886697466372, 0.9653099593183794, 0.9342867107598306, 0.9313010121343576, 0.9584198476682779, 0.9198325252339818, 0.9595851375360868, 0.9471111778229193, 0.9729719396658962, 0.9753898707495118, 0.970948376812634, 0.9374147274358452, 0.9664971684008825, 0.9352002220914061, 0.9727679409801806, 0.9641392312676829, 0.9767930476397446, 0.9577846176729037, 0.9308674649994999, 0.9755731157315765, 0.9637152148743074, 0.9768194921001898, 0.973887059926201, 0.9621273021191796, 0.9765079457344397, 0.4909739455349883, 0.9739442746798737, 0.9640949207964242, 0.9714941882360939, 0.9801669744045468], "val_target_r2_score": [0.9352261877828143, 0.9557066184378445, 0.9653920503003806, 0.9238134956140687, 0.87861919530608, 0.9635717011520903, 0.9087000845933064, 0.8514610340784796, 0.9787563088024731, 0.9809571290468629, 0.942750855476572, 0.9337520824618238, 0.9811997341520947, 0.981509984967638, 0.9781096741264437, 0.967703841279124, 0.9693853930588603, 0.964335010786994, 0.9195056756556901, 0.955090938594259, 0.9502369661142356, 0.9120173273862588, 0.9589172075530424, 0.9403621870477968, 0.9587425541475355, 0.9420132341270875, 0.8687032651825582, 0.9631002746827799, 0.965902483309216, 0.9302189945208675, 0.8208563030316302, 0.9559496458248986, 0.9123800158413299, 0.5214130892617468, 0.7775531938474413, 0.9527654013713054, 0.9635874035178132, 0.9617887628942885, 0.9445612560711711, 0.9691819034363204, 0.9649980549444743, 0.9653757130163129, 0.9615204972467248, 0.914725669381597, 0.972624266704174, 0.9620975036250669, 0.9311183554945208, 0.933227092506749, 0.9529956154991278, 0.9122738894660967, 0.9567860955961277, 0.9515985899058981, 0.9689138391778245, 0.9721097786306924, 0.9666945599221949, 0.9308307450833098, 0.9626517342859806, 0.9328714260126053, 0.9687614899647996, 0.9593670783036262, 0.9719045738145762, 0.9539024672273851, 0.9284779535862605, 0.9716607967873574, 0.9590945888330277, 0.9723529281581991, 0.9719950300222007, 0.9566464846079326, 0.9718370563056212, 0.5294240526324709, 0.969747457331229, 0.9589944869098858, 0.9666869495133396, 0.9754460089475897], "val_source_mve_loss": [-0.22741702944040298, -0.24625112531305868, -0.2074720182373554, -0.06194741401491286, -0.21694585190543644, -0.17145412575594987, 0.09842110329743804, -0.1570294282953196, -0.04865145485235166, -0.2286931430991692, -0.09623453035196171, -0.12855098471988605, -0.2326835235462913, -0.2110833459639851, -0.2165616462125054, -0.2305552808544304, -0.15101470241818246, -0.15009969340849527, -0.12113766089270386, -0.07852177887777739, -0.22326739490786685, -0.13588780183580856, -0.2173322397696821, -0.107219066518017, -0.17717911906634706, -0.20638945415804658, -0.11826180147973797, -0.057117220580200606, -0.1354955151865754, -0.11134614738859708, -0.11497388949877099, -0.19169846780692476, -0.1297077216868159, -0.09552689934078651, -0.12132582804070244, -0.22538709829125222, -0.21147296040118496, -0.20554235162614268, -0.1216225233636325, -0.17189153123505507, -0.19431847862050503, -0.0777180638588682, -0.18499911736838426, -0.07388947889963283, -0.14554091458079182, -0.16419587671002256, -0.21795327735098102, -0.13598760028805915, -0.14820699752131594, -0.197379219946982, -0.05770567191552512, -0.17478348503384408, -0.1967769291581987, -0.20552303726914561, -0.17259234850165212, -0.10257484612962868, -0.08141925864959065, 1.3260233281533929, -0.1871533812601355, -0.07947659860306149, -0.03762660717850999, -0.09338850037583822, -0.11317918034671229, -0.2005632338644583, -0.05992520982517472, -0.09361521116917647, -0.19314211814463894, -0.09899062946250167, -0.14100603532942035, -0.08592170882451383, -0.19951099968409236, -0.19000548803353612, -0.17285859490497202, -0.07909901044036768], "val_target_mve_loss": [-0.22141442268709594, -0.244132652690139, -0.20686309548872936, -0.06150698091221761, -0.19613435826724088, -0.04770062015026431, 0.11028116479916852, -0.1398842053700097, 0.015811409860189203, -0.22770054468625708, 0.1992641117282306, -0.11616996883214274, -0.2307321412276618, -0.20932998555370524, -0.2161405795737158, -0.22972281050832966, -0.15008047619197942, -0.14876732777191115, -0.11908013901755779, -0.0774249520294274, -0.22148539371128323, -0.1347385573236248, -0.2176010425709471, -0.10472364950029156, -0.17516552685182304, -0.20519875159746484, -0.11389612151852137, -0.05573471762900111, -0.13438157190250444, -0.11184413919720469, -0.1122027087626578, -0.19004718468913548, -0.12697445818140538, -0.0992715486054179, -0.11893080542736416, -0.22361795528780057, -0.21041062455388565, -0.20358281478851656, -0.11997088459850866, -0.17043054198162466, -0.19295121314404887, -0.07592950459522536, -0.1836160653376881, -0.07056891229711001, -0.14477838990809042, -0.1625432805924476, -0.21647960607764088, -0.13615371739562554, -0.1452362576994715, -0.19405960621713084, -0.05534365471405319, -0.17607644520982912, -0.19512279501444177, -0.2040478839904447, -0.17052829152421106, -0.09840361736243285, -0.07863673945016499, 1.421083446544937, -0.18540214228479168, -0.07613297268936906, -0.03322544146942187, -0.09070437099737456, -0.11142483928912802, -0.19894558247886127, -0.05626719798656959, -0.0909815188261527, -0.19215106134173238, -0.09542457023753395, -0.1384823357191267, -0.09261315447997444, -0.19768534827081463, -0.18759538685973687, -0.1705580048168762, -0.07574263127827191], "val_source_nll_loss": [728.1018292149411, -0.8019069335128688, -1.1686849065973788, 9781.207128817523, -0.844939329201662, 13.052074415019796, 11034.54917115803, 253.3441274596166, 2111.6113030156002, 11.949207983439482, 6771.51175780085, 1704.276787468904, 44.39224821404566, 28.30424575186983, -1.1662413485442535, -1.0215043342566188, -1.5335945841632312, -1.5066219492803645, -1.3437315210511414, -1.6465794572347328, -1.0219468542292147, -1.2380155566372448, -1.0717466541483431, 42.57379656803759, -1.3372861207286013, -1.0916560978829106, -1.0897058904925478, -1.8088518366028992, -1.5883679223965994, -1.3784234403054925, -0.9218715663197674, -1.2410583978966823, -1.2780662563782703, -0.36885322479507593, -0.8364624969566925, -1.0163150384456296, -1.1447198224973074, -1.1853884141656417, -1.4809251586093177, -1.4135008310969872, -1.2617623232587982, -1.8148663375951066, -1.3000545562068118, -1.3492128698131707, -1.5785427168954778, -1.4179120999348314, -0.9849470182310177, -1.3435830798330186, -1.4547344159476365, -1.0515827151793469, -1.711358814299861, -1.2666309589072118, -1.267469428762605, -1.2229636937757082, -1.4036394402950625, -1.441249512418916, -1.7888398834421664, 105329.75588409811, -1.3253703072101255, -1.7225828261315068, -1.832575941387611, -1.6504265869720072, -1.4010934603365162, -1.25455705727203, -1.7349943752530255, -1.8741406730458707, -1.2955595571783525, -1.6819600862792776, -1.6198107049435, -0.3836538676596895, -1.2552729799777647, -1.268263172499741, -1.4039681485936613, -1.9855238153964658], "val_target_nll_loss": [799.5468719065943, -0.7952870409699935, -1.165701790700985, 9464.17738137215, 1302.4936962912354, 9464.931575945284, 12151.388180503362, 1183.0711769838877, 6944.735998226118, 15.339063648936115, 29776.785409639153, 2597.571528433999, 86.00714871249622, 73.09001371943498, -1.1605823824677286, -1.0165766009801551, -1.5199735617335839, -1.491119475304326, -1.320916343338882, -1.6144875212560725, -1.0132860745055765, -1.224417490295217, -1.0716593174994746, -1.4580611443217797, -1.3203868805607664, -1.0842543025560016, -1.0425454921360258, -1.7449717597116399, -1.5691554953780356, -1.3817488483235807, -0.8979350245451625, -1.228428845164142, -1.246772898903376, -0.38441251086283335, -0.8193643145923373, -1.0077459155758726, -1.1378901623472382, -1.1730682925332951, -1.4570777235151846, -1.4002892789961416, -1.2514410471614403, -1.7552155950401402, -1.2887588045265101, -1.2871713706209689, -1.566940491712546, -1.4021046176741394, -0.977696384055705, -1.344479103631611, -1.4244561059565484, -1.0335287715815291, -1.6373816894579538, -1.274920131586775, -1.25612618802469, -1.213587130172343, -1.385364674314668, -1.3776723689670805, -1.7225684485858, 112880.64695411392, -1.3118625683120535, -1.641730118401443, -1.585074319115168, -1.5968529891364183, -1.3789238824120051, -1.2439734633964827, -1.6245880715454681, -1.8158937451205677, -1.2882981511610974, -1.6159547144853617, -1.588480130026612, -0.4122508432291731, -1.243351633035684, -1.251577710803551, -1.3843360445167445, -1.8932107709631134], "da_weight": [1.4, 1.4, 1.4, 1.4, 1.4, 1.4, 1.4, 1.4, 1.4, 1.4, 1.4, 1.4, 1.4, 1.4, 1.4, 1.4, 1.4, 1.4, 1.4, 1.4, 1.4, 1.4, 1.4, 1.4, 1.4, 1.4, 1.4, 1.4, 1.4, 1.4, 1.4, 1.4, 1.4, 1.4, 1.4, 1.4, 1.4, 1.4, 1.4, 1.4, 1.4, 1.4, 1.4, 1.4, 1.4, 1.4, 1.4, 1.4, 1.4, 1.4, 1.4, 1.4, 1.4, 1.4, 1.4, 1.4, 1.4, 1.4, 1.4, 1.4, 1.4, 1.4, 1.4, 1.4, 1.4, 1.4, 1.4, 1.4, 1.4, 1.4, 1.4, 1.4, 1.4, 1.4], "beta": [0.7, 0.7, 0.7, 0.7, 0.7, 0.7, 0.7, 0.7, 0.7, 0.7, 0.7, 0.7, 0.7, 0.7, 0.7, 0.7, 0.7, 0.7, 0.7, 0.7, 0.7, 0.7, 0.7, 0.7, 0.7, 0.7, 0.7, 0.7, 0.7, 0.7, 0.7, 0.7, 0.7, 0.7, 0.7, 0.7, 0.7, 0.7, 0.7, 0.7, 0.7, 0.7, 0.7, 0.7, 0.7, 0.7, 0.7, 0.7, 0.7, 0.7, 0.7, 0.7, 0.7, 0.7, 0.7, 0.7, 0.7, 0.7, 0.7, 0.7, 0.7, 0.7, 0.7, 0.7, 0.7, 0.7, 0.7, 0.7, 0.7, 0.7, 0.7, 0.7, 0.7, 0.7], "epoch_no": 74}