{"train_DA_loss": [0.09121073628188378, 0.030344484385845322, 0.026174966497874565, 0.02803794724161871, 0.02523999457065377, 0.03794172174472641, 0.04093427131705027, 0.03757323561001304, 0.03680754478142292, 0.03474818756105804, 0.03416894124293022, 0.03315943808480416, 0.033122650655820776, 0.03254905763257574, 0.03277837954992786, 0.031900435226409264], "train_regression_loss": [0.1599154561328986, 0.026102711354642833, 0.019392995291493385, 0.025309737509548992, 0.015797413110910104, 0.029660935789496523, 0.019778378381031195, 0.02680140194164715, 0.01660818122565692, 0.013226820884691296, 0.012382285506847626, 0.01441504139626838, 0.010512148243778639, 0.009210525846731946, 0.008766894962577322, 0.008249020037093154], "train_mve_loss": [0.12612002446542628, -0.05875910319033772, -0.04970509812518464, 0.11922506898481117, 0.0008406298947171521, 0.22459385549105615, -0.07985411920130144, -0.12646302886279998, -0.05195455176166686, -0.04575909956458827, -0.05561497464939489, -0.0937360600658592, -0.032671528032400275, -0.03470974365313975, -0.04585815017950982, -0.05876184305388113], "train_r2_score": [0.5117768553150788, 0.9207988013921334, 0.9411327864651525, 0.9231346569022576, 0.9521192158011976, 0.9102734699014577, 0.9399530061166442, 0.9186366250394669, 0.9496654118345171, 0.959858507204823, 0.9624030866170205, 0.9562730447249346, 0.9681444828434029, 0.972045981553213, 0.9733978792130991, 0.974934054232479], "val_source_regression_loss": [0.031483241463009314, 0.021684905502332163, 0.022078187617508672, 0.01754543475240846, 0.014477160735692404, 0.026229241155559503, 0.015283300199463397, 0.021740444535035874, 0.014150987615030778, 0.011573591487647234, 0.010633861380806076, 0.011446442679042303, 0.009165610605261372, 0.009342377669401939, 0.007713977777976779, 0.018888530828341653], "val_target_regression_loss": [0.0394103838767432, 0.0281106598345162, 0.029380210074065608, 0.02114916410108533, 0.018599561580657203, 0.05753658631745773, 0.018144885702883896, 0.022948787488703486, 0.01628796053649504, 0.013709768853327142, 0.013753086517128763, 0.013217790388278191, 0.012115386880556994, 0.01089573534842156, 0.009613280603072689, 0.01963774134888302], "val_source_r2_score": [0.9037100738334453, 0.9336120525674148, 0.9323964710912164, 0.94585083092003, 0.9556540931470837, 0.9196708281425899, 0.9530068004654441, 0.933191393149619, 0.9570178722637918, 0.9645332146426084, 0.9672584168310735, 0.9644128084636086, 0.9716851271376571, 0.9711284847614766, 0.9764148467879524, 0.9416136242052859], "val_target_r2_score": [0.8827389539843247, 0.9155026534923016, 0.9127008971348775, 0.9366738051877899, 0.9445459297693648, 0.8276946550142285, 0.9459772710506832, 0.9317355334358115, 0.9515456144479117, 0.9590346893649222, 0.9588948481272347, 0.9603773375231065, 0.963997191917571, 0.9676906002141608, 0.9711815811311432, 0.9413058783754233], "val_source_mve_loss": [-0.04996965905722184, -0.04820731645332107, -0.10958003997802734, -0.0029654119943292173, -0.12109087256691124, -0.024589373458978495, -0.042327060399553446, -0.05554567682969419, -0.03345488068423694, -0.039120807725040216, -0.05418729263393185, -0.039952852162002006, -0.024633914750965335, -0.14419316698478746, -0.028141586086418056, -0.18501944839954376], "val_target_mve_loss": [-0.05573108881900582, -0.05251060492253002, -0.10868836015085631, -0.0026977179289052757, -0.11995943324475349, 0.007401123413038027, -0.04001578554228137, -0.054674474828982654, -0.03267352396174322, -0.03810284008519559, -0.052307862175416345, -0.039126139794346655, -0.02241331773892611, -0.14346771489215804, -0.027175514569765406, -0.18452009219157545], "val_source_nll_loss": [24809.108732199365, 13951.216401305379, 2337.8014271410207, 69400.67627571203, 9737.928999502448, 3212.409196264193, 4746.276927573771, 743.974923979821, 1337.362644316275, 168.61576282374466, 111.09821355493763, 886.2052419555338, 477.1215388971039, -1.0240352568747122, 591.6203177759919, -0.41040104024017915], "val_target_nll_loss": [27833.77107644383, 22414.22322488133, 2480.6244933695734, 78902.76330102848, 10399.670456512065, 8851.705789035634, 5114.871690967415, 621.6462466528144, 1543.2493315195736, 198.85575618924975, 125.73695037410229, 808.7067108757889, 734.4861720453334, -1.0159548724753946, 627.0175676421275, -0.4084140665923493], "da_weight": [1.4, 1.4, 1.4, 1.4, 1.4, 1.4, 1.4, 1.4, 1.4, 1.4, 1.4, 1.4, 1.4, 1.4, 1.4, 1.4], "beta": [1.0, 0.994, 0.988, 0.982, 0.976, 0.97, 0.964, 0.958, 0.952, 0.946, 0.94, 0.9339999999999999, 0.9279999999999999, 0.9219999999999999, 0.9159999999999999, 0.91], "epoch_no": 16}