{"train_DA_loss": [0.03653736191016828, 0.009209594170442039, 0.008412315479140913, 0.009203154746088892, 0.006024985959612078, 0.0056532106676838705, 0.006534498758695788, 0.022205395878154708, 0.03836785415417329, 0.03771251207111161, 0.037981328982655535, 0.03746434031531106, 0.03856098821337319, 0.03806620930773555, 0.03810763355409233, 0.027749712111588425, 0.038038719611044915, 0.03729180102583474, 0.033705989916496475, 0.03931600843761389, 0.0379413358741176, 0.03818542229341959, 0.039124450215582876, 0.03175666149000346, 0.03892484508898327, 0.03929244945510214, 0.038662145714491766, 0.03787612985526731, 0.03825600413506394, 0.03803831216635717, 0.037798556388514135, 0.03720441601840163, 0.0388119010462458, 0.03696939512645448, 0.037389719545487074, 0.03703025312348519, 0.027937303363197438, 0.037837956969028634, 0.036295058301069404, 0.025014414598652838, 0.03753691545510546, 0.036717515074438545, 0.037107380342004066, 0.036666057350103774, 0.03769863207553815, 0.0374367830140935, 0.037957777656100596, 0.03764322657185782, 0.03742889131690074], "train_regression_loss": [0.09115431567916214, 0.022056718865984974, 0.01355030337243019, 0.010890578657858604, 0.009858368014000779, 0.009439886605513488, 0.01127664484994544, 0.04355768529081911, 0.08507770187539854, 0.07782838742165286, 0.07698602136394768, 0.07942250060424944, 0.07437046219882516, 0.08146325307447035, 0.07570870184225509, 0.07055511650964753, 0.07269760811364302, 0.06531812236142061, 0.0711837906196332, 0.07087844389557185, 0.06777054207293927, 0.06738288167326062, 0.05577155301207762, 0.054221419966566826, 0.06155842385328012, 0.05656282112880915, 0.06119381335191088, 0.061612311297758626, 0.05696553073762158, 0.052315543090730526, 0.08681855016682549, 0.04681554058876563, 0.04727312753579734, 0.05038036085951263, 0.04918798490153316, 0.0500274351925693, 0.04887854706809279, 0.04826513552524054, 0.0507279989961705, 0.046294756950487057, 0.048913380650418656, 0.046051559862518986, 0.04701001739888784, 0.04968669055918507, 0.04829575127702363, 0.08196280329527378, 0.061727827544267914, 0.044735188721943056, 0.04250230621614611], "train_mve_loss": [-0.04071601315348714, -0.06744314662308111, -0.049106680622575054, -0.043538947914040886, -0.033562449378336454, -0.03216860702425629, -0.0372920610476498, -0.048937023434510465, -0.0651026385912069, -0.06465548505156149, -0.06403490023302694, -0.06484256049880326, -0.02346182642785502, -0.06542053376303192, -0.06584533118945929, -0.05844514884518194, -0.06503424889934156, -0.059081750514983475, -0.0658543641075417, -0.0663748184177289, -0.06807849558421038, -0.0667793292218523, -0.06618828677327135, -0.06800400840596958, -0.06899293249139266, -0.06649259965968109, -0.06834214101930726, -0.06918383482673378, -0.06884283900398835, -0.06722793424198953, -0.06115585621284624, -0.06565181310101321, -0.06675672201717262, -0.07086119577041751, -0.06837781068572682, -0.0691060872438408, -0.0744239305634685, -0.07546313246073613, -0.0698514824736969, -0.06776024646788045, -0.07247055648746041, -0.07589685160818235, -0.07273496590300176, -0.07205463772743065, -0.07660346202625956, -0.06337181193765995, -0.07195455480751733, -0.0719728594427925, -0.08327884280882177], "train_r2_score": [0.7215040729566949, 0.9330135334890204, 0.958897544328718, 0.9669684188245184, 0.9701378855539777, 0.9713211873260987, 0.9656707914919378, 0.8671945849915043, 0.7417780473280446, 0.76435549912191, 0.7670490830136277, 0.7589851286125614, 0.7755832993237128, 0.7529054028762503, 0.7708243168114575, 0.7853010358928375, 0.7801839058658923, 0.8015757058711481, 0.7848017813924837, 0.7856303847632345, 0.7948216033553932, 0.7962257445373208, 0.8305483859890573, 0.8358478535604588, 0.8136196620101469, 0.8289472161534069, 0.814933658243076, 0.8129487227238209, 0.8273776845940068, 0.8420303450197419, 0.7378321801580482, 0.8580988634005932, 0.8573073744048607, 0.8474286548441501, 0.8514787953354871, 0.848737754180286, 0.8517244452941757, 0.8538237201497143, 0.8461684259439258, 0.8592710212161785, 0.8520763295950798, 0.8605717075154139, 0.8578460249516318, 0.8493105394507384, 0.8540324929774089, 0.7492203182858165, 0.8148154113026717, 0.8651718543147535, 0.8710643730291704], "val_source_regression_loss": [0.023013218058438242, 0.011273557662115068, 0.010030133549501247, 0.00945810545707428, 0.009733813007279664, 0.007520511864295489, 0.009032603883762149, 0.14971518733456166, 0.10905682371009755, 0.08809478430053856, 0.05626803513946412, 0.11689607056352912, 0.050151870031900046, 0.049088187091335465, 0.09256747256540045, 0.05519676387687273, 0.07152299498078189, 0.08239578281210948, 0.06688708392313764, 0.08826043942495237, 0.15653535761410678, 0.15159253257362149, 0.031074929534445836, 0.06681877270906786, 0.03426588946788371, 0.112414818304249, 0.04710044834432723, 0.05653931695637824, 0.019955592430373537, 0.028505709093016914, 0.0731642081201831, 0.06990769873314266, 0.06142219118302381, 0.06975752063378503, 0.06770866510422924, 0.06683954398466062, 0.05823008928306495, 0.04183617198863362, 0.03259313377681412, 0.056787853423930425, 0.08472534415276745, 0.08362499237815037, 0.05118508264422417, 0.08565818084568917, 0.10097080686047108, 0.04984827584858182, 0.0183264284005648, 0.02571425103594231, 0.02743284156711041], "val_target_regression_loss": [0.024169046643979942, 0.014844986209292201, 0.011166967710928071, 0.01331605393250909, 0.013446559740489797, 0.01528558267657704, 0.011537837766440986, 0.15244269795432874, 0.11180575625805915, 0.08839018275088902, 0.05859583121123193, 0.12213714147293114, 0.053690446847224536, 0.052679615260302265, 0.09676500570170488, 0.05657874830538714, 0.07473259216433839, 0.08102329721367812, 0.07067240505844732, 0.09224343139536773, 0.16017876574887505, 0.15738396629502502, 0.0349689015199112, 0.07156972695566431, 0.03792213367982001, 0.11667352245201039, 0.051565011609581456, 0.060293012027499045, 0.02074787300080061, 0.02849027919995634, 0.0738880342414862, 0.07435893281539784, 0.06258232613341717, 0.07323950288605087, 0.07162474836163883, 0.07128959724420234, 0.06068746646559691, 0.045402713450072685, 0.03435073175196406, 0.05772191559589362, 0.08808549474689024, 0.08761349183660519, 0.05460765316516538, 0.0890610843330999, 0.10458137604254711, 0.05543061807940278, 0.02005017239930509, 0.029007508443031883, 0.0298691252364388], "val_source_r2_score": [0.929253850919334, 0.9654931242740555, 0.9694526109549062, 0.970826303800743, 0.9698994223521453, 0.9769153634642795, 0.9723159034684047, 0.5408993055367824, 0.6655601856288359, 0.7300646307126122, 0.8271794325019098, 0.6419011806409209, 0.8462456406803515, 0.848757127243142, 0.7170889867682966, 0.829737902893603, 0.7810083264272507, 0.7468212094741877, 0.7953389500457602, 0.7284478033447137, 0.5218480973424694, 0.5365335908143265, 0.9051203917681194, 0.7977708070740741, 0.8949770597090517, 0.6550704991206732, 0.8563496816404811, 0.827882494775903, 0.9387136221528346, 0.9127185696327369, 0.77578831685977, 0.7876030935809131, 0.8119861655597891, 0.7854695620135509, 0.7919321479077318, 0.7941001622543892, 0.8212862011145594, 0.8728164742486719, 0.8999894325597313, 0.8263798122357963, 0.7415600327723432, 0.7426425964951885, 0.8425305328790555, 0.7363115501640808, 0.69118345733745, 0.8480954315964371, 0.9439721009666505, 0.9214983013521255, 0.9158468701686865], "val_target_r2_score": [0.9283459926912732, 0.9552709254972334, 0.9669857157434775, 0.9602793217540193, 0.9599852562405803, 0.9541839181743852, 0.9656370153486551, 0.5462173261437226, 0.6673091661848632, 0.7363322446903081, 0.8258708745882608, 0.6356767980251742, 0.8410952043868573, 0.8432830982088186, 0.7104172757254803, 0.8317941537108734, 0.7771909813313294, 0.7589283004815504, 0.7901194451334113, 0.7270178776573559, 0.5208619377749651, 0.5332934087576637, 0.8960832870823054, 0.787579363698682, 0.8867135825777984, 0.6519306087458271, 0.8469725243677452, 0.8206894407369749, 0.9382765522619008, 0.9154750130598508, 0.7789700418238977, 0.7792321679060982, 0.8132586871548765, 0.7823708478749809, 0.7872450566976892, 0.7869078361432832, 0.8190855733667627, 0.8652179077851998, 0.8984850189751985, 0.8282338359484843, 0.7387396304575921, 0.7395748207668457, 0.837544383490205, 0.7365606474053555, 0.6891466804327341, 0.835711031630018, 0.93980682549884, 0.9132899394054493, 0.9117062332918493], "val_source_mve_loss": [-0.020254432606876274, -0.024769999440523643, -0.1257904851927033, -0.09140374756689314, -0.08885164884260938, -0.06503879142147076, -0.031359301432024075, -0.05121308869293219, -0.05708363251406935, -0.0746931673699542, -0.041263044257707236, -0.08336385405516322, -0.04094872501077531, -0.06958669570239284, -0.0837733753119843, -0.08653181329180923, -0.048960212240867974, -0.0556786693161047, -0.04280987037699434, -0.06491686215129079, -0.06584200927916961, -0.04148139678460511, -0.10340119775714754, -0.05945138180557685, -0.05827259824057169, -0.07620743199994293, -0.041541695264698586, -0.050850722608687005, -0.08340381425392779, -0.11833091212224357, -0.1092707145063183, -0.028825797494265098, -0.05366169414895622, -0.045617350011686736, -0.09475226690874824, -0.04652217549236515, -0.09012852062152911, -0.06739275058424926, -0.0973996504952636, -0.10379314167967325, -0.04742996526669852, -0.07274639045324506, -0.06010224038287054, -0.04150978511175777, -0.03392875201622896, -0.11037895498396474, -0.08249862925915778, -0.11508653897650634, -0.08441000526087193], "val_target_mve_loss": [-0.019742279543388117, -0.023863956744817994, -0.1259359176023097, -0.08963495426917378, -0.08729586344731005, -0.06117503693963908, -0.03026323060540459, -0.04987897898388814, -0.055700380920986586, -0.07458852198493632, -0.04009698927874052, -0.08061504227262509, -0.0390862557989887, -0.06769766224713265, -0.08153554646274712, -0.08579133649038363, -0.04726227045153515, -0.05670921676615371, -0.0407337365035392, -0.06276173776463617, -0.06387800048989585, -0.038308880633757085, -0.10127368578805199, -0.05678242185636412, -0.05588367246562922, -0.07387079270202902, -0.03866338817096209, -0.04833091639831096, -0.08263913044540942, -0.11840689512370509, -0.10891198102809206, -0.02570889910235058, -0.052518616772339315, -0.04351529769033571, -0.09249333735508254, -0.04378913897030716, -0.08866775960107393, -0.06519328727375102, -0.09634300010113776, -0.10324290460800822, -0.04533925960194084, -0.07029444582854645, -0.05713556230634074, -0.03932189198705969, -0.030756180186437655, -0.10602652097616015, -0.0804587662031379, -0.11296400182609316, -0.08279162645339966], "val_source_nll_loss": [47059.45357001582, 3028.7939003268375, -1.0025491337232952, -1.2556145115743709, -1.2731181285049342, -1.507347224633905, -1.802622209621381, -0.43215335433996177, -0.5929000211667411, -0.7081022051316274, -0.9204724438582794, -0.5624242507958714, -0.9888891622989993, -0.987612290472924, -0.6774298458159724, -0.9042293074764783, -0.7891300969485995, -0.7635765762268742, -0.8144266929807542, -0.7161091535906249, -0.4241231893059574, -0.39498419889920877, -1.0309317941907086, -0.8599718326254736, -1.1635462513452843, -0.5998194391214395, -0.9558734539188917, -0.923555409606499, -1.2608141770845727, -0.9922344910947583, -0.7396532531026043, -0.6590016050429284, -0.9015976669667642, -0.7761262836335581, -0.8136008193221274, -0.8318241276318514, -0.8916149154494081, -1.0759732081920286, -1.081278262259085, -0.8669054319586935, -0.6923270534865463, -0.7362403235857999, -0.9939183125013038, -0.6317319130595727, -0.49283677462158326, -0.9058316636689102, -1.3369048396243324, -1.0848507420926154, -1.210309010517748], "val_target_nll_loss": [50122.00182950949, 5815.053711323799, -0.9912795688532576, 1110.0279621730876, 3473.550395704523, 8543.236302398429, 4353.879179735727, -0.40981256584577924, -0.5793615473976618, -0.7073970904833153, -0.8990925512736356, -0.5441281248497057, -0.9476269559015201, -0.9640774108186553, -0.6603695855864996, -0.8981370669377001, -0.7635629795774629, 77.07029025765914, -0.7795466901380804, -0.6950576188443582, -0.41311647280862057, -0.3655450793006752, -1.0119296825384791, -0.8244442917123626, 2964.543292927591, -0.5836045825028722, 2964.7745723754547, 2964.781002655814, 2964.411145171033, -0.9943084467815447, -0.7384261232388171, 2965.0671769033506, 2964.773278578927, -0.7385271399081508, -0.7936417279364187, -0.7849135210242453, -0.8772316582595245, -1.0397431873068024, -1.0691920073726509, -0.8620949674256241, -0.6625668376306945, -0.7090119991121413, 2964.705433367174, -0.5975799356834798, 2965.206339524705, 2964.7888290806663, 2964.3452233061007, -1.0528743478316296, -1.1821938870073874], "da_weight": [1.4, 1.4, 1.4, 1.4, 1.4, 1.4, 1.4, 1.4, 1.4, 1.4, 1.4, 1.4, 1.4, 1.4, 1.4, 1.4, 1.4, 1.4, 1.4, 1.4, 1.4, 1.4, 1.4, 1.4, 1.4, 1.4, 1.4, 1.4, 1.4, 1.4, 1.4, 1.4, 1.4, 1.4, 1.4, 1.4, 1.4, 1.4, 1.4, 1.4, 1.4, 1.4, 1.4, 1.4, 1.4, 1.4, 1.4, 1.4, 1.4], "beta": [1.0, 0.998, 0.996, 0.994, 0.992, 0.99, 0.988, 0.986, 0.984, 0.982, 0.98, 0.978, 0.976, 0.974, 0.972, 0.97, 0.968, 0.966, 0.964, 0.962, 0.96, 0.958, 0.956, 0.954, 0.952, 0.95, 0.948, 0.946, 0.944, 0.942, 0.94, 0.938, 0.9359999999999999, 0.9339999999999999, 0.9319999999999999, 0.9299999999999999, 0.9279999999999999, 0.9259999999999999, 0.9239999999999999, 0.9219999999999999, 0.9199999999999999, 0.918, 0.9159999999999999, 0.9139999999999999, 0.912, 0.91, 0.908, 0.906, 0.904], "epoch_no": 49}