{"train_DA_loss": [0.074045705692451, 0.03930873027108814, 0.03540397714653224, 0.027051034002093226, 0.018039567373910922, 0.017921314067403077, 0.017798688115426075, 0.019872512702423215, 0.02286352974939853, 0.01902650184486695, 0.021921510346765056, 0.029781210083017293, 0.03459399504420199, 0.03830306778169855, 0.041547407094777396, 0.04241959189815648, 0.04235764157701236, 0.04293590959100226, 0.041780782543408806, 0.04304447176251595, 0.04155815750959804, 0.04126241278087199, 0.04163046694365781, 0.04463974491674351, 0.04193432115944583, 0.04241988677837949, 0.04220387477843156, 0.041613076021809685, 0.0422479811088749, 0.042055782131591925, 0.04193172408727558, 0.04212994750255423, 0.04331874610410094, 0.042104729684495405, 0.04242451876483626, 0.04208615707264195, 0.04167871837805569, 0.042603172508274396, 0.04132448298553553, 0.04332558751119883, 0.0425905325472137, 0.041614000888122504, 0.041851718428202477, 0.041519936947134996, 0.042532491826297376, 0.04119809208202842, 0.041794244652883006, 0.04255815199704013, 0.04247929543338484, 0.04089790794460386, 0.042075127468766196, 0.04144348658730278, 0.0413703977469171, 0.042388133422030606, 0.042538357111991436, 0.042263690436725426, 0.041422938665807575, 0.04160106522959046, 0.04179281461473139, 0.042424205506741454, 0.04113593634211167, 0.04294773128557903, 0.04154085762921374, 0.041224933496695114, 0.041784076122277615, 0.04190122107660204, 0.04218798180126076], "train_regression_loss": [0.3390971788152426, 0.018209799403968305, 0.013946445384684276, 0.014198767006826303, 0.012644226030298463, 0.011436801892407306, 0.010585138982015456, 0.009959127610103249, 0.010260955428864665, 0.00869415259078976, 0.008313806761154936, 0.008463798418566176, 0.007379672943803412, 0.008759929483987976, 0.01007752703465317, 0.009521717606180464, 0.017037060711076534, 0.01830178025047511, 0.03418595196468112, 0.037871483722752744, 0.032419991784199555, 0.029995242599397898, 0.05420196077137695, 0.038185573967047706, 0.025306444494241007, 0.010385005637812658, 0.009945407305491689, 0.009770481540758496, 0.009752487015469474, 0.009560669279424047, 0.009621773680443901, 0.00969854079721533, 0.010296011362326973, 0.009851762518402482, 0.009621090636208952, 0.009800742679978746, 0.009780278259980232, 0.009714729920492748, 0.009746267967661622, 0.011497034718515778, 0.00993497588057105, 0.010849697477059946, 0.009898529069624174, 0.010166927034774254, 0.009844439012258973, 0.00990211564691659, 0.010147392553135999, 0.010176715884575624, 0.010183834216269703, 0.010075226452514883, 0.008160646729872748, 0.008072186394218335, 0.00811539222086206, 0.008108599078237085, 0.008041277515039637, 0.008059700243549602, 0.008047928138920387, 0.00804520574427283, 0.008024875317245612, 0.008004832943863963, 0.00797591519829778, 0.007996188515841525, 0.008006291795126972, 0.007990401064537779, 0.008009697000753182, 0.007967375068188095, 0.007948931488778843], "train_mve_loss": [0.6005080581431564, -0.12668590899216356, -0.16647876338893633, -0.14943660240215156, -0.16028476857207374, -0.15615616186770528, -0.13086536727076092, -0.11698148356004869, -0.08493164197117825, -0.09820279015919409, -0.1249698691237786, -0.11256592867851693, -0.13306109609177688, -0.1619013603206322, -0.15956809004543987, -0.1547912219168969, -0.08293393459954253, -0.16030652330033957, -0.07277100881577811, 0.04671070929889106, -0.14667081509732133, -0.13404199248094664, 0.05656307799676927, 0.26840263749157817, -0.1455861196974105, -0.07414022482373162, -0.07036560584690552, -0.07099419717985109, -0.071884650484211, -0.07247117893358308, -0.07317212303347845, -0.07411388447252826, -0.08702081737876402, -0.07824815116938497, -0.07406026957866478, -0.08128358387103955, -0.07514109429894815, -0.07999805162594376, -0.0756919707083935, -0.08904277668372852, -0.07879793891190318, -0.08971282397652253, -0.07650272910512125, -0.0779863171091293, -0.0760403648214636, -0.07973492017162238, -0.08069191712348073, -0.08235381600843705, -0.07775399032843995, -0.07765448191867191, -0.05954263912993985, -0.05927547902359169, -0.05958825512576365, -0.059551657104296045, -0.059174974491543915, -0.059273417844987006, -0.059200797434317345, -0.05937024558020902, -0.05904318604761329, -0.05920411465209407, -0.0590886166166017, -0.05900674866311511, -0.058934393800263864, -0.05898289110041623, -0.05892160063578834, -0.058716914662495394, -0.05878901895019864], "train_r2_score": [-0.04530006250976835, 0.9446485593856297, 0.9574518622622085, 0.9568315024106998, 0.9618152807734378, 0.9652017593493721, 0.96783988641834, 0.9697568193001149, 0.9689948410914466, 0.9734233694868306, 0.9747778988636145, 0.974366720071954, 0.9776025831302321, 0.9733116406276585, 0.9694172514701067, 0.9710108102510211, 0.9483965942326854, 0.9447445188040496, 0.8961859743161873, 0.8853586893969362, 0.9015034696297971, 0.910190833805681, 0.8363663483471184, 0.8856250251591992, 0.9239145636575188, 0.9685982552257936, 0.9699077537456412, 0.9704572098720652, 0.9705167625285326, 0.9710918397745152, 0.9709396307929495, 0.9706743209291255, 0.9688827914249208, 0.9701129171084294, 0.970947355636585, 0.9703700599408227, 0.9704094340399219, 0.9706138999373282, 0.9705438469744261, 0.9652260416661632, 0.969918967460639, 0.9672240424756442, 0.9700278942972189, 0.969318826091425, 0.9702055014919708, 0.9700978473734575, 0.9693050470307889, 0.9692294636025401, 0.9691283540804312, 0.9695451681543992, 0.9753096133143947, 0.9755704053417814, 0.975449313625647, 0.9754612969174795, 0.9756701762913388, 0.9756135867059592, 0.9756407235429615, 0.9756842468027271, 0.975743714820779, 0.9758089572764602, 0.9759018082679133, 0.9758364916933124, 0.9757954900875736, 0.9758158889221135, 0.9757578697522266, 0.9759037845196822, 0.975932178021744], "val_source_regression_loss": [0.016274939208656927, 0.012027408750845662, 0.011052786148613013, 0.022830985073896148, 0.03581412626972681, 0.009688264100894899, 0.03188005077970933, 0.045378657977415034, 0.005398560188639956, 0.005573129732326805, 0.014013795671347954, 0.021976208750488637, 0.005362725292061326, 0.005462822365822105, 0.006629355151583499, 0.00991552956166524, 0.009352574360710157, 0.010786547968046198, 0.025380035591182074, 0.014156922167520734, 0.01477262192653327, 0.028578223802054985, 0.014020697909254061, 0.01768020739708143, 0.012006568551487937, 0.010890608093453736, 0.010126859462478115, 0.01060831746015745, 0.0095744657660304, 0.008951952368539722, 0.010638450502264725, 0.008369430215864242, 0.00991712047871721, 0.010105482302606106, 0.009950518413576522, 0.00909853839209374, 0.010768181992152447, 0.01337973514123808, 0.01089487425228463, 0.010892255225843644, 0.00856387881632847, 0.011838220478377388, 0.010394857270949626, 0.013688268293213995, 0.010781882024264033, 0.007796069642505314, 0.008629063839870917, 0.009684465707668776, 0.008994658218248736, 0.010893768913855281, 0.008304648272268757, 0.00808863967798556, 0.007838309830927018, 0.008057033849432122, 0.008061948615491768, 0.008124702739753301, 0.007942022502280866, 0.00812572211946679, 0.008395473914857529, 0.008103627864790113, 0.007942085808638153, 0.00874793698091673, 0.007891836676369363, 0.008340188803127672, 0.008383574347377201, 0.00783788561349428, 0.007650692852897735], "val_target_regression_loss": [0.02174374418733995, 0.014568245403845853, 0.011626596350364293, 0.02555116850741302, 0.040585558059849314, 0.01191336680439454, 0.030643937284056143, 0.04997606995173647, 0.007245964724334735, 0.006370711759251507, 0.019099810355213246, 0.022079443889139575, 0.0063472002614996855, 0.006226788802496806, 0.0073333586495416825, 0.010898745153099298, 0.010247252421760106, 0.011993604841866071, 0.027098467054812215, 0.015110899411330495, 0.01670053673177203, 0.029606687989604624, 0.013845637181325804, 0.02008806884618877, 0.01384608777640741, 0.012467290758143497, 0.011542628472081469, 0.011479788907815385, 0.01079592469466638, 0.010132410634261898, 0.010868450762303193, 0.009514892686016952, 0.010388333338631105, 0.01070604174503986, 0.011772761203914503, 0.010681027204647094, 0.011800346336079926, 0.01570057430410687, 0.012802854699047305, 0.012706589272033565, 0.009534458942192642, 0.013669099747144345, 0.01224920231424555, 0.01616760377501008, 0.012521131017209985, 0.008827951595281498, 0.009201212485521278, 0.010555870583445965, 0.010495984478841853, 0.012834887421112271, 0.009732191521627239, 0.009428419832941851, 0.009135821757578775, 0.009551259034749451, 0.009441740026909716, 0.00960227028360661, 0.009349909251485067, 0.009513397294367794, 0.0096916316866969, 0.009630070563075663, 0.009282416935208478, 0.010312261042196917, 0.00921466954854093, 0.00972374441998103, 0.00988916060120999, 0.009178102641260321, 0.008829703772605597], "val_source_r2_score": [0.9500989715822983, 0.9632970040355491, 0.9661447096078181, 0.9296309392290663, 0.8900184222692502, 0.9703090308672688, 0.9017647433996039, 0.8610178054628729, 0.9835350889700976, 0.9829073597945976, 0.9570199837292167, 0.9314092524525457, 0.9835175815989597, 0.983223578327624, 0.9797992513327863, 0.9695274109421294, 0.9713863370730685, 0.9669675666241573, 0.9222807499322858, 0.9559710993386908, 0.9548153434331641, 0.9125211863338957, 0.9570522934325817, 0.9464078323245917, 0.9631325293381621, 0.9666685071208968, 0.968984780247617, 0.9675940720624385, 0.970648563632746, 0.9726312121751419, 0.967433818350683, 0.9744988630615674, 0.9696413342191536, 0.9687922408852844, 0.9694728766756529, 0.9720181226131437, 0.9669430543916294, 0.9593791136879106, 0.9664778586242916, 0.9668607943619162, 0.973842920946067, 0.963595975746225, 0.9680938329340719, 0.9579089085325827, 0.9670191132780415, 0.9761794099818263, 0.9736651733893336, 0.9703786841536436, 0.9725563370114856, 0.9667550377371055, 0.9746544543779979, 0.975258462056553, 0.976095863773969, 0.9753062059654807, 0.975298760364196, 0.9751682263215182, 0.9756747699247564, 0.9749984797822415, 0.9743548098925813, 0.9752461364418747, 0.9757346824144661, 0.9733606252041664, 0.9758668787937034, 0.9746817651036049, 0.9744989671151304, 0.9762787766821904, 0.9764955320044292], "val_target_r2_score": [0.9352261877828143, 0.9557066184378445, 0.9653920503003806, 0.9238134956140687, 0.87861919530608, 0.9635717011520903, 0.9087000845933064, 0.8514610340784796, 0.9787563088024731, 0.9809571290468629, 0.942750855476572, 0.9337520824618238, 0.9811997341520947, 0.981509984967638, 0.9781096741264437, 0.967703841279124, 0.9693853930588603, 0.964335010786994, 0.9195056756556901, 0.955090938594259, 0.9502369661142356, 0.9120173273862588, 0.9589172075530424, 0.9403621870477968, 0.9587425541475355, 0.9629417768870786, 0.9656861695636365, 0.9659139029975101, 0.967900408360776, 0.9699243846329602, 0.9676461203150013, 0.9717308947694465, 0.9690248828576986, 0.9681417770034512, 0.9652085862842785, 0.9682116002800076, 0.9649977277663052, 0.9533564793122576, 0.9621483480067398, 0.962293811975462, 0.9716921556769069, 0.9593995190836385, 0.963577169542371, 0.9521148031914745, 0.9628170407558273, 0.9737449991262156, 0.9725808809284676, 0.9685606813351892, 0.9689615080388577, 0.9618263955271089, 0.9710389832669915, 0.9720490013445112, 0.972728445468013, 0.9717311935445803, 0.9719758631696841, 0.9714386066152622, 0.9722611750280246, 0.9717763470952866, 0.9711844814306154, 0.971419032273144, 0.9723159012837862, 0.9692990696347793, 0.9722828981816669, 0.9712422995998865, 0.9707103563822945, 0.9724580934190641, 0.9737937846911974], "val_source_mve_loss": [-0.22741702944040298, -0.24625112531305868, -0.2074720182373554, -0.06194741401491286, -0.21694585190543644, -0.17145412575594987, 0.09842110329743804, -0.1570294282953196, -0.04865145485235166, -0.2286931430991692, -0.09623453035196171, -0.12855098471988605, -0.2326835235462913, -0.2110833459639851, -0.2165616462125054, -0.2305552808544304, -0.15101470241818246, -0.15009969340849527, -0.12113766089270386, -0.07852177887777739, -0.22326739490786685, -0.13588780183580856, -0.2173322397696821, -0.107219066518017, -0.17717911906634706, -0.0602614188779004, -0.08110976841630815, -0.08621027452659004, -0.05913940451661997, -0.06427031585687323, -0.0887693978751762, -0.07020723980061616, -0.07551473034899446, -0.08430721789975709, -0.0845622262811359, -0.06480849765335457, -0.11451543697827979, -0.0697346774366083, -0.09931593652390226, -0.07192665352662907, -0.054607153504709655, -0.08409427026215988, 0.0011998832511680225, -0.04565215544610084, -0.05972535733746577, -0.05599816303841675, -0.06496200413454938, -0.032648935354067175, -0.05600144751841509, -0.04423766550195368, -0.058824315006974374, -0.05872337015557893, -0.05131829992125306, -0.05544640784022174, -0.06496247889686234, -0.045773772027673604, -0.0713522645491588, -0.054937558602305904, -0.05363478058878379, -0.058834868141367465, -0.04942361373878733, -0.05194964688978618, -0.06888063855563538, -0.0568158111617535, -0.06003862426062174, -0.06158059439327143, -0.06678993896215776], "val_target_mve_loss": [-0.22141442268709594, -0.244132652690139, -0.20686309548872936, -0.06150698091221761, -0.19613435826724088, -0.04770062015026431, 0.11028116479916852, -0.1398842053700097, 0.015811409860189203, -0.22770054468625708, 0.1992641117282306, -0.11616996883214274, -0.2307321412276618, -0.20932998555370524, -0.2161405795737158, -0.22972281050832966, -0.15008047619197942, -0.14876732777191115, -0.11908013901755779, -0.0774249520294274, -0.22148539371128323, -0.1347385573236248, -0.2176010425709471, -0.10472364950029156, -0.17516552685182304, -0.05781279612756983, -0.07907100333065926, -0.08519388263738609, -0.05730859025181094, -0.06274315214987043, -0.0889705811874776, -0.06856613158236576, -0.0752734629602372, -0.08375413027368014, -0.08181895532562763, -0.06227248096013371, -0.11322514486463764, -0.06579241387640374, -0.09649032080852532, -0.06892420276056362, -0.053284164706740196, -0.08126572651576393, 0.004695363665482949, -0.04099284968327118, -0.05664785305344606, -0.054529033554128456, -0.06433115791105017, -0.03145525771888751, -0.05340567391507233, -0.04047143041993244, -0.05642722320707538, -0.05651698280361634, -0.049156807598811164, -0.05291146223869505, -0.06275343371531632, -0.043179715547380565, -0.06912280270193197, -0.052659764980213554, -0.05144570947070665, -0.056237617059598996, -0.04726707902324351, -0.049189390449584286, -0.06681428868559343, -0.05452163842848585, -0.057494595646858215, -0.059352540469999555, -0.06502357941073707], "val_source_nll_loss": [728.1018292149411, -0.8019069335128688, -1.1686849065973788, 9781.207128817523, -0.844939329201662, 13.052074415019796, 11034.54917115803, 253.3441274596166, 2111.6113030156002, 11.949207983439482, 6771.51175780085, 1704.276787468904, 44.39224821404566, 28.30424575186983, -1.1662413485442535, -1.0215043342566188, -1.5335945841632312, -1.5066219492803645, -1.3437315210511414, -1.6465794572347328, -1.0219468542292147, -1.2380155566372448, -1.0717466541483431, 42.57379656803759, -1.3372861207286013, -1.8175635232201106, -1.8294747977317134, -1.79091216039054, -1.8878942139541046, -1.9154309834106058, -1.773076896426044, -1.936883487278902, -1.8374662731267228, -1.8144110878811608, -1.8209538610675666, -1.9120340573636792, -1.6808117115044896, -1.694434872156457, -1.7366741307174103, -1.799021696742577, -1.9360409356370758, -1.740333149704752, 736.2576246638841, -1.5921518802642822, -1.8199938882755329, -1.982581939878343, -1.9236746754827379, -1.5669786869725095, -1.923308733143384, -1.77135494841805, -1.9651357508912872, -1.9793441461611399, -1.9937899897370157, -1.9828590350815012, -1.9744293946254103, -1.952753427662427, -1.962488574317739, -1.9775311765791495, -1.9673934556260895, -1.979007998599282, -1.9857154013235359, -1.9283269507975518, -1.9746482251565667, -1.9689660223224494, -1.9601109012772766, -1.9942805767059326, -1.9937519680095623], "val_target_nll_loss": [799.5468719065943, -0.7952870409699935, -1.165701790700985, 9464.17738137215, 1302.4936962912354, 9464.931575945284, 12151.388180503362, 1183.0711769838877, 6944.735998226118, 15.339063648936115, 29776.785409639153, 2597.571528433999, 86.00714871249622, 73.09001371943498, -1.1605823824677286, -1.0165766009801551, -1.5199735617335839, -1.491119475304326, -1.320916343338882, -1.6144875212560725, -1.0132860745055765, -1.224417490295217, -1.0716593174994746, -1.4580611443217797, -1.3203868805607664, -1.726127162764344, -1.771704587755324, -1.7606693415702144, -1.8095541739765602, -1.854184792011599, -1.7667734381518787, -1.87958955312077, -1.8202550501763066, -1.7923063839538187, -1.7544546021690852, -1.8303339164468306, -1.6570748588706874, -1.5947074452532997, -1.6829226997834217, -1.7175772235363345, -1.877037330518795, -1.6756623938113828, 700.1110662146459, -1.4347663031348699, -1.7236131867275963, -1.9202046379258362, -1.8950546708288072, -1.6185867182816132, -1.826786506025097, -1.6235977713065812, -1.8751952949958512, -1.895698770692077, -1.899666896349267, -1.8829107088378714, -1.8957141381275804, -1.8441556480866443, -1.8912330654603016, -1.8825058816354485, -1.8770479235468032, -1.8824316534814955, -1.8878285175637355, -1.8156137285353262, -1.904960858670971, -1.8733823510664929, -1.8658889547179016, -1.9132048887542532, -1.9271629626237894], "da_weight": [1.4, 1.4, 1.4, 1.4, 1.4, 1.4, 1.4, 1.4, 1.4, 1.4, 1.4, 1.4, 1.4, 1.4, 1.4, 1.4, 1.4, 1.4, 1.4, 1.4, 1.4, 1.4, 1.4, 1.4, 1.4, 1.4, 1.4, 1.4, 1.4, 1.4, 1.4, 1.4, 1.4, 1.4, 1.4, 1.4, 1.4, 1.4, 1.4, 1.4, 1.4, 1.4, 1.4, 1.4, 1.4, 1.4, 1.4, 1.4, 1.4, 1.4, 1.4, 1.4, 1.4, 1.4, 1.4, 1.4, 1.4, 1.4, 1.4, 1.4, 1.4, 1.4, 1.4, 1.4, 1.4, 1.4, 1.4], "beta": [0.7, 0.7, 0.7, 0.7, 0.7, 0.7, 0.7, 0.7, 0.7, 0.7, 0.7, 0.7, 0.7, 0.7, 0.7, 0.7, 0.7, 0.7, 0.7, 0.7, 0.7, 0.7, 0.7, 0.7, 0.7, 0.7, 0.7, 0.7, 0.7, 0.7, 0.7, 0.7, 0.7, 0.7, 0.7, 0.7, 0.7, 0.7, 0.7, 0.7, 0.7, 0.7, 0.7, 0.7, 0.7, 0.7, 0.7, 0.7, 0.7, 0.7, 0.7, 0.7, 0.7, 0.7, 0.7, 0.7, 0.7, 0.7, 0.7, 0.7, 0.7, 0.7, 0.7, 0.7, 0.7, 0.7, 0.7], "epoch_no": 67}