{"train_DA_loss": [0.46571406569515766, 0.31529399270440367, 0.20101653798134278, 0.13551385200819105, 0.0965550036069135, 0.07529587515883515, 0.06206825484523389], "train_regression_loss": [2.074006853199528, 0.447647706545903, 0.2444880899225772, 0.1686503044865903, 0.11157712633202237, 0.0822920025866036, 0.06711865454176662], "train_mve_loss": [0.883496187804386, 0.06467424686236214, -0.04755948391705547, -0.0825000906523174, -0.08302267739579926, -0.07573810409434426, -0.08617833075564783], "train_r2_score": [-5.3215408737193775, -0.3531147728719273, 0.26158524403344213, 0.4906664707808403, 0.6634050164910231, 0.7512254193686476, 0.7968780371734763], "val_source_regression_loss": [0.7791940901852861, 0.28466699809967716, 0.20120498952986318, 0.1333046011343787, 0.09236152554991879, 0.07322820926768871, 0.061459424374978755], "val_target_regression_loss": [0.7236893282660956, 0.2971873358835148, 0.234129128576834, 0.16698002617193175, 0.11997129343733003, 0.0946462559926359, 0.07739873621848566], "val_source_r2_score": [-1.3842716219677729, 0.1322587365020107, 0.386589530574483, 0.5924630064401927, 0.7178463046965731, 0.7767676625110901, 0.8119394139241712], "val_target_r2_score": [-1.1479454603945873, 0.11413508729620267, 0.30705018122300703, 0.5047710015907849, 0.6440274240839605, 0.7177128613607593, 0.7703660391231091], "val_source_mve_loss": [0.23364228519457805, -0.02160381654843311, -0.07155007458751715, -0.08930051355045053, -0.08793522497709794, -0.0782930019629907, -0.10697083891947058], "val_target_mve_loss": [0.20261395034156268, -0.01992104150048351, -0.05635027719449393, -0.06466167278682129, -0.06605926604021954, -0.057241785846933534, -0.1006277966537053], "val_source_nll_loss": [0.468348626471773, -0.07256172202480367, 295.546246239609, 1380.8049686545435, 1056.3331821032718, 2992.181250944356, -0.6513328103325035], "val_target_nll_loss": [0.4783958362627633, -0.04277945871028719, 114.31649636604553, 5473.780065316565, 4322.972173457093, 7574.118185168581, 322.9676558488532], "da_weight": [1.4, 1.3983999999999999, 1.3967999999999998, 1.3952, 1.3936, 1.392, 1.3903999999999999], "beta": [1.0, 0.9966666666666667, 0.9933333333333333, 0.99, 0.9866666666666667, 0.9833333333333333, 0.98], "epoch_no": 7}