{"train_DA_loss": [0.03653736191016828, 0.009639745106123783, 0.008656491533132913, 0.008491316737889753, 0.00858945950228973, 0.00792955762644552], "train_regression_loss": [0.09115431567916214, 0.0216767900747671, 0.0160783287580423, 0.012817671200706602, 0.010388487176135374, 0.00962415864517473], "train_mve_loss": [-0.04071601315348714, -0.07924997161029305, -0.055217626011218296, -0.038625975717099595, -0.035421502402723105, -0.0324374554636818], "train_r2_score": [0.7215040729566949, 0.9340944085249966, 0.9511723061328339, 0.9611042072922457, 0.9685627847053043, 0.9707579631063197], "val_source_regression_loss": [0.023013218058438242, 0.013449175860968571, 0.009416506201311757, 0.011114812674165904, 0.010663414651032868, 0.006360639128362453], "val_target_regression_loss": [0.024169046643979942, 0.01710057627598319, 0.012342242011210964, 0.014441874290851853, 0.012670643226821212, 0.008508756621210258], "val_source_r2_score": [0.929253850919334, 0.9587909746917971, 0.9712299949524055, 0.9655739866349565, 0.9671463548938146, 0.9805103659259397], "val_target_r2_score": [0.9283459926912732, 0.9482861696606666, 0.9652068394211206, 0.9571355788772008, 0.9620210644680756, 0.9744679874768254], "val_source_mve_loss": [-0.020254432606876274, -0.12876056879758835, -0.09501132633112654, -0.06693707863929906, -0.022042949294930773, -0.037826993797398824], "val_target_mve_loss": [-0.019742279543388117, -0.12702110051354276, -0.09445110194479363, -0.06507607386742212, -0.021189612413084584, -0.03686775033704088], "val_source_nll_loss": [47059.45357001582, -0.9610997031006632, -1.2392123092578937, -1.4426218422153327, 84.26763365540323, -1.8517209608343583], "val_target_nll_loss": [50122.00182950949, -0.9469101579883431, 3138.4245609331733, 4922.103036599823, 2376.983915186381, -1.7980724226070355], "da_weight": [1.4, 1.4, 1.4, 1.4, 1.4, 1.4], "beta": [1.0, 0.994, 0.988, 0.982, 0.976, 0.97], "epoch_no": 6}