{"train_DA_loss": [0.049919948380242975, 0.03589874293512139, 0.036734256556281444, 0.038069595799013506, 0.039330898302265015, 0.03880299721083432, 0.03930675690922157, 0.039392022044828646, 0.03994003955063698, 0.04036545340428078, 0.04198065507387439, 0.0460765467108767, 0.043092848763714324, 0.042183822650850585, 0.042319638988299386, 0.042420439701357095, 0.043109678801224044, 0.04238299878698925, 0.04310058573536725, 0.04263673667920246], "train_regression_loss": [0.08972089925110067, 0.01803618137957954, 0.028086109870918762, 0.017036588937452767, 0.04048221275317644, 0.01403985135265757, 0.022308023052266247, 0.018536536753862087, 0.017550094633310406, 0.020371794121738326, 0.026138406660632524, 0.02118865006400691, 0.010342692805222582, 0.016631542369587114, 0.02798919064134114, 0.031969283346488554, 0.032846117155520854, 0.033810572782991086, 0.04604346334246384, 0.029179707864193855], "train_mve_loss": [0.19576390351763018, -0.158692681866526, -0.16115842186769222, -0.12549201892671843, -0.15361534772607646, -0.14251883250577768, -0.14129861978000163, -0.14606081963545717, -0.07609106653320588, -0.14788937912930408, 0.017466835177910447, 1.1075452888355517, -0.14099588420351036, -0.1608237718620169, -0.18669634915282185, -0.05399204751432378, 0.0026740491470250505, 0.15323421961272057, 0.3276812014709715, -0.11234415587977638], "train_r2_score": [0.7233782441174561, 0.9449864762201757, 0.9137066530651262, 0.9481582288193686, 0.8748484809070259, 0.9573682573113791, 0.9332218768072301, 0.943652386188724, 0.9468109741293304, 0.937858206480423, 0.920263389169105, 0.9355761120282229, 0.9687325324893601, 0.9491147521946721, 0.9155466512780427, 0.9029740833724657, 0.9004271101021082, 0.8969725975634731, 0.8589835593456873, 0.9114121817797434], "val_source_regression_loss": [0.0134250567872313, 0.009789304171181932, 0.010304954828387952, 0.024015803951062734, 0.08483963709654688, 0.007545938738916493, 0.10831729096325138, 0.007108485361537601, 0.00798574654102514, 0.008783384002273596, 0.05090708870299255, 0.005061295039692446, 0.006232563370862339, 0.009295201200190225, 0.013121005766612442, 0.059886712392296974, 0.010805707831595894, 0.01405102500244032, 0.011168809902347341, 0.027139872100345696], "val_target_regression_loss": [0.014674626396898227, 0.010617816213612692, 0.011287472806163604, 0.025757926810957208, 0.08862923462934132, 0.00832583571937454, 0.11056566106367714, 0.0077239513880561425, 0.00856215376524797, 0.009401766836784686, 0.051338805475189715, 0.005709320583816947, 0.0073455012922139865, 0.010154558887964562, 0.014453245680543441, 0.06224954604536672, 0.012532309027789514, 0.015968276600388787, 0.012654701088661258, 0.02919634393876112], "val_source_r2_score": [0.9585308859715295, 0.970202714025654, 0.9681078410485504, 0.9259346729361267, 0.7392731778800381, 0.9768315324658562, 0.6682653297820256, 0.9782972953270077, 0.9756182279567438, 0.9727631032532368, 0.8426245145691411, 0.9846040185746374, 0.9808872973775896, 0.971280810132258, 0.9598613036701517, 0.8160108505687859, 0.967115511984024, 0.9570197247631542, 0.9658531095878499, 0.9169338167069092], "val_target_r2_score": [0.9558174177052977, 0.9683712827900988, 0.9664790237307073, 0.923449728050128, 0.736489826606157, 0.9750531397802724, 0.6708347482949008, 0.976300743057484, 0.9746185378256436, 0.9719938292576943, 0.8473456849374228, 0.982917376465579, 0.9781376845181589, 0.9698642629201091, 0.9570960587809895, 0.8144689477547288, 0.9628482808227324, 0.9527312571889343, 0.9625377693020744, 0.9130703135715709], "val_source_mve_loss": [-0.07781052828731039, -0.1754885363050654, -0.16196259705326224, 0.0024717218372263487, 4.52869154984438, -0.18323629698421381, -0.18024240585067605, -0.25332412425475787, -0.22176867251909232, -0.2453395311213747, 3.2043104926242103, -0.2051890965881227, -0.1956624217048476, -0.21087669779228257, -0.2455788639527333, -0.07787718793636636, -0.1828429040652287, -0.23004183701322048, -0.08920002558940573, -0.13337956331198728], "val_target_mve_loss": [-0.07163658613174022, -0.17085712544525725, -0.159621883042251, 0.015277639891999432, 4.750215934801705, -0.18298031634922268, -0.1785666489902931, -0.25283330773250967, -0.22146017509925214, -0.2448033473536938, 3.2314854845216003, -0.2048718499231942, -0.19461777391312998, -0.2102658863686308, -0.2444984986435009, -0.07493839757163313, -0.1812416884718062, -0.22834661999080755, -0.0878605636992032, -0.1309902094587495], "val_source_nll_loss": [5797.06216932852, 288.4083345132538, -1.4388812418225445, 10156.24304353738, 357421.46627768985, -1.3694830800913558, -0.4302708419817912, -0.8146477567998669, -1.1138903023321418, -0.9007044819336903, 254527.37915348102, -1.264265836039676, -1.3109682904014104, -1.172723326501967, -0.842308608037007, -0.8381970449338986, -1.3299514870100384, -0.9803696312481844, 34.8533247588556, -1.2721380055705203], "val_target_nll_loss": [6379.660908922365, 561.967791238163, 25.603226145611533, 10895.951935200752, 374831.809335443, -1.3590447646153123, -0.42601164345499837, -0.812388214883925, -1.1094917677625824, -0.8986709004716028, 256685.96420094935, -1.2573728199246563, -1.3011790589441228, -1.166068221949324, -0.8379381359377994, -0.8068601504156862, -1.3136809656891641, -0.9721658954137489, 6.454007136670849, -1.245273834542383], "da_weight": [1.4, 1.4, 1.4, 1.4, 1.4, 1.4, 1.4, 1.4, 1.4, 1.4, 1.4, 1.4, 1.4, 1.4, 1.4, 1.4, 1.4, 1.4, 1.4, 1.4], "beta": [0.7, 0.7, 0.7, 0.7, 0.7, 0.7, 0.7, 0.7, 0.7, 0.7, 0.7, 0.7, 0.7, 0.7, 0.7, 0.7, 0.7, 0.7, 0.7, 0.7], "epoch_no": 20}