{"train_DA_loss": [0.46571406569515766, 0.3153731017296885, 0.2011737395384412, 0.13566098515441474, 0.09655407370771307, 0.07540391620514161, 0.062401686817189675, 0.0546944878716192, 0.049429081496144125, 0.04457448470581602, 0.04128890958916008, 0.03983535457545486], "train_regression_loss": [2.074006853199528, 0.44764770744487614, 0.24450653796875935, 0.1688726375073576, 0.11169206495422332, 0.08222094908955982, 0.06645738910985821, 0.054928359713480285, 0.04567156014265918, 0.03796735796498533, 0.032140845575896, 0.027975575426351654], "train_mve_loss": [0.883496187804386, 0.06467499223838252, -0.04756546223628074, -0.0822527581481927, -0.08181357261140779, -0.0793835986116169, -0.06866136639697351, -0.062456858264353855, -0.06143605476841194, -0.057548192917101997, -0.04979704202270268, -0.11564771972010951], "train_r2_score": [-5.3215408737193775, -0.3531146736588559, 0.2615293961480099, 0.4899914053413333, 0.6630572416007707, 0.7514422350523976, 0.7988891672735885, 0.8339463679054395, 0.8619367549306821, 0.8852031703952458, 0.9025821815938239, 0.9152686784249406], "val_source_regression_loss": [0.7791940901852861, 0.2846752190137211, 0.20123066781442375, 0.13336424312636821, 0.09216098426074922, 0.0733048809762997, 0.05956104058253614, 0.04936523084776311, 0.041567367253990115, 0.03488188012962854, 0.029502282107744037, 0.027698320489895494], "val_target_regression_loss": [0.7236893282660956, 0.2971612575310695, 0.2341321193719212, 0.166989769267885, 0.1199350433447693, 0.09444288871710814, 0.07689415894543068, 0.06366748735308647, 0.052272506576927405, 0.04342819495668894, 0.037634037835877154, 0.03489481318223325], "val_source_r2_score": [-1.3842716219677729, 0.1322331960875101, 0.3865118141468056, 0.5922856008886191, 0.7184634745856876, 0.7765472793290588, 0.8177456502298686, 0.8490689953292582, 0.87373110906831, 0.8935366495662225, 0.9093262757935872, 0.9143893407393646], "val_target_r2_score": [-1.1479454603945873, 0.1142132657171934, 0.30704255134140107, 0.5047400805942843, 0.6441280937829439, 0.7183137204890232, 0.7718946677282773, 0.8111571779965032, 0.8447823774611263, 0.8705314814385978, 0.8877217343856173, 0.8952337976437896], "val_source_mve_loss": [0.23364228519457805, -0.021597291749630924, -0.0715495939307575, -0.09250216115313241, -0.07517615257750583, -0.07753745556066308, -0.06091822674380073, -0.05441492876108689, -0.05644253787549236, -0.06171177186166184, -0.05910139148936996, -0.13883649604984477], "val_target_mve_loss": [0.20261395034156268, -0.0199265312344496, -0.05634646042238308, -0.06869283686333065, -0.04852608944984931, -0.05946205245165885, -0.04614994993221156, -0.0423606124859822, -0.04774492226918287, -0.054777835743336736, -0.05385779773321333, -0.1339507430225988], "val_source_nll_loss": [0.468348626471773, -0.07253648394930966, 296.83318674125815, 465.01950018560586, 7044.773607085022, 1546.772662292553, 4939.114310389833, 4605.038532555858, 4268.26848647187, 2558.0813387315484, 2009.6141500125957, 6679.145181004005], "val_target_nll_loss": [0.4783958362627633, -0.042803198284811425, 114.7880921273292, 4151.201270570106, 16921.23256789582, 6419.798996442104, 11556.94320640081, 11640.869159939923, 9695.596796349633, 6628.2350611422635, 5768.245325498943, 7320.577460566654], "da_weight": [1.4, 1.3973333333333333, 1.3946666666666665, 1.392, 1.3893333333333333, 1.3866666666666665, 1.384, 1.3813333333333333, 1.3786666666666665, 1.376, 1.3733333333333333, 1.3706666666666665], "beta": [1.0, 0.9966666666666667, 0.9933333333333333, 0.99, 0.9866666666666667, 0.9833333333333333, 0.98, 0.9766666666666667, 0.9733333333333334, 0.97, 0.9666666666666667, 0.9633333333333334], "epoch_no": 12}