{"train_DA_loss": [0.04001658555831917, 0.01253861741041952, 0.01353532483484562, 0.022048458510625025, 0.011520644411499147, 0.01019136099803723, 0.03347146926703991, 0.04046437762344811, 0.041232691131322774, 0.04095032124080349, 0.041100666521566576, 0.04025122519902599, 0.041015623467659384, 0.040229988935653806, 0.04114831799821727, 0.04154144454972182, 0.040857030858559844, 0.04231932426767059, 0.04064156127824589, 0.04214673101011548], "train_regression_loss": [0.12320442893925435, 0.016791992453888904, 0.01202084911541104, 0.010307587559336636, 0.010379557732758291, 0.01138018954960694, 0.04331655475571479, 0.060469080966435905, 0.03818458654633442, 0.04960583734038325, 0.053573818489146406, 0.04861120531808796, 0.0480983430788711, 0.04853462253167708, 0.05222882110782145, 0.047218661968148494, 0.04504115389527198, 0.0448900166800215, 0.05153807609510596, 0.047587297046369784], "train_mve_loss": [0.005547905238847533, -0.06776200362361569, -0.06315532039309948, -0.051659228271248, -0.0472636054445763, -0.045579800505269406, -0.06440281721216778, -0.041196276972213355, -0.0175988556411955, -0.07151867770734609, -0.0744115691942757, -0.07352074960389701, -0.07344621599445858, -0.07792722815911625, -0.07398279099444258, -0.07582637318452544, -0.07402534470246454, -0.07361621600260763, -0.07727122386633138, -0.05352008187103935], "train_r2_score": [0.6234951747477255, 0.9490847110040163, 0.9634606502675853, 0.9687377186758678, 0.9684845091595817, 0.965547425827285, 0.8681145564473757, 0.8168155660752022, 0.88446121022382, 0.8500359617855421, 0.8376401589083962, 0.853015832593702, 0.8547058793952697, 0.8529274436173848, 0.8416773554114457, 0.8571484409817558, 0.8637340871594478, 0.8637133931058809, 0.8437380208122692, 0.8556793838154366], "val_source_regression_loss": [0.01674761715097518, 0.01604682304955359, 0.008888639922289155, 0.009370279569131664, 0.012608750133857698, 0.013390131660183019, 0.04918458289172076, 0.03493990164391602, 0.04695926333152795, 0.024164182970984074, 0.06806341596419298, 0.10649043406489529, 0.07428680864881866, 0.043979513352807566, 0.052595846779361556, 0.035933195271446734, 0.04794551323674902, 0.05917346604828593, 0.03699206237834465, 0.046262850536953046], "val_target_regression_loss": [0.025656898505985737, 0.02062260522212409, 0.010631390841371274, 0.03132421083606874, 0.020215138569002665, 0.020571933010050766, 0.05166005586049979, 0.03739841496925565, 0.050713468248708336, 0.02542998469611512, 0.0710366425352006, 0.1117940497926519, 0.07890589648409735, 0.04736695386752297, 0.05551393165052691, 0.040521329457435425, 0.053387524866605106, 0.059798994396306294, 0.04128141592763647, 0.04909532257839094], "val_source_r2_score": [0.948577886231746, 0.9508932635153398, 0.9728259055488492, 0.9712425019192262, 0.961106991831532, 0.9588687295318608, 0.848484988607258, 0.8932931873811655, 0.8560670695296774, 0.9260716777496835, 0.7913914203101061, 0.6736993208130923, 0.7724406783488279, 0.8645500057735311, 0.8394732055043795, 0.8892213729691956, 0.8532943043649904, 0.8182972411085564, 0.8868924417590791, 0.8578159979285275], "val_target_r2_score": [0.9236174802481217, 0.938219706655907, 0.9687811856311641, 0.9055208555769688, 0.9396065460602225, 0.9388870398882084, 0.846618009636258, 0.8887228532576953, 0.8493129361877897, 0.9240250819618372, 0.7884533056415582, 0.6669969087806193, 0.7665595113498632, 0.8594174248709668, 0.8342540526296988, 0.8798553371564226, 0.8406462230519504, 0.8217401355256859, 0.8777082707043065, 0.8547229436734659], "val_source_mve_loss": [-0.04045120322534555, -0.09973087623904023, -0.056199442217998864, -0.036297354988659485, -0.02798787716634666, -0.07994182813393919, -0.08452460245241093, 0.08755316231635553, -0.044167707709571985, -0.06292214735022074, -0.07560598100476627, -0.04053332293524018, -0.034421914021331296, -0.06368521086965935, -0.05307750512338892, -0.10814638963983028, -0.05966322920933555, -0.10189807811115362, -0.0512546353230748, -0.08562840474180028], "val_target_mve_loss": [-0.029736865123238743, -0.09793728571149367, -0.05509441258692289, 0.0025451841375118568, -0.015622931556139566, -0.07421810594917852, -0.08301315220850933, 0.09371404283786122, -0.04166228753290599, -0.06222796440124512, -0.07380538674283631, -0.03713119325900002, -0.03133515403547053, -0.061478528135185, -0.05125067166135281, -0.10530062312189536, -0.056055588718456555, -0.1015459648981879, -0.04835589479985116, -0.08387834918272646], "val_source_nll_loss": [32379.44825454905, -1.291775362401069, -1.6966736693925495, 12.015467321570915, -1.71941355512112, -1.4506455161903478, -0.9898364166670208, 174691.44768591772, -0.9599114656448364, -1.3314980887159515, -0.8629982826075976, -0.5544953214216836, -0.7196751565118379, -1.0355753453471992, -1.0008095035070106, -1.028269994862472, -0.9796750786938245, -0.8793733821639532, -1.1253051380567913, -1.0273694848712487], "val_target_nll_loss": [40542.21219837816, -1.2534019645256331, 309.6123655581776, 57966.68690778636, 18528.612849246852, 2522.1133114816266, -0.9713683218895635, 186984.0136471519, -0.8950962537451636, -1.3089693799803528, -0.84220551539071, -0.5107946750483935, -0.6594374941874154, -0.9927231631701505, -0.9685600279252741, -0.9987774317777609, -0.9136516142495071, -0.8744603742527056, -1.0523703203925603, -1.0049402638326717], "da_weight": [1.4, 1.4, 1.4, 1.4, 1.4, 1.4, 1.4, 1.4, 1.4, 1.4, 1.4, 1.4, 1.4, 1.4, 1.4, 1.4, 1.4, 1.4, 1.4, 1.4], "beta": [0.9, 0.9, 0.9, 0.9, 0.9, 0.9, 0.9, 0.9, 0.9, 0.9, 0.9, 0.9, 0.9, 0.9, 0.9, 0.9, 0.9, 0.9, 0.9, 0.9], "epoch_no": 20}