{"train_DA_loss": [0.074045705692451, 0.03930873027108814, 0.03540397714653224, 0.027051034002093226, 0.018039567373910922, 0.017921314067403077, 0.017798688115426075, 0.019872512702423215, 0.02286352974939853, 0.01902650184486695, 0.021921510346765056, 0.029781210083017293, 0.03459399504420199, 0.03830306778169855], "train_regression_loss": [0.3390971788152426, 0.018209799403968305, 0.013946445384684276, 0.014198767006826303, 0.012644226030298463, 0.011436801892407306, 0.010585138982015456, 0.009959127610103249, 0.010260955428864665, 0.00869415259078976, 0.008313806761154936, 0.008463798418566176, 0.007379672943803412, 0.008759929483987976], "train_mve_loss": [0.6005080581431564, -0.12668590899216356, -0.16647876338893633, -0.14943660240215156, -0.16028476857207374, -0.15615616186770528, -0.13086536727076092, -0.11698148356004869, -0.08493164197117825, -0.09820279015919409, -0.1249698691237786, -0.11256592867851693, -0.13306109609177688, -0.1619013603206322], "train_r2_score": [-0.04530006250976835, 0.9446485593856297, 0.9574518622622085, 0.9568315024106998, 0.9618152807734378, 0.9652017593493721, 0.96783988641834, 0.9697568193001149, 0.9689948410914466, 0.9734233694868306, 0.9747778988636145, 0.974366720071954, 0.9776025831302321, 0.9733116406276585], "val_source_regression_loss": [0.016274939208656927, 0.012027408750845662, 0.011052786148613013, 0.022830985073896148, 0.03581412626972681, 0.009688264100894899, 0.03188005077970933, 0.045378657977415034, 0.005398560188639956, 0.005573129732326805, 0.014013795671347954, 0.021976208750488637, 0.005362725292061326, 0.005462822365822105], "val_target_regression_loss": [0.02174374418733995, 0.014568245403845853, 0.011626596350364293, 0.02555116850741302, 0.040585558059849314, 0.01191336680439454, 0.030643937284056143, 0.04997606995173647, 0.007245964724334735, 0.006370711759251507, 0.019099810355213246, 0.022079443889139575, 0.0063472002614996855, 0.006226788802496806], "val_source_r2_score": [0.9500989715822983, 0.9632970040355491, 0.9661447096078181, 0.9296309392290663, 0.8900184222692502, 0.9703090308672688, 0.9017647433996039, 0.8610178054628729, 0.9835350889700976, 0.9829073597945976, 0.9570199837292167, 0.9314092524525457, 0.9835175815989597, 0.983223578327624], "val_target_r2_score": [0.9352261877828143, 0.9557066184378445, 0.9653920503003806, 0.9238134956140687, 0.87861919530608, 0.9635717011520903, 0.9087000845933064, 0.8514610340784796, 0.9787563088024731, 0.9809571290468629, 0.942750855476572, 0.9337520824618238, 0.9811997341520947, 0.981509984967638], "val_source_mve_loss": [-0.22741702944040298, -0.24625112531305868, -0.2074720182373554, -0.06194741401491286, -0.21694585190543644, -0.17145412575594987, 0.09842110329743804, -0.1570294282953196, -0.04865145485235166, -0.2286931430991692, -0.09623453035196171, -0.12855098471988605, -0.2326835235462913, -0.2110833459639851], "val_target_mve_loss": [-0.22141442268709594, -0.244132652690139, -0.20686309548872936, -0.06150698091221761, -0.19613435826724088, -0.04770062015026431, 0.11028116479916852, -0.1398842053700097, 0.015811409860189203, -0.22770054468625708, 0.1992641117282306, -0.11616996883214274, -0.2307321412276618, -0.20932998555370524], "val_source_nll_loss": [728.1018292149411, -0.8019069335128688, -1.1686849065973788, 9781.207128817523, -0.844939329201662, 13.052074415019796, 11034.54917115803, 253.3441274596166, 2111.6113030156002, 11.949207983439482, 6771.51175780085, 1704.276787468904, 44.39224821404566, 28.30424575186983], "val_target_nll_loss": [799.5468719065943, -0.7952870409699935, -1.165701790700985, 9464.17738137215, 1302.4936962912354, 9464.931575945284, 12151.388180503362, 1183.0711769838877, 6944.735998226118, 15.339063648936115, 29776.785409639153, 2597.571528433999, 86.00714871249622, 73.09001371943498], "da_weight": [1.4, 1.4, 1.4, 1.4, 1.4, 1.4, 1.4, 1.4, 1.4, 1.4, 1.4, 1.4, 1.4, 1.4], "beta": [0.7, 0.7, 0.7, 0.7, 0.7, 0.7, 0.7, 0.7, 0.7, 0.7, 0.7, 0.7, 0.7, 0.7], "epoch_no": 14}