{"train_DA_loss": [0.5151310953187332, 0.5036668058695916, 0.49148216956657725, 0.47054902078682587, 0.4420878029883017, 0.4038124817271991, 0.36258390811450736, 0.32386490174141835, 0.2875150934651739, 0.2521976516794897, 0.2191355682405519, 0.1864068372893595, 0.15747093839717305, 0.13428008105517306, 0.11538194583718694, 0.1004114990042594, 0.08798141123716749, 0.07925703117055256, 0.07157994073286135, 0.06532709557951259, 0.059446444520403305, 0.05640876838014592, 0.05376581969233383, 0.05219061182679054, 0.051216308511044466, 0.04720077066387729, 0.04672819429112963, 0.04408014679780499, 0.04410926086089184, 0.04247799234795069, 0.041959814873730024, 0.03988975344372188, 0.04053690908663996, 0.04059356360115669, 0.04043159459188063, 0.04043863549270076, 0.03918726395277589, 0.03948483420314584, 0.03819129603082345, 0.03876665374519511, 0.03852270118606156, 0.037719558944867775, 0.03771735030401777, 0.03661194079005631, 0.03630051755055213, 0.03740530608518141, 0.036179874483938626, 0.03639257092444291, 0.03541968733589872, 0.03477562795405087, 0.035016213654382136, 0.03478204910822172, 0.03462259396161523, 0.035431124532162815, 0.033880753054452116, 0.033658820883774455, 0.03258988534319989, 0.0328856399129579, 0.03413878276712607, 0.03312426414919619, 0.033797923964150316, 0.03469187346452224, 0.03216893978798302, 0.03293338845359669, 0.03329373712581625, 0.03236718413843969, 0.0324905701015669, 0.03334385975241879, 0.032220608517323265, 0.033040033452471605, 0.03144958207019395, 0.031445316915865135, 0.03212544162650431, 0.031965020919726035, 0.03321848169200708, 0.03171239741541568, 0.03267249498359682, 0.03145070835757299, 0.032221716949528925, 0.03249786032442092, 0.03226901292358227, 0.03276998643172561, 0.03246059780514763, 0.03186847745241696], "train_regression_loss": [3.3442474666853492, 2.151948579486589, 1.3034647261856678, 0.7740187965319841, 0.48356613838258566, 0.34817206963106745, 0.28922541954399683, 0.2581355016835211, 0.2300003041841866, 0.19878078558545226, 0.16524056781090155, 0.1343542833487338, 0.11114574997418541, 0.0945911591215369, 0.08079577418524343, 0.07049013006158678, 0.06234873384509706, 0.05549271907691437, 0.049798322235399234, 0.044664509437801196, 0.04031424369778777, 0.03740124027134078, 0.035791120292717624, 0.03399246544245174, 0.03223513694687779, 0.030659350309473286, 0.029118370152396954, 0.02799588566989905, 0.027389448285920093, 0.026730724094500273, 0.02602687585840114, 0.025471594913350163, 0.025217919620656334, 0.02443767766343937, 0.02381269457040038, 0.023231180829133915, 0.022691051176045994, 0.02224571025935453, 0.021692579257994945, 0.021340013296093103, 0.0210140834918324, 0.020817046121811626, 0.020387865211371967, 0.020102199066559728, 0.019659636199978306, 0.019352591560789174, 0.019080627003047867, 0.01867113416500294, 0.01841617852851231, 0.017992543323915554, 0.017706263359207015, 0.017318741818532428, 0.017151594853243184, 0.016845397077419097, 0.016545232349642343, 0.016337840067021808, 0.016161560421465628, 0.01603360219570847, 0.015906559509417585, 0.01581887557074237, 0.015557609466151411, 0.015499835638108049, 0.01536450865533768, 0.015374858405652168, 0.015255930115021016, 0.015253288094192689, 0.01517027242439484, 0.015081133858608917, 0.014894034201023892, 0.014828133458097957, 0.014722136789132624, 0.014573400717575982, 0.014476842109039018, 0.014416352137446513, 0.014310880052521688, 0.014162900907002812, 0.014210503114220539, 0.014026925293813839, 0.014267386885622084, 0.014015453338105456, 0.013926412077651272, 0.013811763902101155, 0.01369851626544319, 0.013686108845584027], "train_mve_loss": [1.556216066018755, 0.9266774357999701, 0.4942116790214448, 0.22564809345784964, 0.07809484575090204, 0.00936656758905145, -0.02140598958107035, -0.03766545794701623, -0.053273946421401375, -0.06955540446024831, -0.08348248599665802, -0.0892602748942427, -0.09132331363104243, -0.0888992462092687, -0.08440539175627491, -0.08668963915380688, -0.08556962549563844, -0.07970716039372619, -0.07388502516029521, -0.07304024510255842, -0.0843232841021509, -0.10451409971201878, -0.08955055453441696, -0.0803780921852349, -0.07175911827458978, -0.06966696077552531, -0.08720387950185449, -0.08736284988399398, -0.11830130745903665, -0.11968560027847343, -0.09063027812750292, -0.08541841510090793, -0.10981872122074177, -0.09341929639115848, -0.08980603339031366, -0.09003983247323707, -0.11940058544141936, -0.09892849632329435, -0.12372098927142633, -0.09305904906454208, -0.13185569193125643, -0.09786486548032795, -0.09457255782767231, -0.09559473549262697, -0.09041813737840496, -0.08589103703524992, -0.10409305779981874, -0.09021057994862579, -0.09037909421123141, -0.10568832756587095, -0.08484814184593543, -0.09270358599817731, -0.129385443135306, -0.09778188775128377, -0.10635401187311361, -0.1052379377145436, -0.12300684920067761, -0.16120566487639215, -0.11036385475935404, -0.08970391185753306, -0.10916623346493928, -0.1284487627623722, -0.1483579757035977, -0.15429607608527546, -0.14294670994854933, -0.1875933896498227, -0.15201167577036556, -0.12674517450101633, -0.13600699079156575, -0.1222161439943793, -0.10702160129517699, -0.11982440300817028, -0.13053771071612727, -0.13644422116728544, -0.13605766989277093, -0.14201058382662166, -0.16135061306153617, -0.15569726342652027, -0.18109763485857946, -0.16310542687038182, -0.15323679719181557, -0.16010966916931232, -0.171785011002198, -0.16269239456047196], "train_r2_score": [-9.170067601286254, -5.527675677963543, -2.95408853768607, -1.3455300832726786, -0.46247532924034457, -0.053222760862668535, 0.12616945452318054, 0.2206246913440707, 0.30636345515704083, 0.3997028017883763, 0.500791489344921, 0.5944690339407421, 0.664751487886755, 0.7145215578010482, 0.7559732165697356, 0.7869214274330163, 0.8115343260483745, 0.8322393220089686, 0.8494017258881643, 0.8650447434859082, 0.8781282403200132, 0.8869275334997532, 0.891595963968588, 0.8971168599448804, 0.9024083301338514, 0.9072293030551499, 0.9118316428460844, 0.9153447854285462, 0.9171118421542445, 0.9189744846515728, 0.9212321512828815, 0.922927299193837, 0.9236259960823101, 0.9258411552021014, 0.9279303217150743, 0.9296165666314915, 0.9313160597978329, 0.9325255255264091, 0.9343025710260358, 0.9352797777204687, 0.9362222015496815, 0.9369443837499593, 0.9381664770365522, 0.9391969141474328, 0.9404810422077492, 0.9414415874677455, 0.9421735430090888, 0.9434337276076362, 0.9440873926632497, 0.9455120802548319, 0.9463055534469976, 0.9474142685760698, 0.9480046408038783, 0.9488875316150052, 0.9498196057922241, 0.9504643841474935, 0.9509977986539948, 0.9513332337018036, 0.9517708051509942, 0.9520474484450666, 0.9528975468344202, 0.9530363321199793, 0.9534141724262946, 0.9533579647503787, 0.9537501087588917, 0.9537717556703537, 0.9539970202849276, 0.954251562033402, 0.9548496452397374, 0.9550827827073041, 0.955349373916615, 0.9558163620404471, 0.9561164568543912, 0.956322484635041, 0.9565832650425211, 0.9570683575010952, 0.956861325991711, 0.9574111477598892, 0.9567900619063618, 0.9574175616653786, 0.9577513672568816, 0.9581424910609966, 0.9584271292289219, 0.9585145643300433], "val_source_regression_loss": [2.6910741570629653, 1.6549330972418, 0.990187363534034, 0.5851317730885518, 0.38914572890800764, 0.3041801614851891, 0.2673145560901376, 0.240160750814631, 0.21174335649496392, 0.18039295643190795, 0.14782106782062143, 0.12085511837201783, 0.10095989326887493, 0.08745046987940994, 0.07551936555323721, 0.06708531487214414, 0.05880206375371052, 0.0536290506679046, 0.047395679863947854, 0.04381641665402847, 0.039224995276595974, 0.03723332597107827, 0.034926292026721976, 0.033552001737341096, 0.0318501848916087, 0.029898767064832434, 0.029051384900378275, 0.028494991975117335, 0.02704913612407974, 0.026311389913287343, 0.02594678771175161, 0.02548797574790218, 0.025189528147442432, 0.02432810894767695, 0.02354565922972522, 0.02293915268552454, 0.02269407437194752, 0.022259247477484655, 0.021557226600243323, 0.02200125473775441, 0.02126536742324316, 0.020909777783517595, 0.020432410231213782, 0.019886030497241625, 0.020309371685114087, 0.019324021142777762, 0.018935327760026426, 0.018893462440729897, 0.01822069985202596, 0.0178272478353185, 0.01780880140022764, 0.01740305732841356, 0.017183898700566233, 0.016824681995601595, 0.016543502978320364, 0.01653856002501672, 0.01642809207020681, 0.0164435377132289, 0.016332426002319857, 0.01598011920393645, 0.015571334859049773, 0.015697581434174428, 0.015579063928674293, 0.015852114173901987, 0.01570292528058532, 0.015383708915567096, 0.015283371345434763, 0.015030256378216833, 0.01512699833587755, 0.015035711900814425, 0.014759778386995763, 0.015272145524998254, 0.014802069473964504, 0.014559586768191827, 0.014550766601121123, 0.0146244819146357, 0.014428826862403864, 0.014657920662643788, 0.014393075805487512, 0.014139241762930833, 0.014328093645221826, 0.014009134785001036, 0.013713392264009276, 0.013932391352762905], "val_target_regression_loss": [2.513622105876102, 1.5126610420927216, 0.8730316607257987, 0.5201461896111693, 0.35868072245694416, 0.30101632732379285, 0.2863791022874132, 0.2717231163118459, 0.25111899798429466, 0.2233545212428781, 0.19247820803636237, 0.16572970095314557, 0.14303515370510803, 0.1256316644670088, 0.10788630486666402, 0.09562738428387461, 0.08580027926194517, 0.07667539773296707, 0.06955933915097502, 0.06258834238293805, 0.05795444755614558, 0.05519066067247451, 0.051913395712647255, 0.04912746282695215, 0.04652271330167976, 0.043567562098555924, 0.041326322581006, 0.03871757695097712, 0.038206090466885625, 0.03612048784860327, 0.03432667415730561, 0.03423060108966465, 0.033295247656635094, 0.03266220594037183, 0.03260561707134865, 0.03117765812792733, 0.03076991801963577, 0.029535808211451846, 0.02917285489885113, 0.02880812530653386, 0.028376791673370556, 0.02753737359012984, 0.027253075868268556, 0.026689890984304344, 0.025910320208419726, 0.025812473254207567, 0.025538960047349145, 0.025136210000779056, 0.024572073234410227, 0.02406645471913905, 0.023625694191719913, 0.02372286103288584, 0.023326288837986656, 0.022831498409468163, 0.022513691288760945, 0.022687501344782642, 0.02222320537636929, 0.022473533531721636, 0.02282172287048041, 0.022394078147090688, 0.021598103373676916, 0.022228776324021666, 0.02221474334408965, 0.02246327583878478, 0.023040428168222875, 0.022627291246022606, 0.021797872525698776, 0.021791513466948194, 0.021638677314018147, 0.02177226946606666, 0.021636515396022345, 0.021337131545230557, 0.021125173160829878, 0.021133105188042303, 0.021379278135733513, 0.02120775475956594, 0.020623533573897578, 0.022002202517624143, 0.02082768253557667, 0.0203751623041079, 0.020624685431300086, 0.019882938871749595, 0.02027700597396757, 0.020653468839635578], "val_source_r2_score": [-7.261628114566212, -4.064187380912197, -2.0249873643919587, -0.7969314627125468, -0.19133896999252942, 0.07344625874867074, 0.18362093256975776, 0.26785351505068616, 0.3547869870382117, 0.4510199931079016, 0.5470768321158005, 0.6271612510285636, 0.6910981242230695, 0.7317614485611635, 0.7702969785746165, 0.7949220640002567, 0.8204480261860463, 0.8361389117832592, 0.8550015724602047, 0.8637263875880975, 0.8799408496501353, 0.8860357615948892, 0.8927552157178666, 0.8980627354587785, 0.9021335801918333, 0.90855045437789, 0.9107649018857488, 0.91290172273626, 0.9174033239761169, 0.9192914015667231, 0.9204956315361308, 0.9223249210914185, 0.922746792856384, 0.9251287873199012, 0.9275492380011152, 0.9292710926275454, 0.930043196363878, 0.9321318917856892, 0.9337703674002844, 0.9333033964580516, 0.9349695238942495, 0.9358282893966007, 0.936880709485008, 0.9388202931734924, 0.9375379393397364, 0.9407414662310868, 0.9419517191437362, 0.9422659979341867, 0.9441561507648892, 0.9454709522908552, 0.9455837679592062, 0.9464224978389004, 0.9476284016469366, 0.9483270169844789, 0.9490531493874952, 0.9495759557373916, 0.9495984248727392, 0.949164302138598, 0.9501155784225688, 0.9511901995032161, 0.9522432716047082, 0.9518996002578535, 0.9523200978169333, 0.95176028646606, 0.952149962313289, 0.9531798747310809, 0.95275937318831, 0.9539373239461195, 0.953552004186773, 0.9533829426632267, 0.9546885685719629, 0.9527789325033075, 0.9542976176668989, 0.9553185369239345, 0.9552648640628724, 0.9548728410952373, 0.9557194093188034, 0.9548331414224439, 0.9558765801415351, 0.9567531318080926, 0.9557959482857884, 0.9565662047365124, 0.9579093103492038, 0.9571922890541882], "val_target_r2_score": [-6.475987633266626, -3.526896404225428, -1.5915289932225207, -0.5488470335088752, -0.06436711897285123, 0.1023208864948557, 0.15508618963839935, 0.19541244638174923, 0.2561289686919401, 0.3353860767720476, 0.42814096453181955, 0.5058867704305293, 0.5765771580337767, 0.6282212851643995, 0.6789232142572542, 0.7171998322363731, 0.7435652616856437, 0.7728235074294534, 0.7928852545424763, 0.8146230416119997, 0.8274950321986809, 0.8365346317515819, 0.8458240573712676, 0.8537315561587955, 0.8611616721948745, 0.8697396436151618, 0.8768109218915723, 0.8845055317903353, 0.8863619226581712, 0.8928470090399714, 0.8978752560092098, 0.8979245522937331, 0.9011393766448956, 0.9029070352932875, 0.9031862667945261, 0.9070978231251475, 0.9082274526655445, 0.9121466584146085, 0.9133117427981533, 0.9142563682599679, 0.9155729410628218, 0.9182372648869421, 0.9186570131090687, 0.9207652074958435, 0.9228603131114949, 0.9233126123175095, 0.9232104908301403, 0.9250580650641838, 0.9271083172610194, 0.9284072230099679, 0.9298532413327907, 0.929594344060507, 0.9304209180762808, 0.9323411309724805, 0.9329953612710574, 0.9324503130035126, 0.9340770839121963, 0.9331120778442348, 0.9320056967861069, 0.9331724371081146, 0.9355550713588, 0.9337947720899544, 0.9327466411452092, 0.9337294240422492, 0.9316274694983498, 0.93177875542552, 0.9348681156693326, 0.9350796712087253, 0.9355953313263462, 0.9351856989714532, 0.9356621058354488, 0.9368349941543876, 0.9372069424699613, 0.9371821174365178, 0.9362874796028935, 0.9371921417152445, 0.9382437698330044, 0.9345056604793728, 0.9381046602182892, 0.9394443145786165, 0.9381213398309641, 0.9412361227088619, 0.9395647279215213, 0.9377674352718653], "val_source_mve_loss": [1.1985648281966583, 0.6707485205010523, 0.3348352699717389, 0.13023279531847073, 0.02985631094514569, -0.013363196838741438, -0.032406663961260566, -0.0476119240533702, -0.0628321541626525, -0.07790671084429833, -0.08799359324989439, -0.08864951275194748, -0.09887335600355003, -0.08202080138593534, -0.07815799567424044, -0.07463316150198254, -0.10635083036709435, -0.07347681411082231, -0.06473400019392182, -0.06386904809859735, -0.06954514758684967, -0.11251058636964122, -0.08128979009918019, -0.06432098103097722, -0.07279060441481916, -0.0718529640779465, -0.11136372896689403, -0.0813943744648861, -0.12000656061911885, -0.10004396614017366, -0.07167209524519835, -0.11452672564530675, -0.09919136573996724, -0.08996363087922712, -0.09924771872502339, -0.08581638043817086, -0.11059607829474195, -0.08061523386571981, -0.11889545063051997, -0.09026937672420393, -0.113315994980969, -0.09270179724391503, -0.08977819168114964, -0.08152820518876933, -0.08783684284249439, -0.07985311628708357, -0.09014551152911367, -0.13909319278937352, -0.07021506456068799, -0.12172638558888738, -0.09023394992079915, -0.0817617487775374, -0.09591844413853899, -0.10160700863675226, -0.08055843832560733, -0.11110178098271165, -0.16490288286269467, -0.11667073876420155, -0.08479094250669962, -0.08698545981057082, -0.11355365199756019, -0.11454257963201668, -0.18435739716397057, -0.12146171804847597, -0.19975181320045568, -0.16749525258812722, -0.11806764302751686, -0.10647792633198484, -0.11980595189747931, -0.10892495022544378, -0.10741616106486018, -0.10925657429461237, -0.1845861009404629, -0.10665151495722276, -0.08928449980065792, -0.13914992415075061, -0.15058940818792657, -0.14012242740468134, -0.1970331802775588, -0.13943774422890023, -0.15187998691314383, -0.1799390746068351, -0.14237399474729465, -0.2329177047255673], "val_target_mve_loss": [1.1056366095060035, 0.5962299908263774, 0.27251658975323545, 0.0938639182455932, 0.011510953622504691, -0.01802582461151141, -0.02553716767579317, -0.032445753217215025, -0.04146362091355686, -0.05054489143570013, -0.052672463245218314, -0.0472042799184594, -0.06703346189630183, -0.04347350118280966, -0.04313683329456592, -0.04436256161218957, -0.07913450972188878, -0.04488049725754351, -0.03471505275302673, -0.035003944028970564, -0.03789868674983707, -0.08478660956968236, -0.05030273147446068, -0.03159096851190434, -0.04234476962798758, -0.04173223300589413, -0.08938531190911427, -0.05368634362858307, -0.10093078328461587, -0.07872015610337257, -0.04755254061538962, -0.09751905925288985, -0.0796623995315425, -0.06780775622287884, -0.07840545763131938, -0.06312751482370534, -0.09117197773501842, -0.053350510724077496, -0.10283867779034603, -0.06671966640632364, -0.09730018618740613, -0.06870859394533725, -0.0637100978836983, -0.05590884613839886, -0.06235094755133496, -0.054374699186109286, -0.059907033520786065, -0.12812859036877186, -0.04587689716416069, -0.10790730711025527, -0.07186386649367175, -0.05357051768069026, -0.07483775640213036, -0.07856131967487215, -0.05943604150810574, -0.09267803578625751, -0.1540067790052559, -0.09874523912049547, -0.05223385865882605, -0.06115719027628627, -0.09150971858939037, -0.09507503261483169, -0.17656370016592968, -0.10741215859410129, -0.19290586872191368, -0.16022697326880467, -0.10105976929204373, -0.08663652181813988, -0.0985908007037036, -0.08630807693057423, -0.08919999380654926, -0.08299977150804634, -0.17737357412712484, -0.07960019800576228, -0.051339865131657336, -0.12710741954513743, -0.132008051098902, -0.11662768681026713, -0.18498364562475228, -0.11690522289445883, -0.13641190113900584, -0.16309020309885847, -0.11638172638095633, -0.2241005710785902], "da_weight": [1.4, 1.3986666666666665, 1.3973333333333333, 1.396, 1.3946666666666665, 1.3933333333333333, 1.392, 1.3906666666666665, 1.3893333333333333, 1.388, 1.3866666666666665, 1.3853333333333333, 1.384, 1.3826666666666665, 1.3813333333333333, 1.38, 1.3786666666666665, 1.3773333333333333, 1.376, 1.3746666666666665, 1.3733333333333333, 1.3719999999999999, 1.3706666666666665, 1.3693333333333333, 1.3679999999999999, 1.3666666666666667, 1.3653333333333333, 1.3639999999999999, 1.3626666666666667, 1.3613333333333333, 1.3599999999999999, 1.3586666666666667, 1.3573333333333333, 1.3559999999999999, 1.3546666666666667, 1.3533333333333333, 1.3519999999999999, 1.3506666666666667, 1.3493333333333333, 1.3479999999999999, 1.3466666666666667, 1.3453333333333333, 1.3439999999999999, 1.3426666666666667, 1.3413333333333333, 1.3399999999999999, 1.3386666666666667, 1.3373333333333333, 1.3359999999999999, 1.3346666666666667, 1.3333333333333333, 1.3319999999999999, 1.3306666666666667, 1.3293333333333333, 1.3279999999999998, 1.3266666666666667, 1.3253333333333333, 1.3239999999999998, 1.3226666666666667, 1.3213333333333332, 1.3199999999999998, 1.3186666666666667, 1.3173333333333332, 1.3159999999999998, 1.3146666666666667, 1.3133333333333332, 1.3119999999999998, 1.3106666666666666, 1.3093333333333332, 1.3079999999999998, 1.3066666666666666, 1.3053333333333332, 1.3039999999999998, 1.3026666666666666, 1.3013333333333332, 1.2999999999999998, 1.2986666666666666, 1.2973333333333332, 1.2959999999999998, 1.2946666666666666, 1.2933333333333332, 1.2919999999999998, 1.2906666666666666, 1.2893333333333332], "beta": [1.0, 0.996, 0.992, 0.988, 0.984, 0.98, 0.976, 0.972, 0.968, 0.964, 0.96, 0.956, 0.952, 0.948, 0.944, 0.94, 0.9359999999999999, 0.9319999999999999, 0.928, 0.924, 0.92, 0.916, 0.912, 0.908, 0.904, 0.9, 0.896, 0.892, 0.888, 0.884, 0.88, 0.876, 0.872, 0.868, 0.864, 0.86, 0.856, 0.852, 0.848, 0.844, 0.84, 0.836, 0.832, 0.8280000000000001, 0.8240000000000001, 0.8200000000000001, 0.8160000000000001, 0.812, 0.808, 0.804, 0.8, 0.796, 0.792, 0.788, 0.784, 0.78, 0.776, 0.772, 0.768, 0.764, 0.76, 0.756, 0.752, 0.748, 0.744, 0.74, 0.736, 0.732, 0.728, 0.724, 0.72, 0.716, 0.712, 0.708, 0.704, 0.7, 0.696, 0.692, 0.688, 0.6839999999999999, 0.6799999999999999, 0.6759999999999999, 0.6719999999999999, 0.6679999999999999], "epoch_no": 84, "lr": [[1e-05], [1e-05], [1e-05], [1e-05], [1e-05], [1e-05], [1e-05], [1e-05], [1e-05], [1e-05], [1e-05], [1e-05], [1e-05], [1e-05], [1e-05], [1e-05], [1e-05], [1e-05], [1e-05], [1e-05], [1e-05], [1e-05], [1e-05], [1e-05], [1e-05], [1e-05], [1e-05], [1e-05], [1e-05], [1e-05], [1e-05], [1e-05], [1e-05], [1e-05], [1e-05], [1e-05], [1e-05], [1e-05], [1e-05], [1e-05], [1e-05], [1e-05], [1e-05], [1e-05], [1e-05], [1e-05], [1e-05], [1e-05], [1e-05], [1e-05], [1e-05], [1e-05], [1e-05], [1e-05], [1e-05], [1e-05], [1e-05], [1e-05], [1e-05], [1e-05], [1e-05], [1e-05], [1e-05], [1e-05], [1e-05], [1e-05], [1e-05], [1e-05], [1e-05], [1e-05], [1e-05], [1e-05], [1e-05], [1e-05], [1e-05], [1e-05], [1e-05], [1e-05], [1e-05], [1e-05], [1e-05], [1e-05], [1e-05], [1e-05]]}