{"train_DA_loss": [0.049919948380242975, 0.03589874293512139, 0.036734256556281444, 0.038069595799013506, 0.039330898302265015, 0.03880299721083432, 0.03930675690922157, 0.039392022044828646, 0.03994003955063698, 0.04036545340428078, 0.04198065507387439, 0.0460765467108767], "train_regression_loss": [0.08972089925110067, 0.01803618137957954, 0.028086109870918762, 0.017036588937452767, 0.04048221275317644, 0.01403985135265757, 0.022308023052266247, 0.018536536753862087, 0.017550094633310406, 0.020371794121738326, 0.026138406660632524, 0.02118865006400691], "train_mve_loss": [0.19576390351763018, -0.158692681866526, -0.16115842186769222, -0.12549201892671843, -0.15361534772607646, -0.14251883250577768, -0.14129861978000163, -0.14606081963545717, -0.07609106653320588, -0.14788937912930408, 0.017466835177910447, 1.1075452888355517], "train_r2_score": [0.7233782441174561, 0.9449864762201757, 0.9137066530651262, 0.9481582288193686, 0.8748484809070259, 0.9573682573113791, 0.9332218768072301, 0.943652386188724, 0.9468109741293304, 0.937858206480423, 0.920263389169105, 0.9355761120282229], "val_source_regression_loss": [0.0134250567872313, 0.009789304171181932, 0.010304954828387952, 0.024015803951062734, 0.08483963709654688, 0.007545938738916493, 0.10831729096325138, 0.007108485361537601, 0.00798574654102514, 0.008783384002273596, 0.05090708870299255, 0.005061295039692446], "val_target_regression_loss": [0.014674626396898227, 0.010617816213612692, 0.011287472806163604, 0.025757926810957208, 0.08862923462934132, 0.00832583571937454, 0.11056566106367714, 0.0077239513880561425, 0.00856215376524797, 0.009401766836784686, 0.051338805475189715, 0.005709320583816947], "val_source_r2_score": [0.9585308859715295, 0.970202714025654, 0.9681078410485504, 0.9259346729361267, 0.7392731778800381, 0.9768315324658562, 0.6682653297820256, 0.9782972953270077, 0.9756182279567438, 0.9727631032532368, 0.8426245145691411, 0.9846040185746374], "val_target_r2_score": [0.9558174177052977, 0.9683712827900988, 0.9664790237307073, 0.923449728050128, 0.736489826606157, 0.9750531397802724, 0.6708347482949008, 0.976300743057484, 0.9746185378256436, 0.9719938292576943, 0.8473456849374228, 0.982917376465579], "val_source_mve_loss": [-0.07781052828731039, -0.1754885363050654, -0.16196259705326224, 0.0024717218372263487, 4.52869154984438, -0.18323629698421381, -0.18024240585067605, -0.25332412425475787, -0.22176867251909232, -0.2453395311213747, 3.2043104926242103, -0.2051890965881227], "val_target_mve_loss": [-0.07163658613174022, -0.17085712544525725, -0.159621883042251, 0.015277639891999432, 4.750215934801705, -0.18298031634922268, -0.1785666489902931, -0.25283330773250967, -0.22146017509925214, -0.2448033473536938, 3.2314854845216003, -0.2048718499231942], "val_source_nll_loss": [5797.06216932852, 288.4083345132538, -1.4388812418225445, 10156.24304353738, 357421.46627768985, -1.3694830800913558, -0.4302708419817912, -0.8146477567998669, -1.1138903023321418, -0.9007044819336903, 254527.37915348102, -1.264265836039676], "val_target_nll_loss": [6379.660908922365, 561.967791238163, 25.603226145611533, 10895.951935200752, 374831.809335443, -1.3590447646153123, -0.42601164345499837, -0.812388214883925, -1.1094917677625824, -0.8986709004716028, 256685.96420094935, -1.2573728199246563], "da_weight": [1.4, 1.4, 1.4, 1.4, 1.4, 1.4, 1.4, 1.4, 1.4, 1.4, 1.4, 1.4], "beta": [0.7, 0.7, 0.7, 0.7, 0.7, 0.7, 0.7, 0.7, 0.7, 0.7, 0.7, 0.7], "epoch_no": 12}