{"train_DA_loss": [0.035521738718125896, 0.03487132123281576, 0.03721551973733649, 0.03790613741595196, 0.04016899482995762, 0.040494600804675866, 0.0410497115969222, 0.03972688456571625, 0.03943831103443555, 0.04144062128401543, 0.04203445898195289, 0.04128920974063481, 0.041210407918996744, 0.0412870818813769, 0.042467796609786355, 0.042157726563254484, 0.04140097093879087, 0.04152011452838642, 0.04050807462293498, 0.04142933528550255], "train_regression_loss": [0.278008539730196, 0.014954928822059463, 0.01113700912328917, 0.016340579293579734, 0.01134233463936957, 0.015357361701223489, 0.013723784975939084, 0.034985387667169084, 0.015913214827368422, 0.015128175671837229, 0.015217830667057683, 0.01469099951969286, 0.015341513165335769, 0.015416880656660312, 0.017656655605861975, 0.015920126471852362, 0.017516942727132622, 0.017497186300428194, 0.01702592044071017, 0.01620841348948982], "train_mve_loss": [-0.012257256107983712, -0.13688316329176345, -0.13264884820660847, -0.14332352434940487, -0.08984991956427285, -0.12064255025557888, -0.08563914454084101, -0.10056896680596555, -0.08815786696057869, -0.0864480130061153, -0.08819506672539593, -0.08807570036752677, -0.09222151922365102, -0.09326151827898496, -0.11727734697706847, -0.09301774087489686, -0.09405811963912773, -0.09485183507408368, -0.09610926135489122, -0.09320160133297635], "train_r2_score": [0.1672851570435513, 0.9547532760893561, 0.9661820413964144, 0.9503922724409503, 0.9655585437982992, 0.9535407662228996, 0.958407333666551, 0.8944252374837768, 0.9518232518961288, 0.9541608998420005, 0.9539770485232402, 0.9555552345132833, 0.9535335986926508, 0.9532236955262108, 0.946535181038859, 0.9518273431527559, 0.9469279064559295, 0.9467873570088183, 0.948463657681688, 0.9509239670005329], "val_source_regression_loss": [0.028065015573667574, 0.01508576409961981, 0.0072530135924963254, 0.01096259942278266, 0.017847879459680634, 0.016703027948925767, 0.015508759943650493, 0.01695066551336005, 0.014860897230668158, 0.020210178038459037, 0.014392323921658571, 0.016172356467363955, 0.01701102507170997, 0.011833552035349833, 0.014242852601823928, 0.020874375277022017, 0.013377171717112578, 0.013379189763453942, 0.01531523929413738, 0.015573454407762878], "val_target_regression_loss": [0.030580303737822966, 0.015951673700651037, 0.008026637867847575, 0.01163388219296555, 0.01961409544595812, 0.01848931677780951, 0.016801368999235993, 0.01793642662748506, 0.016159041678603693, 0.021313310671550564, 0.01546034719087655, 0.0172430455118795, 0.017337175451596326, 0.013026488720899142, 0.016025262566495547, 0.02225246332302878, 0.014461006992791273, 0.015253578183017199, 0.01712722846460116, 0.017409285058892224], "val_source_r2_score": [0.9138586078056045, 0.9535724387531898, 0.977816002450038, 0.966121413446619, 0.9453563833160568, 0.9490253316292833, 0.9525293372266768, 0.9480643658463208, 0.9544626803456113, 0.9371246290426218, 0.9562012227612826, 0.9494278189114702, 0.9480398526989845, 0.9639619193227695, 0.9563561504576884, 0.9358937628997781, 0.9588457383110562, 0.9591962070217304, 0.9533543536968634, 0.9524464751974048], "val_target_r2_score": [0.9089438976367407, 0.9526665246796725, 0.9760591702825113, 0.965395692848992, 0.9412393077197045, 0.944476318202008, 0.9500608550751801, 0.946642844612254, 0.9516343544780138, 0.9366040885466855, 0.9537457750870504, 0.948500039789437, 0.9479586157066234, 0.9610985421981584, 0.9527459383473752, 0.9334625872712932, 0.9569746440427345, 0.9548210414374311, 0.9493604062430165, 0.9482809969245323], "val_source_mve_loss": [-0.1594645145195949, -0.1488398426695715, -0.07356907021773013, -0.08861584669049782, -0.05833900012547457, -0.12048616477205784, -0.07571989703404752, -0.098223351036446, -0.08303158004072649, -0.09316791744926307, -0.09855103492736816, -0.0942132218351847, -0.11894878084901013, -0.07336729057604753, -0.11299253707822365, -0.07019334078966817, -0.09112689927031722, -0.0958798287224166, -0.13527668842786475, -0.11373781790084476], "val_target_mve_loss": [-0.1586791358039349, -0.1468388189243365, -0.07257300035297116, -0.08787051663745808, -0.055537790107198906, -0.11821685297579705, -0.07390187492098989, -0.09687148015710371, -0.08097884436196919, -0.09156253773577605, -0.09689255662356751, -0.0925467888577075, -0.11852327762525293, -0.07118066442729551, -0.11024920114233525, -0.06778296361429782, -0.08931764931995657, -0.09279545349410817, -0.13276679181977163, -0.11097374869675576], "val_source_nll_loss": [53.46139884674096, -1.3391954808295528, -1.9861699222009392, 8.221028858347784, -1.462099867531016, -1.5101654529571533, -1.5941346808324885, -1.5387864339200756, -1.6088170130041581, -1.4598772027824498, -1.610604698144937, -1.5667355633989166, -1.4921463456334947, -1.7273225437236737, -1.5746415627153614, -1.4079719253733187, -1.6525809221629855, -1.651508296592326, -1.4734340604347518, -1.542666208894947], "val_target_nll_loss": [29.64509315128568, -1.3111204980294915, -1.945986287503303, 9.486732129809223, -1.3801989623262911, -1.4782609758497793, -1.5470715202862704, -1.5134545896626725, -1.5643167148662518, -1.4344931448562235, -1.5824773764308495, -1.5380362196813655, -1.4863486199439326, -1.6743215699739094, -1.536118339888657, -1.3605618182616899, -1.6202497919903527, -1.5988891999932784, -1.445858683767198, -1.5055676894851877], "da_weight": [1.4, 1.4, 1.4, 1.4, 1.4, 1.4, 1.4, 1.4, 1.4, 1.4, 1.4, 1.4, 1.4, 1.4, 1.4, 1.4, 1.4, 1.4, 1.4, 1.4], "beta": [0.7, 0.7, 0.7, 0.7, 0.7, 0.7, 0.7, 0.7, 0.7, 0.7, 0.7, 0.7, 0.7, 0.7, 0.7, 0.7, 0.7, 0.7, 0.7, 0.7], "epoch_no": 20}