{"train_DA_loss": [0.46571406569515766, 0.3151848816893436, 0.20076656389225553, 0.13516764084670618, 0.09632676307936038, 0.07679947984610877, 0.06480678841744088, 0.05731792933898391, 0.052150449669584494, 0.047210525809846804, 0.043855818420975475, 0.04163935908560779, 0.03906788178115157, 0.037086023351473825, 0.035531070812092835], "train_regression_loss": [2.074006853199528, 0.4476490915094041, 0.24448237013773247, 0.16882287080261782, 0.11202421932867719, 0.08566228849251484, 0.07052629554756598, 0.05903177993062209, 0.049942233441380525, 0.04188992043231806, 0.03554157664151471, 0.030988892067012663, 0.02758308104026579, 0.024897098488479145, 0.022754495479915652], "train_mve_loss": [0.883496187804386, 0.06467565289426977, -0.04754676097932474, -0.08258738649678732, -0.09234802385747869, -0.09875229366082813, -0.07769576444459136, -0.0710503211282398, -0.07850527555649416, -0.06403432938336673, -0.061292150154900506, -0.05946903445602989, -0.07392872231152638, -0.060159746155660374, -0.048401872925392234], "train_r2_score": [-5.3215408737193775, -0.35311903274446316, 0.2616024380152131, 0.49014089093758556, 0.662058148601214, 0.7410349481195512, 0.7866281870159818, 0.8215683631673003, 0.8490318659238117, 0.8733588968987854, 0.8922918622305532, 0.9061543969577129, 0.9164563746387462, 0.9246401087405937, 0.9310970375233204], "val_source_regression_loss": [0.7791940901852861, 0.28466814077353175, 0.2011979971128174, 0.13358284674490553, 0.09396284356524673, 0.0770800773856006, 0.06372395247409615, 0.053191423274670975, 0.04593960440988782, 0.03815242452429065, 0.03339041326242157, 0.028941010820526112, 0.026252837757332417, 0.023647266569771345, 0.021768139899248563], "val_target_regression_loss": [0.7236893282660956, 0.29719466272788714, 0.2341066502694842, 0.16704121929935262, 0.122245517618294, 0.0995061389064487, 0.0823204557918295, 0.06857119609094874, 0.05736645928855184, 0.04698791666121423, 0.04078102892241146, 0.03591504780269122, 0.032403678975150556, 0.02983855828642845, 0.026919758300992507], "val_source_r2_score": [-1.3842716219677729, 0.1322551986110978, 0.38661080124769454, 0.5916084663452083, 0.7129440598831682, 0.7650456178337339, 0.8049993189822593, 0.8373414704186516, 0.8603860790546544, 0.8836144894502913, 0.8973907762338363, 0.9104666851309617, 0.919284883083178, 0.927106769871846, 0.9336010757300206], "val_target_r2_score": [-1.1479454603945873, 0.11411292327925415, 0.3071164501084741, 0.5045840800855015, 0.6372425769862232, 0.7032368232204873, 0.7558404721484714, 0.796657213419245, 0.8297098851963337, 0.8598899079587753, 0.8784661716416915, 0.892200519810074, 0.9039473689805866, 0.9113120753691892, 0.9196231152170699], "val_source_mve_loss": [0.23364228519457805, -0.021601545205929235, -0.07153596684242351, -0.08882059180472471, -0.12682263788920414, -0.07771292036469979, -0.06865781588079053, -0.06944114427211918, -0.06227152582399453, -0.057447401217267484, -0.06419621903119208, -0.052544844537218915, -0.04448785736591001, -0.0710959828729871, -0.04454079378820673], "val_target_mve_loss": [0.20261395034156268, -0.019917044930065735, -0.05635408187120021, -0.06428638317539723, -0.1067164760978916, -0.05597573801686492, -0.052202987944400765, -0.057272818411075614, -0.0558979712143729, -0.05330345534448382, -0.06312875907066502, -0.05238567622779291, -0.04442358396570139, -0.06977773108814336, -0.04381852686593804], "val_source_nll_loss": [0.468348626471773, -0.07256644499735741, 294.7994344389137, 1459.271948707066, 326.8099325544472, 8015.804017463817, 4744.323691085169, 2621.4958073104485, 3601.8680732899074, 4027.523785404012, 7910.159259264982, 3262.070846171319, 7403.876609319373, 3511.1041580393344, 2987.2308512005625], "val_target_nll_loss": [0.4783958362627633, -0.04276905995145251, 114.17037622446689, 5831.001442042427, 895.1224421451363, 16065.25053850005, 14157.743982462944, 9152.26730891119, 10380.275531237638, 10954.806879357446, 12208.312727143493, 6570.066041584257, 11026.516508850871, 4437.239898295342, 6459.393034869357], "da_weight": [1.4, 1.4016, 1.4032, 1.4047999999999998, 1.4063999999999999, 1.408, 1.4096, 1.4112, 1.4127999999999998, 1.4143999999999999, 1.416, 1.4176, 1.4192, 1.4207999999999998, 1.4223999999999999], "beta": [1.0, 0.9966666666666667, 0.9933333333333333, 0.99, 0.9866666666666667, 0.9833333333333333, 0.98, 0.9766666666666667, 0.9733333333333334, 0.97, 0.9666666666666667, 0.9633333333333334, 0.96, 0.9566666666666667, 0.9533333333333334], "epoch_no": 15}