{"train_DA_loss": [0.14171619084025214, 0.09234708312973788, 0.08112785318897019, 0.07486122610622939, 0.06931352319784967, 0.06689328259670974, 0.0631944967954806, 0.06097305187754592, 0.05751752018097659, 0.05382804638132371], "train_regression_loss": [0.48797291247565744, 0.03640179961351116, 0.025215445775913257, 0.021567565006743675, 0.019977939287898636, 0.018505899191338576, 0.017693364647961132, 0.016694417132245176, 0.016156560591110446, 0.015805169716528473], "train_mve_loss": [0.12884222775258436, -0.06685608139319492, -0.07679792913783622, -0.057006714731059845, -0.0898172630906323, -0.07213242821586088, -0.07763274777101752, -0.04229388286068463, -0.05927454580602252, -0.05856317423209139], "train_r2_score": [-0.49979648475019134, 0.8885556195665604, 0.9226957297285969, 0.9337922353595214, 0.9387759390441881, 0.9432968770905772, 0.9456757541017096, 0.948724497183578, 0.9504051763694727, 0.9514733324965523], "val_source_regression_loss": [0.051814438858229644, 0.02759797661120345, 0.022722357035774715, 0.020533009782243684, 0.018786263853833553, 0.017996022145554517, 0.017331541972650084, 0.01658370020757815, 0.016617162476418316, 0.016546932737206577], "val_target_regression_loss": [0.06415419845254558, 0.033276413502112315, 0.027895361914708736, 0.02387456355652042, 0.022484586989376575, 0.021551217854165347, 0.02061970847522377, 0.02036555313689124, 0.02095124132005842, 0.021372834588312038], "val_source_r2_score": [0.8399696292275641, 0.9149503017048498, 0.9294102865817961, 0.9362956222779177, 0.9418561809332547, 0.9441915047615267, 0.9462341744054528, 0.9487681289022982, 0.9487118999474637, 0.9485005463437204], "val_target_r2_score": [0.8066832267226567, 0.8999522006150313, 0.91571245726923, 0.928126686676812, 0.9326871409334051, 0.935021784351175, 0.9383031244700374, 0.9387641090035903, 0.9364549349305963, 0.9355673505937165], "val_source_mve_loss": [-0.06713845205914443, -0.05004548359733478, -0.04898816662704109, -0.05784976574930416, -0.09930715320786093, -0.03914439742257641, -0.034646860353506295, -0.040228853986901084, -0.1056646142795587, -0.17449211704123552], "val_target_mve_loss": [-0.0611632282187225, -0.046277164641744015, -0.046864694708092194, -0.057220376078869886, -0.09791834913431459, -0.03923907810762809, -0.034399816766381264, -0.040498065602058056, -0.10397983660363848, -0.1716957797480237], "da_weight": [1.4, 1.3986666666666665, 1.3973333333333333, 1.396, 1.3946666666666665, 1.3933333333333333, 1.392, 1.3906666666666665, 1.3893333333333333, 1.388], "beta": [1.0, 0.996, 0.992, 0.988, 0.984, 0.98, 0.976, 0.972, 0.968, 0.964], "epoch_no": 10, "lr": [[3e-05], [3e-05], [3e-05], [3e-05], [3e-05], [3e-05], [3e-05], [3e-05], [3e-05], [3e-05]]}