{"train_DA_loss": [0.09121073628188378, 0.028753968701447603, 0.025738191121756702, 0.023936919741999952, 0.02363971921647652, 0.020196869737814288, 0.017100972761068037, 0.027160357358700288, 0.027044243729201705, 0.025925381955311, 0.02263571456129198, 0.019835362459449488, 0.017298563100036635, 0.014505998579652424, 0.0150356644822431, 0.012090406504032326, 0.010487177930227472, 0.010198280093527417, 0.008834266277895032, 0.009334846696828302, 0.008115955783816999, 0.00687601051158808, 0.005306773708360287, 0.0051417410466479485, 0.003962049534215747, 0.0035152462842300454, 0.003343376663251281], "train_regression_loss": [0.1599154561328986, 0.026167770561641268, 0.01986971685332561, 0.018320889719566108, 0.013732154881734899, 0.011946732608237094, 0.010733839921258268, 0.02517498959659495, 0.01840331751199429, 0.01901110510939436, 0.014587932935417025, 0.012756669469913247, 0.011395845117840841, 0.018170797832180802, 0.015530767185712264, 0.011246461588957464, 0.010262449537582655, 0.009823826865260735, 0.010722593348166842, 0.010188404399172915, 0.009613180128683828, 0.007939753781534201, 0.007364048668944449, 0.008286272700011076, 0.007454620864092486, 0.006733701910425175, 0.006470886428995395], "train_mve_loss": [0.12612002446542628, -0.0578294726641137, -0.045058943351566405, -0.052366226793426875, 0.0009978819636681663, 0.001056257523834651, -0.0027803823661946194, 0.021834082115780803, -0.05431367432906325, -0.06339625069629776, -0.043730063821909304, -0.036028955591471366, -0.030427773656762823, -0.004674209797317741, -0.06515896188902244, -0.0265853411724052, -0.03775472968384297, -0.023546165084360776, -0.039154424764542846, -0.03301396771862769, -0.027028811343931092, 0.0019266941820935753, -0.021280813146888244, -0.041332359992636375, -0.046955992898459406, -0.017351086336142046, -0.020292955417087272], "train_r2_score": [0.5117768553150788, 0.9206302763512761, 0.9396967211591102, 0.944377803637448, 0.9583935933316013, 0.9637626742081269, 0.9674098778445978, 0.9236887564852967, 0.9443093528334409, 0.9423801746717323, 0.9557328571881458, 0.9613409685001091, 0.9654901545298912, 0.9448985383386329, 0.952895105205007, 0.965831982747039, 0.9688661079346916, 0.9701405800969277, 0.9675118710498888, 0.9691371081772562, 0.9708328462140029, 0.9759191811502183, 0.9776280454562729, 0.9748613923707485, 0.9773926772327544, 0.9796082377225125, 0.9803905268196996], "val_source_regression_loss": [0.031483241463009314, 0.02334308877728785, 0.02144234418821863, 0.01734801030517379, 0.012752583833953625, 0.011147477605108973, 0.01074198653473507, 0.019107548166302186, 0.015425169156699241, 0.016996896141974985, 0.013174745902607712, 0.014280919468949866, 0.011199315862517946, 0.017756804635253132, 0.011819257630813347, 0.010343280827178608, 0.012073004742070466, 0.009391977428163908, 0.009927810824039993, 0.012422855471885657, 0.016223401797911787, 0.01292280243308861, 0.008296582346805666, 0.009100542061879664, 0.007043011362746924, 0.006696961157000329, 0.006277072511589791], "val_target_regression_loss": [0.0394103838767432, 0.029139157172433938, 0.0264821395608066, 0.02020262468228989, 0.015496485725139515, 0.014660941036064414, 0.014913161803932883, 0.022216579876840115, 0.01736508753103546, 0.02123044272059504, 0.015823304806423338, 0.01868369431482463, 0.012795391610434538, 0.019813559654675707, 0.014712640390837495, 0.013599750196820573, 0.011876588811084061, 0.00984874189112194, 0.012640942005982881, 0.012187985903760301, 0.014261638910710058, 0.013561472803637196, 0.009195115423136497, 0.011051727718190301, 0.008248102249978463, 0.008042762866479498, 0.007476040041309934], "val_source_r2_score": [0.9037100738334453, 0.9285184874395774, 0.93433758350396, 0.9466002968144615, 0.9609215238845065, 0.9658573077838445, 0.9670561119115296, 0.9414299675503489, 0.9531211390487381, 0.9478546698285643, 0.9594134102091054, 0.9560856772400752, 0.9655278736994621, 0.9451951440523205, 0.9639032545577991, 0.9677644464403808, 0.963528880483935, 0.9712816569481719, 0.9694619190748817, 0.9608401774977168, 0.9499305377548147, 0.9607271447387894, 0.9744331992628823, 0.9724652316407867, 0.9779632579606461, 0.979398269217328, 0.9808401038903426], "val_target_r2_score": [0.8827389539843247, 0.9123122560582123, 0.9212506089427637, 0.9395262831275709, 0.9538470201048408, 0.9555951525833817, 0.9558521190336751, 0.9339804637655076, 0.9483049741722471, 0.9366227655312858, 0.9527705529496842, 0.9442431772725984, 0.9620192007139889, 0.9412351896774466, 0.95597135147095, 0.9598543666536087, 0.9642686853658692, 0.9706903710537805, 0.9623957945953442, 0.963805205560969, 0.9570882453211123, 0.9599486391689288, 0.9724881326023584, 0.9669793190134375, 0.9747343069811438, 0.9760565374707435, 0.977664323299191], "val_source_mve_loss": [-0.04996965905722184, -0.04912958164475387, -0.033527607970599886, -0.032264166782739793, 0.005671769270048583, 0.004005037494964568, -0.009400965578123173, -0.05006183176949809, -0.027984921372483804, -0.04012683458343337, -0.028213706952107103, -0.02455578734980354, -0.03297352708310266, -0.15022881498819665, -0.026406964098539532, -0.02026255150573163, -0.019494237755484218, -0.024424445520662055, -0.024645223765622212, -0.021898753988214687, 0.008153967096623553, -0.10544166317846201, 0.005559181605901899, -0.15798096773745138, -0.020564371790689758, -0.017069851849935477, -0.01649202239004117], "val_target_mve_loss": [-0.05573108881900582, -0.041361844839080224, -0.030558190520711338, -0.03201721559125412, 0.007357945904442215, 0.006666361445655362, -0.005156717774505385, -0.037185645414681376, -0.02746091563773306, -0.038153791705830185, -0.02665103938949259, -0.02268498129199577, -0.03307862999507143, -0.14915037438084808, -0.024768595406903498, -0.01831288475401794, -0.019774102110745786, -0.023800414975119543, -0.02316297359670265, -0.022002595158506045, 0.007273414030765431, -0.10488053524418722, 0.006399783176145976, -0.15697632296175895, -0.01991408629507958, -0.016495708034291297, -0.016166384060737452], "val_source_nll_loss": [24809.108732199365, 45790.15113231804, 28644.069793314873, 54773.56183247627, 60770.37183544304, 51986.300435126584, 40208.3242681962, 28968.14218255538, 11553.866547789754, 2388.513486714303, 1320.0971019086958, 1101.786813997015, 234.4287838935852, -0.2582610390986068, 16.76749082607559, 134.25229538090622, 51.2609929631028, 9.077979860426504, 226.18524114089675, 339.4055821876737, 62486.614369066454, -1.1921331082718283, 36268.39992088608, -0.2674590477460547, -2.0438649171515357, -2.1233590282971346, -2.1240763573706904], "val_target_nll_loss": [27833.77107644383, 60178.473546281646, 34763.110030162185, 64384.8516119462, 74865.94471914557, 70006.45124604431, 57456.728837025315, 46506.02086629747, 13486.200071696994, 2983.8368441545513, 1628.8337208138237, 1518.7532189420506, 305.3608847434008, -0.25616658243197427, 32.49568724783161, 270.6877453870411, 91.7712997816786, -1.8515008687973022, 87.25441630580757, 28.479601075377644, 63139.19902096519, -1.190714821030822, 40460.83737143988, -0.26579023652438877, -1.965089890021312, -2.0171430623984037, -2.07185550430153], "da_weight": [1.4, 1.4, 1.4, 1.4, 1.4, 1.4, 1.4, 1.4, 1.4, 1.4, 1.4, 1.4, 1.4, 1.4, 1.4, 1.4, 1.4, 1.4, 1.4, 1.4, 1.4, 1.4, 1.4, 1.4, 1.4, 1.4, 1.4], "beta": [1.0, 0.998, 0.996, 0.994, 0.992, 0.99, 0.988, 0.986, 0.984, 0.982, 0.98, 0.978, 0.976, 0.974, 0.972, 0.97, 0.968, 0.966, 0.964, 0.962, 0.96, 0.958, 0.956, 0.954, 0.952, 0.95, 0.948], "epoch_no": 27}