{"train_DA_loss": [0.46571406569515766, 0.315237564077325, 0.20089994024968888, 0.13540037241262098, 0.09680369437776057, 0.07652339561275416, 0.06341705544148546, 0.05567595707269648, 0.05033812257146269, 0.04535639477413577], "train_regression_loss": [2.074006853199528, 0.44776723164744964, 0.24461440382426575, 0.16879648889603954, 0.11172398630618177, 0.08273072078333694, 0.06730642569484614, 0.05609614752110441, 0.04719995137242774, 0.040268454435102685], "train_mve_loss": [0.883496187804386, 0.06469119077640326, -0.04735850606971783, -0.08248399292038826, -0.08955707330890068, -0.0790670649667817, -0.07754444899599339, -0.06237429872808988, -0.05657308543240566, -0.08305641473483778], "train_r2_score": [-5.3215408737193775, -0.3534775992502385, 0.2612026977254223, 0.4902293203751974, 0.6629716115915095, 0.7499127626845695, 0.7963180910593207, 0.8304195815066611, 0.8573191551984016, 0.8782399348380491], "val_source_regression_loss": [0.7791940901852861, 0.2847505353296859, 0.20139117840724655, 0.13331747875560687, 0.09271204547037053, 0.07390698771688002, 0.06078962495998491, 0.050770748642426505, 0.043556257681567456, 0.03760790905054612], "val_target_regression_loss": [0.7236893282660956, 0.29725311715391617, 0.2342913726085349, 0.16704242289820803, 0.11961549162110195, 0.09553210984302472, 0.07870707708069041, 0.0656783492599107, 0.05473903113905387, 0.04656949535578112], "val_source_r2_score": [-1.3842716219677729, 0.13200355246354703, 0.3860215107924687, 0.5924305768379741, 0.7167924904625651, 0.7746828250617666, 0.8140216243752014, 0.8447634960919743, 0.8676822155907377, 0.8852407530557125], "val_target_r2_score": [-1.1479454603945873, 0.11393842321645495, 0.3065694518697815, 0.5046008208207339, 0.6450814133102007, 0.7150463324987868, 0.7665514031314306, 0.8052175540505162, 0.8374794211032204, 0.8611438685727509], "val_source_mve_loss": [0.23364228519457805, -0.021520939201729584, -0.07125181426541714, -0.08930688601317285, -0.09590166014961049, -0.06878988718307472, -0.06503916588387912, -0.05876560820431649, -0.05433297147856483, -0.059952775464404987], "val_target_mve_loss": [0.20261395034156268, -0.019862271014223748, -0.05611975538202479, -0.06478368957774548, -0.0775539688294447, -0.04802976437856125, -0.0484169274097002, -0.04612387782787975, -0.045572721505466894, -0.05436991353200961], "val_source_nll_loss": [0.468348626471773, -0.0724605364795727, 296.3569799975221, 1460.9741126608244, 350.58524396298805, 4775.629548385928, 6539.194262635859, 3535.0327973524227, 3411.630783337581, 8405.160072809533], "val_target_nll_loss": [0.4783958362627633, -0.04268265239116323, 114.4749104722957, 5622.230435017166, 1858.299458033205, 13673.729533539543, 13938.191131205498, 9678.003199727098, 8893.452757044684, 15747.961753362342], "da_weight": [1.4, 1.4, 1.4, 1.4, 1.4, 1.4, 1.4, 1.4, 1.4, 1.4], "beta": [1.0, 0.998, 0.996, 0.994, 0.992, 0.99, 0.988, 0.986, 0.984, 0.982], "epoch_no": 10}