{"train_DA_loss": [0.46571406569515766, 0.31523833335317686, 0.20090040018342747, 0.1353747663266916, 0.09639784740028695, 0.07623379050296011, 0.06440870600056169, 0.05715709976456937, 0.05196451777132599, 0.04677335732706722, 0.043539421111890124, 0.041562314283177665, 0.039121091205769745, 0.03709078691150632, 0.0355110219943676], "train_regression_loss": [2.074006853199528, 0.4476484234633786, 0.2444876195689224, 0.16871768865441492, 0.11192111807178971, 0.08374753092471816, 0.06831012871899596, 0.05728577309623497, 0.04867161841044914, 0.04132271744991896, 0.03504392970864145, 0.03017598601020668, 0.02672413641236164, 0.023880276156477018, 0.02199309636622504], "train_mve_loss": [0.883496187804386, 0.06467497170586957, -0.0475547973669289, -0.082216675446064, -0.08995863623998827, -0.09450818366546464, -0.07149635294837098, -0.08020914735534727, -0.0655447321533612, -0.06407274352131204, -0.05847851435570438, -0.05646891941672269, -0.05095169099364464, -0.05327789892716643, -0.06109695796815634], "train_r2_score": [-5.3215408737193775, -0.35311696310105833, 0.2615865464084045, 0.4904606789426952, 0.6623819860718841, 0.7468381598116415, 0.7932906825915584, 0.8268220684624027, 0.8528567655696773, 0.8750773857246001, 0.8938035077544663, 0.9086078026757789, 0.919058559523341, 0.9277206151317262, 0.9334039360175707], "val_source_regression_loss": [0.7791940901852861, 0.2846672484014608, 0.20120368879052658, 0.13340413032830517, 0.09306828074062927, 0.0750709547649456, 0.06149274214536329, 0.052192808753704724, 0.04505294957492925, 0.03790544593541682, 0.03207990286659591, 0.02816739437889449, 0.02498686865349359, 0.022833692016009287, 0.020670384097891518], "val_target_regression_loss": [0.7236893282660956, 0.29719075296498554, 0.23411893523946592, 0.16700951170317735, 0.12071070933266531, 0.09680980274194403, 0.07896674650756619, 0.06586861704723744, 0.05458902890640724, 0.04482102752486362, 0.03838162513190432, 0.03385757313027412, 0.03002579455983035, 0.027511928513457504, 0.02456819553729854], "val_source_r2_score": [-1.3842716219677729, 0.1322579462530454, 0.38659334969776465, 0.5921590124382067, 0.7157056979487826, 0.7711578889863329, 0.8118235446259966, 0.8403987728581797, 0.863105801711273, 0.884374921657776, 0.9014255299156846, 0.9129511641792328, 0.9231749288730984, 0.9295903159036895, 0.9369294809773602], "val_target_r2_score": [-1.1479454603945873, 0.11412473379810571, 0.3070801201218464, 0.504685994681194, 0.6418270982281997, 0.711263208352986, 0.765728665157079, 0.80465596620837, 0.8379546228672413, 0.8663154144417552, 0.8855903618441304, 0.8984021683646111, 0.9110229713822221, 0.9182468354903665, 0.9266165316856936], "val_source_mve_loss": [0.23364228519457805, -0.021602714384163293, -0.07154325037440167, -0.0878078511244134, -0.08299894347975525, -0.09132355121494848, -0.06867623621527152, -0.07382696390717844, -0.06391605607505087, -0.05770891659621951, -0.04787812297102771, -0.0770467161377774, -0.04040424869973448, -0.038109740030161945, -0.15297426981262013], "val_target_mve_loss": [0.20261395034156268, -0.01991898675531715, -0.056348685599580596, -0.0621589415388394, -0.057575965276624584, -0.07027483821103844, -0.04748380040349085, -0.062317980052549626, -0.056004790094079854, -0.05246203689824177, -0.042687271026116386, -0.07362615114337281, -0.039060935236607926, -0.037365226098631, -0.15093400470818144], "val_source_nll_loss": [0.468348626471773, -0.07256388924780148, 295.39362887104477, 2053.7422016483697, 2796.9133313579273, 1023.9744021832189, 4905.472200669065, 3485.392782597602, 3257.9294521318207, 3923.7116987131817, 3941.7960413679293, 115.52119198403781, 5212.535983701296, 5351.34170416337, -0.7639722635474386], "val_target_nll_loss": [0.4783958362627633, -0.042773748429704314, 114.2478171845403, 7160.938166835545, 9868.283390965455, 5413.650606185198, 13956.80195122731, 7204.229023205328, 5971.430237782152, 6727.473840056341, 9780.372838273834, 1309.8204751248602, 9481.713247564774, 8585.53907486155, -0.7552964951418624], "da_weight": [1.4, 1.4, 1.4, 1.4, 1.4, 1.4, 1.4, 1.4, 1.4, 1.4, 1.4, 1.4, 1.4, 1.4, 1.4], "beta": [1.0, 0.9966666666666667, 0.9933333333333333, 0.99, 0.9866666666666667, 0.9833333333333333, 0.98, 0.9766666666666667, 0.9733333333333334, 0.97, 0.9666666666666667, 0.9633333333333334, 0.96, 0.9566666666666667, 0.9533333333333334], "epoch_no": 15}