{"train_DA_loss": [0.0504879501922366, 0.050037961531519015, 0.07046067338756931, 0.060853835021637694, 0.07070693673337836, 0.11699222620760501, 0.09178032758739356, 0.0865772267841007, 0.09221461919260636, 0.10591945281657483, 0.08831394066731063, 0.10068590573666845, 0.12993212468527135, 0.1104035858997915, 0.11274007012492124, 0.19020244888484586, 0.26068682257610437, 0.343445242322995, 0.27025066931788183, 0.20044107522672447], "train_regression_loss": [0.1624753815845554, 0.025575283756462595, 0.021785887137014535, 0.04609981113687239, 0.1380614821783776, 0.02518449861290686, 0.010888113644505277, 0.0133853365864666, 0.01074212930425729, 0.009876219439107442, 0.0078098351604916445, 0.007754687851097374, 0.007445544167038673, 0.006902042060828269, 0.005233911687160895, 0.007778793238818482, 0.007864054561025673, 0.007025560112993558, 0.004629329159358683, 0.0025532078112848445], "train_mve_loss": [-0.15038938981683506, -0.24266250142776552, -0.2666326098184917, -0.21197822273319836, -0.16124227588189258, -0.27020242725800336, -0.23280583639412955, -0.24500385729061402, -0.2680673293319873, -0.2907392852675762, -0.2250142053886567, -0.20298032649201928, -0.3468171318335769, -0.2764649310947772, -0.22620940521032545, -0.19393428411314323, -0.23281258949414033, -0.3539423785109407, -0.29671662367567064, -0.15012599677664706], "train_r2_score": [0.5000449980736491, 0.9227592015492411, 0.9338843872777285, 0.8609344047767176, 0.5742659419293054, 0.9237722180258083, 0.9670280075868319, 0.9593408435270879, 0.9675189658828794, 0.9700588875353288, 0.9764020696840952, 0.976351056368069, 0.9773949062947312, 0.9790883929504112, 0.9841252045840159, 0.9761597114046977, 0.9760684519338364, 0.9786985575856354, 0.9859940261356379, 0.9922551570612305], "val_source_regression_loss": [0.01918605146811733, 0.018471293174956417, 0.030193150208532055, 0.041913566662918164, 0.046217666042945055, 0.017977546322855014, 0.008625515141300385, 0.007614401658360339, 0.013241963154530223, 0.007338072061302919, 0.006739198996485034, 0.011254428538104778, 0.007085061125174354, 0.0059606717144952545, 0.007084017979051871, 0.0039319239845617285, 0.008318140931851879, 0.005653764321645604, 0.003306734287238951, 0.0019507612929903443], "val_target_regression_loss": [0.023584607375573507, 0.022131244321884232, 0.03321647387045094, 0.044695941283355786, 0.09003522534725032, 0.04776795628138735, 0.0718290735554846, 0.046423874571447886, 0.145387758394774, 0.10116146398778958, 0.11447051338427051, 0.279137210708253, 0.10864748112574409, 0.1169416764043743, 0.05997272754158778, 0.19892638247412972, 0.29882897351738774, 0.2041293392075768, 0.11915111364914646, 0.11343243892622899], "val_source_r2_score": [0.941385957708274, 0.9432971891085916, 0.9077092238292738, 0.8722054923509658, 0.8596370613046761, 0.9449970492583268, 0.9732982623014192, 0.9766312137462305, 0.959303223615193, 0.9775699284532908, 0.9793874460897665, 0.965628106570895, 0.9780906300872253, 0.9817215970641542, 0.9783045405363573, 0.9879760806645568, 0.9742207489973175, 0.9827035932964925, 0.9899181466809376, 0.9940093245716756], "val_target_r2_score": [0.928876724878094, 0.9337875661195898, 0.9012303832144907, 0.867830078496341, 0.7316534524703577, 0.8563267746726303, 0.7767849349908654, 0.8681164367151544, 0.5715028095530124, 0.702093393232384, 0.6575928001804461, 0.166284949354818, 0.6743788923604462, 0.6553906735381877, 0.8260358542444864, 0.40870739648071924, 0.11526591156129778, 0.3903374565000971, 0.6466288450710445, 0.6637088464019675], "val_source_mve_loss": [-0.22881528904920892, -0.24590094557291345, -0.3147844268551356, -0.27436365092856974, -0.2753601685354981, -0.2591817907140225, -0.20115195912650868, -0.1893149544543858, -0.34096148572390594, -0.20529219753380062, -0.21439276465886756, -0.31584863911701155, -0.3514229655265808, -0.19478401013567478, -0.16884375391881676, -0.1626286391593233, -0.35267690842664695, -0.3489431701128996, -0.1736633011811896, -0.14753353501422495], "val_target_mve_loss": [-0.20937740444382535, -0.2351400007175494, -0.31135273356980914, -0.2711599514454226, -0.22100207567969454, -0.21862007375759415, -0.10498425671005551, -0.06675931410510329, -0.2540795975187911, -0.1060948079522652, -0.0727022757069974, -0.14268082870712764, -0.2575600254290466, 0.7262411828070313, 0.08441085692589419, 0.4443218056348306, -0.15772316555339325, -0.1608921094219896, 0.11038903320278926, 0.15212196132899086], "val_source_nll_loss": [-1.4189937763576266, -1.4784507449669173, -0.9072509604164317, -0.5183792570723763, -0.6607903325105016, -1.344104783444465, -1.8708648938166945, 10.05842270730417, -0.7431707118130937, -1.8857808973215804, -1.9282225853280177, -0.568563902679878, -1.1041559765610514, -2.0375591486315185, 35.75905994976623, -1.0883162685587435, -0.8657570224774035, -1.1993724047383176, -2.2822717805451984, -2.5823764348331886], "val_target_nll_loss": [13.143579934216753, -1.3970279678513733, -0.8644611609132984, -0.5122999597953845, 13.190703932997547, 4.7542650458178946, 50.531983364043356, 176.73970005859303, -0.6132611500311501, -1.2816144844776467, -1.1056520505985128, -0.3328771647301656, -0.8796201051224636, 2137.7468842450953, 410.57042460832037, 547.4577797153328, -0.5455723197399815, -0.7301133267487152, 0.35933390707720686, 0.5068432817919345], "da_weight": [1.4, 1.4, 1.4, 1.4, 1.4, 1.4, 1.4, 1.4, 1.4, 1.4, 1.4, 1.4, 1.4, 1.4, 1.4, 1.4, 1.4, 1.4, 1.4, 1.4], "beta": [0.5, 0.5, 0.5, 0.5, 0.5, 0.5, 0.5, 0.5, 0.5, 0.5, 0.5, 0.5, 0.5, 0.5, 0.5, 0.5, 0.5, 0.5, 0.5, 0.5], "epoch_no": 20}