{"train_DA_loss": [0.06247635674024413, 0.05593080670186327, 0.17043852476467816, 0.12319306169774458, 0.11080900858917446, 0.11340199458588195, 0.10707172229749846, 0.09270731043717544, 0.09374206849600324, 0.10119167388411719, 0.09941646689634219, 0.09759152869283608, 0.09231166161555912, 0.09317559092365192, 0.09498449812696011, 0.08759668620619956, 0.08939488388775035, 0.09448170378613516, 0.12280374758585716, 0.11896147980768458], "train_regression_loss": [0.1879497500548524, 0.021131758268248337, 0.028561399418731277, 0.016877256633485695, 0.014426409507807093, 0.011848083425694617, 0.011906052209178099, 0.011866041488938673, 0.012718071689458063, 0.011536369377736963, 0.00966758920319065, 0.008927994213616935, 0.005827759415544638, 0.005503313801075984, 0.0040942627323239745, 0.004281564651208655, 0.002348801301165707, 0.004598965100480935, 0.009268522664174179, 0.0035948466189917334], "train_mve_loss": [-0.12188293871987387, -0.22168267563230595, -0.25422651511387157, -0.23246614644184735, -0.2708702017936236, -0.25703274137195764, -0.26833882210759186, -0.2404025913755898, -0.28858093130087287, -0.2655332291829085, -0.2684069301735548, -0.24836295764123717, -0.19481653818891298, -0.24293427655585723, -0.24037998341282718, -0.2486260911582593, -0.17057210453522054, -0.3152541858731502, -0.3402603084742478, -0.23597362588484938], "train_r2_score": [0.42634079440602757, 0.9362785436740321, 0.9135175615751762, 0.9488653088635379, 0.9562069083691376, 0.9640772481697955, 0.963910658889088, 0.9640271721671949, 0.9614191352262031, 0.965003499448612, 0.9707442966526192, 0.9729335214606326, 0.9823022230497062, 0.9833263373505762, 0.987590839357506, 0.9869708890876157, 0.9928756119691922, 0.98603946971966, 0.9722008702443294, 0.9890849072042494], "val_source_regression_loss": [0.014330926304093645, 0.024591826751262327, 0.020015927444247506, 0.014498214319914202, 0.012842363453929938, 0.00962197255413932, 0.018181333153308193, 0.013183726422205756, 0.012423537836610517, 0.010963998970728887, 0.007528009836243678, 0.006837009741111269, 0.004364579270558455, 0.0036715930534078726, 0.004054240605357705, 0.002770772529471241, 0.0022353441852345306, 0.002738049818214642, 0.005069928956984342, 0.0024304895756082443], "val_target_regression_loss": [0.029087925235493275, 0.03402479554090319, 0.11613959064589272, 0.07239020542724978, 0.06707254455342324, 0.05877174446477166, 0.041958345005972474, 0.03125176203873339, 0.049398824360363094, 0.08517250890218758, 0.0657406642655783, 0.033260180815299856, 0.031167063661674155, 0.021799985673042793, 0.020417822678160818, 0.010424087176252676, 0.011081959120929241, 0.021044593151140063, 0.01352607779487779, 0.009897349979964238], "val_source_r2_score": [0.956104724545534, 0.9250388930547371, 0.9384163277398258, 0.9557715323314546, 0.9608616843760702, 0.9705647609637285, 0.9443030667478206, 0.9595871307093305, 0.9619440098181136, 0.9664198774260182, 0.9768954367801205, 0.9791738455072647, 0.9865913727505102, 0.9887689183785525, 0.9875721803689526, 0.9914899239742623, 0.9931854497759468, 0.9915751986577707, 0.9844202730777831, 0.9925445776688708], "val_target_r2_score": [0.9128520610857783, 0.8992557299373313, 0.6529386807972204, 0.7838349981540803, 0.7992674357938649, 0.8247655364641461, 0.8752020087544525, 0.9069641666178839, 0.8516464436847925, 0.7464907954970613, 0.8048029712001424, 0.9003198563331865, 0.9071867202705349, 0.9352130782168968, 0.9392385049225286, 0.9687875775387637, 0.9670495032292186, 0.9372330127905574, 0.9594415997579956, 0.9703942523349638], "val_source_mve_loss": [-0.32686128948308246, -0.24492917294743694, -0.1738536342789855, -0.26230708481390264, -0.2722243385601647, -0.317009730429589, -0.30516394444658784, -0.3087837499908254, -0.34932029926324193, -0.1611322470103638, -0.24177141845980776, -0.3316685364970678, -0.1519467945717558, -0.17655420944660524, -0.3615102386927303, -0.12476929267750511, -0.2689974364600604, -0.2582557733300366, -0.3394370207303687, -0.13084945657962485], "val_target_mve_loss": [-0.30109259259851673, -0.22262783857840526, 0.08127346953164928, -0.20322250357911556, -0.21113264805908444, -0.2757334186683727, -0.2855687518663044, -0.2936200352409218, -0.3071975696690475, 0.16772819790234672, -0.10769457098898254, -0.2820885156906104, -0.006244809296029278, -0.07681207396561586, -0.3398390631132488, -0.06561052437305828, -0.23970956930631324, -0.19276726396777963, -0.32231886628307876, 3.043905124634127], "val_source_nll_loss": [-1.1853798326057723, -1.0442416494405722, 194.09446088875396, -1.527682520166228, -1.3668016331105293, -0.5755690343772308, -0.538128436366214, -0.5880922478965566, -0.957695955717111, 146.6029800580272, 0.9153762512569186, -1.3324174835712095, -2.2262677286244648, -2.263112155697014, -0.941378431984141, -2.488100610201872, -1.8516912113262127, -1.896273057672042, -1.299927172781546, -2.521782666822023], "val_target_nll_loss": [-1.099975927721096, -0.8747231643411177, 615.30880287101, -1.2967578006696097, -1.105687478675118, -0.505603582044191, -0.5052251623401159, -0.5605610805221751, -0.8525074418587021, 602.2564091276896, -0.9228984291040445, -1.1405232956137838, -0.3042166852686979, -1.0715463825418978, -0.8846995747542079, -1.3372738146329228, -1.6415599312963365, -1.3049526953999, -1.2338242229027083, 9764.81843130498], "da_weight": [0.0, 0.0, 0.0, 0.0, 0.0, 0.0, 0.0, 0.0, 0.0, 0.0, 0.0, 0.0, 0.0, 0.0, 0.0, 0.0, 0.0, 0.0, 0.0, 0.0], "beta": [0.5, 0.5, 0.5, 0.5, 0.5, 0.5, 0.5, 0.5, 0.5, 0.5, 0.5, 0.5, 0.5, 0.5, 0.5, 0.5, 0.5, 0.5, 0.5, 0.5], "epoch_no": 20}