{"train_DA_loss": [0.07324600678066667, 0.05985779952005887, 0.06784564384022622, 0.05515841514525945, 0.04752710658777676, 0.04870398023201517, 0.04511167930347174, 0.045673475418600784, 0.04772722230750856, 0.0505286191796145, 0.05565281975094971, 0.06017740392951904, 0.05627302897641166, 0.05863220701624096, 0.05930095147579854, 0.05496034192319762, 0.054120562773136593, 0.05876574061906316, 0.05972217927113094, 0.05930152145883501], "train_regression_loss": [0.11865391081856254, 0.06201869651838674, 0.03358612461713648, 0.04780680577779764, 0.017710286298157202, 0.010948181053592911, 0.02408880874398803, 0.01115950922800102, 0.009226657312714121, 0.0070528003729375885, 0.008296809351187493, 0.005810656405600568, 0.006236213853606576, 0.0059091513976454735, 0.005092270314775176, 0.01016479593589289, 0.00969920455864622, 0.007150670533090612, 0.00497008475876827, 0.0032927435788732886], "train_mve_loss": [-0.1619092080966864, -0.16543869645814913, -0.23901086750779116, -0.1858918998770116, -0.26061235084939044, -0.21317355578571176, -0.2726844409472178, -0.23192316868514423, -0.2053528550801155, -0.1846722107877788, -0.2581748660292878, -0.18358353735160565, -0.20815068215022794, -0.24657501766570525, -0.21440008619095333, -0.2634432694621016, -0.3481323974550969, -0.3421184009237307, -0.257993120870381, -0.2022157641744047], "train_r2_score": [0.6391578548215654, 0.8128664268960446, 0.8985252808125657, 0.8549417599635903, 0.9464317327870008, 0.9667964986064056, 0.9275077045157374, 0.9662064037773798, 0.9719852732545762, 0.9786071651726487, 0.9747564468361124, 0.9823465067119606, 0.9810640151102066, 0.9820780821975441, 0.9845330325971277, 0.969151608250122, 0.9706156892532808, 0.9783955873432414, 0.9849267337363172, 0.9900090413260223], "val_source_regression_loss": [0.02342620381165909, 0.060453528278990636, 0.02248719922868134, 0.0300740413839304, 0.01277777833180337, 0.00923561778131731, 0.011665317618960067, 0.009174718385963123, 0.008646501970913592, 0.01044949625701278, 0.006162967267623053, 0.008333299432798653, 0.004493045602936911, 0.005296618282747797, 0.003958318630068363, 0.009775957888393085, 0.008647475739398712, 0.005557389222557032, 0.004012533684579443, 0.0029446171549490736], "val_target_regression_loss": [0.02660275722229028, 0.0672316804905481, 0.027173912081914612, 0.03224539690757099, 0.01410720630584261, 0.011242050760060171, 0.013365508835244028, 0.011458726287406833, 0.010089128195673605, 0.011217149410726903, 0.009473860069307723, 0.012905643274418161, 0.006344702242154486, 0.008179264431937209, 0.007695459318641997, 0.010204849352093436, 0.009787075233327436, 0.0070640993410650684, 0.0056523419798740855, 0.004964712665333778], "val_source_r2_score": [0.9281024458446719, 0.8153867031490921, 0.9312049914173166, 0.9084461924512925, 0.9610211780870489, 0.9717804326713474, 0.9641360599379245, 0.9718862757465387, 0.9736378261373427, 0.9681272766690265, 0.981079307983227, 0.9743000341457443, 0.9862355734745125, 0.9834810686063119, 0.9878682103930989, 0.9700606205978367, 0.9736238169549265, 0.9829852147241834, 0.9877243897286797, 0.9910137995756702], "val_target_r2_score": [0.9210156677285556, 0.8001309651855456, 0.9190804974132845, 0.9044573917504353, 0.958215587537708, 0.966586443385282, 0.9602052294722057, 0.9659884331182547, 0.9699167960301112, 0.9662883163368811, 0.9719869176669629, 0.9608043190200076, 0.9810908261169785, 0.9755576218287721, 0.977179778375285, 0.9696723383251611, 0.9706969616342538, 0.9790432314512566, 0.9831914054796407, 0.9852379813023994], "val_source_mve_loss": [-0.2680603503426419, -0.13438105017324037, -0.28707984542544884, -0.28573795775823957, -0.221747853333437, -0.18495323782480216, -0.25120617260661304, -0.17435344534961483, -0.18788791089495527, -0.13556558931175666, -0.17632970308201223, -0.18470261425157136, -0.1800267434195627, -0.2972073604034472, -0.20946945400932168, -0.34076306789736205, -0.35048218505292, -0.3243566683576077, -0.2301291855452936, -0.3123011366475987], "val_target_mve_loss": [-0.26569781688195243, -0.13024747654607025, -0.2759735422043861, -0.27950360692000087, -0.19573688073248802, -0.17507975557936897, -0.24463116160676449, -0.13382523874693278, -0.18725982591321197, -0.09766339581412604, -0.16299496364744404, -0.1676139788159841, -0.16804403934297682, -0.2915971520580823, -0.19912902331804927, -0.34019392049765285, -0.3487374443042127, -0.3210447125042541, -0.22289403367646132, -0.30708049294314804], "val_source_nll_loss": [-0.43151387534564056, -0.16980301767964906, -1.2135461478293696, -0.9933305020573773, 25.550351369230054, 23.8658547763583, -1.5603851668442352, 64.27817586403859, 17.963453956797153, 91.02100305919406, 19.2609717408313, -1.9758058212980438, -2.1873894281025175, -1.6138146904450428, -2.1277122980431664, -0.7346479726743095, -1.0270955826662764, -1.4145348705822909, -2.01003899000868, -1.583046096789686], "val_target_nll_loss": [-0.4282731568511528, -0.1645881490239614, -1.1516688518886324, -0.9729030886782876, 87.8585801803613, 16.248407377472407, -1.5148198212249369, 161.26888713655592, 4.309200024303002, 195.6979142932952, 5.45169990877562, -1.74336413793926, 10.022686651990384, -1.5705296223676657, -1.929566597636742, -0.7333251320863072, -1.019820724107042, -1.3977910129329827, -1.926634924321235, -1.5535412287410302], "da_weight": [0.0, 0.0, 0.0, 0.0, 0.0, 0.0, 0.0, 0.0, 0.0, 0.0, 0.0, 0.0, 0.0, 0.0, 0.0, 0.0, 0.0, 0.0, 0.0, 0.0], "beta": [0.5, 0.5, 0.5, 0.5, 0.5, 0.5, 0.5, 0.5, 0.5, 0.5, 0.5, 0.5, 0.5, 0.5, 0.5, 0.5, 0.5, 0.5, 0.5, 0.5], "epoch_no": 20}