{"train_DA_loss": [0.0401513446394824, 0.040397900430795476, 0.038022988249413275, 0.03587501519912994, 0.03839551634282909, 0.03804975231833606, 0.038435621565068225, 0.0369744196064239, 0.03736937116538694, 0.03862068771812009, 0.039113711558922556, 0.0395419954524888, 0.03951001196241575, 0.04098022321215277, 0.04004402280235203, 0.041188805750562676, 0.04249230524017671, 0.043190114223951616, 0.04042439911534952, 0.041332543475154984, 0.0403216202118497, 0.04036658179607426, 0.03957041489535865, 0.03940941385543434, 0.03967512481023559, 0.03998768681377663, 0.040257882810379945, 0.03960814898394362, 0.0393473456462188, 0.040139639331283256, 0.04034590100362161, 0.03955915099660265, 0.03927890245736299, 0.03857549080383407, 0.03984535692201781, 0.039365120746290665, 0.03994081565391756, 0.04066185669214133, 0.04001817305383342, 0.04372913697547189, 0.04143123234702203, 0.04078565788552356, 0.04065499900818089, 0.040440124168419966, 0.04110542788652114, 0.0400872990911251, 0.03989375257009889, 0.040274962919067854, 0.040629095757138356, 0.039726368977366464, 0.04124058095884715, 0.041622882787226756, 0.040794048488984595, 0.04141902209172737, 0.04118107629078398, 0.04123596046494501, 0.040725677510829034, 0.04060712911297569, 0.04088811212009878, 0.04079884412601399], "train_regression_loss": [0.13315113727003336, 0.02600946671872568, 0.024330975263084965, 0.02227334625222184, 0.015523617871793521, 0.010619650434845654, 0.014224258193599786, 0.01364191776138119, 0.025062343940799425, 0.011720956825877675, 0.006028591378522148, 0.0051706088511051925, 0.004072078476001047, 0.004085654886379852, 0.005473805392259763, 0.0069627799898202124, 0.015563543917870036, 0.007659569088543273, 0.104178984926152, 0.040328257403913645, 0.020787223674683837, 0.017665105580711497, 0.01635907864593092, 0.014399241496020523, 0.011870193131731132, 0.010834678494621755, 0.010294358307747699, 0.00839441577253533, 0.009100430272179069, 0.009706101982157943, 0.008487406174841268, 0.007606249111934379, 0.007868542306557624, 0.007643056186801419, 0.007528260182946838, 0.006953211976266321, 0.0074507099328566025, 0.006761269885246426, 0.007392942855199305, 0.044584416585141826, 0.010219279581330159, 0.007598711345412886, 0.006627611021666193, 0.006597733776335361, 0.006048888407759982, 0.006695173705895678, 0.006639885290915749, 0.006591101694201721, 0.09876615048890126, 0.039417257942804144, 0.012565944109697719, 0.01008186906565941, 0.008673492591347974, 0.008869201773641396, 0.008527227498631808, 0.007783041161125767, 0.00795395738339661, 0.007992649366619437, 0.010592279343659796, 0.007473080343238233], "train_mve_loss": [-0.1438396649002702, -0.233030589723064, -0.21829789766609342, -0.29184543598831464, -0.23413203935218904, -0.2735381189263826, -0.27436680667497343, -0.31425194936707423, -0.27244364387837583, -0.2663570044245537, -0.1875035254662717, -0.2437423108455468, -0.19642761517213947, -0.18768530273963263, -0.32468356630701906, -0.28356816761291004, -0.2097707310218153, -0.1823307445623539, -0.15016051735541694, -0.30595544983089734, -0.33904204922140846, -0.34060392404823026, -0.31612024294175, -0.21928489580750465, -0.1917626672855134, -0.1873228660353904, -0.1859906219112835, -0.18043549557367997, -0.18674909650693755, -0.1877633177111746, -0.18292246580335023, -0.18285677308587858, -0.19020974749130568, -0.19854102884393723, -0.19184065367720027, -0.194365141426351, -0.18956475087204844, -0.20162908855989112, -0.20516185573143866, -0.27233036586051124, -0.29996517135794026, -0.18027157307188732, -0.17422639624210554, -0.17428616193928492, -0.17382111900249392, -0.18575733334977024, -0.22021546907692302, -0.18132831300974872, -0.08821200695181677, -0.24904661351845514, -0.2010290559238228, -0.191683069571267, -0.1879146396841384, -0.19069002260380788, -0.18661352384569876, -0.19288779975475243, -0.2000415558829713, -0.21660936359908617, -0.19489528238092305, -0.1916519764698429], "train_r2_score": [0.5958568456173283, 0.9207860766467607, 0.9261318623038161, 0.9325189058648715, 0.9529866244006849, 0.9677463130268857, 0.9569066676606937, 0.9586493839720631, 0.9242127607168064, 0.9646002087915065, 0.9817018970095716, 0.9843014524820891, 0.9876452212774981, 0.9876102442695628, 0.9834712127939561, 0.9789021068410922, 0.9524888397467937, 0.9768439197822082, 0.6838506381580319, 0.877700688242202, 0.9371027062532783, 0.9465213588565403, 0.9505314537366789, 0.9564078674755596, 0.9639703915566809, 0.9671475095672696, 0.96865454771526, 0.9746032912437419, 0.9724547662873448, 0.9705473209160137, 0.9742278372092851, 0.9769732929157376, 0.9760991053210584, 0.9768682566062319, 0.9770821695251726, 0.9789400614587441, 0.9773649583579601, 0.979499705388756, 0.9775920046626275, 0.8628414542923437, 0.9690516632624314, 0.9768776100828711, 0.9798930132911818, 0.9799235780681519, 0.9816973024672051, 0.9796412005587417, 0.9798696928189744, 0.9799466709528191, 0.7043088167460221, 0.8807262855406877, 0.9618795935035414, 0.9693972116412471, 0.9737001229787308, 0.9730126789966234, 0.9740334209659348, 0.9764475846917675, 0.9758904358747291, 0.9757807650775526, 0.967923613411804, 0.9773712743295856], "val_source_regression_loss": [0.015423067244170587, 0.02207302763067846, 0.020604551710848566, 0.019512133484211148, 0.016958595336049417, 0.007712147658384299, 0.012423316700549065, 0.009562551633372336, 0.011429277743814113, 0.007552795259494193, 0.00487494117379943, 0.004122224203134074, 0.004090372246065283, 0.005314723606209589, 0.00598746694954513, 0.004759749571521637, 0.01671594123155633, 0.005725157184856413, 0.09492590721649459, 0.022045924528678762, 0.017760262305883668, 0.017138102964226958, 0.02361304861127953, 0.015061690047666242, 0.015915028061246193, 0.006423640683812054, 0.009615176174601045, 0.006812375981973697, 0.008329146848166291, 0.0062786092056268, 0.005889342584989116, 0.005842997288755789, 0.006813897668749471, 0.006482901660242129, 0.0046915499275385205, 0.011387245829771214, 0.004296807103637087, 0.0042815251258213685, 0.0037170910347205928, 0.015033147504105221, 0.005776810141492493, 0.004587265379915509, 0.0039024667702379483, 0.004129978512779255, 0.003704815033139496, 0.008130420102513854, 0.004229121160681678, 0.005377303337371802, 0.09130104216216486, 0.019493348389581035, 0.009023589907284779, 0.007236718147097132, 0.006131709839181998, 0.00627988795867732, 0.005685120098929428, 0.005183102350823487, 0.005166818269917482, 0.005839258426493859, 0.00458209938959136, 0.0056827713476045975], "val_target_regression_loss": [0.01713758777190424, 0.02598260706172714, 0.0231481392667452, 0.020417575818734077, 0.019360569058151186, 0.008763407327564834, 0.012939354045245844, 0.01032263500898888, 0.013510700904681712, 0.010325959300080055, 0.006633873831457164, 0.005573580171205575, 0.005192026787708643, 0.006231213351004297, 0.006927743583587529, 0.006240379925864407, 0.019138542628740964, 0.007219808123109839, 0.09696432108743282, 0.025119881805834136, 0.020931293563092056, 0.01923825010610155, 0.024607303033618234, 0.017742852149884913, 0.019747611624483442, 0.008129519145181285, 0.01191453632745373, 0.008045910386062121, 0.009149946667301127, 0.008503798318767472, 0.007964518770009657, 0.007366986485504651, 0.009010090981904842, 0.009088701486021658, 0.006091221807453829, 0.011615064083539609, 0.005574242438814497, 0.005570186039762972, 0.005537587763222901, 0.017948278768247443, 0.007004769253721343, 0.005608261822239507, 0.005498130145612397, 0.005103795585823776, 0.00514218520927184, 0.008236899317678395, 0.005699492873081678, 0.007208560894043008, 0.09772967141640337, 0.021698472290476667, 0.010807202963889399, 0.008257669762154168, 0.007978110120313454, 0.008380993248753344, 0.00777281066284904, 0.006085571585388123, 0.007549032168109206, 0.008285417174330996, 0.00566995993574869, 0.008163868897606301], "val_source_r2_score": [0.9526039625247983, 0.9324538512798156, 0.9368788246212733, 0.940612697757013, 0.9479711395276376, 0.976419435009343, 0.9618512017589258, 0.9706973836343034, 0.9652512646034213, 0.9769406689323871, 0.9851018385366632, 0.9873277317004462, 0.9875447094698413, 0.9834697723072443, 0.9817467796898026, 0.9854888693135775, 0.9488679731544146, 0.9824666339460948, 0.7100763242689488, 0.9326937178554408, 0.9455887152936593, 0.9474409622319858, 0.9279867398724946, 0.9535476927403416, 0.9500025036251726, 0.9803364948141526, 0.9703655937777328, 0.979201012703826, 0.974432855704997, 0.980725487923939, 0.9819254960435073, 0.9820042375418325, 0.9792161220522055, 0.9802830943698461, 0.9843289864594978, 0.9648693059102426, 0.9866861492096829, 0.9867647016284794, 0.9885544114509178, 0.9538520784990011, 0.9823170475194531, 0.9859313977826161, 0.9879901751473618, 0.9873974417840692, 0.9886394986126007, 0.975074625601723, 0.9871566945694595, 0.9835220334601477, 0.7210256228214107, 0.9398115220853028, 0.9725297751582789, 0.9777379517390186, 0.9812544081131536, 0.9805733876509524, 0.9824882452676662, 0.9840845067429677, 0.9841014617897962, 0.9821645075944598, 0.9860125604074793, 0.9826265905681792], "val_target_r2_score": [0.9491055001402143, 0.922479659131348, 0.9308975601632237, 0.9395471815182016, 0.94239778152134, 0.9738741835799957, 0.9616039918956336, 0.9693460004025087, 0.9598096109063056, 0.9690824229494518, 0.9804615729464693, 0.9825946659345373, 0.98455157631631, 0.9813961646916755, 0.9794387631015614, 0.9814553511575618, 0.9424488518816219, 0.9785576513708614, 0.7126987678408941, 0.9254990546620394, 0.9381204786992597, 0.9423471979856471, 0.925973410665377, 0.9469085548604078, 0.9406064549399529, 0.9759409248396852, 0.9646377636457972, 0.9761839821559855, 0.9726630509179406, 0.9745771352034673, 0.9761553494661365, 0.9779322572921744, 0.9730496587380835, 0.9728925056957057, 0.9818139139876656, 0.965122957791365, 0.9831623437693705, 0.9834568486791864, 0.9829552431015623, 0.9465024201247892, 0.9792054568420087, 0.9832092389833572, 0.9835211452759985, 0.9848927413527593, 0.9846435953181774, 0.9753027240253026, 0.9830300198673496, 0.9784499904841217, 0.708987020265203, 0.9352268220027078, 0.9678350897013652, 0.9754536541551022, 0.9763325445330662, 0.9749707654263265, 0.9769672120713608, 0.9819599515349371, 0.9774509682931227, 0.9754242907898415, 0.9829955588493512, 0.9756643428174577], "val_source_mve_loss": [-0.26134318132189255, 0.21275311090712307, -0.3344667704799507, -0.30253429352482664, -0.2982282189628746, -0.1933265931998627, -0.30087781744667247, -0.3207884355436397, -0.2720979878419562, -0.21408486083338532, -0.2447114381231839, -0.20400151402889927, -0.243192822306971, -0.3565515110009833, -0.35833518414557736, -0.19088246833674516, -0.2917630140539966, -0.17591833313809166, -0.23502528478827658, -0.33461793804470497, -0.34363746907137616, -0.33502383096308647, -0.25620659601084794, -0.1662589845872378, -0.1312930705497348, -0.20608414294598978, -0.17658119441210468, -0.21071333221242397, -0.2579967771904378, -0.1559800506581234, -0.18857492902610876, -0.20783574011506914, -0.2218241942457006, -0.15926365573194962, -0.1437558628194317, -0.2068678868722312, -0.1720713505262061, -0.31041465152668046, -0.10050075218270096, -0.347688145652602, -0.22381970795649517, -0.1685613139143473, -0.20641349067416373, -0.23205287792260135, -0.17695712401897093, -0.18409543625916105, -0.3126327010649669, -0.21581265726421453, -0.25755281614351877, -0.29005704839018326, -0.17318733998491795, -0.137497042364712, -0.2314382384095011, -0.1573661820420736, -0.20626250682752342, -0.1591326273694823, -0.11113454825893233, -0.2173613407943822, -0.15648557472078106, -0.257164305523981], "val_target_mve_loss": [-0.2565026707664321, 0.29113599719314637, -0.3311190522169765, -0.30100044155422645, -0.2962226030192798, -0.185957334841354, -0.3003573006466974, -0.3193502037585536, -0.26500676911842974, -0.1573918446709838, -0.23664609880387028, -0.19532989757724956, -0.23865089518359944, -0.35545817922942247, -0.35714595906342134, -0.18515410736391816, -0.28719152566752854, -0.16921437201620657, -0.23314212092870398, -0.331109829341309, -0.33940496814401844, -0.3316279502609108, -0.2537186760691148, -0.15308057233879838, -0.10992473625589776, -0.19794602560091623, -0.1647206055401247, -0.20506436028812505, -0.25533291622053217, -0.14146502693242666, -0.17745650625681575, -0.2005698667674125, -0.21247979621343974, -0.14275002847366694, -0.13372543529619144, -0.2059461066994486, -0.16399159480499315, -0.30713944646376595, -0.0802478886009017, -0.3438318850873392, -0.21876723649381083, -0.16215916666426236, -0.19822644772408884, -0.22785735865937004, -0.16792140184323998, -0.18357529010199294, -0.3089491117604171, -0.20736912326722207, -0.24987409160106996, -0.28505298646190497, -0.1635739571308788, -0.13079570969448814, -0.22395412039153184, -0.14388661463803884, -0.19618397687054887, -0.1532331076981146, -0.08941862972665436, -0.20635055646866182, -0.14879764427867118, -0.24838339188430883], "val_source_nll_loss": [-1.4491429721252829, 1412.0959601326833, -0.9101782011080392, -1.246438136583642, -0.5198714378513868, 27.738685557359382, -0.5104513047616693, -1.3511792345892024, -1.409895412529571, -1.8408608828918844, -1.8870283757584005, -2.1295875537244577, -1.9342542992362493, -0.8328014966807787, -0.8849019174334369, -2.1757968679259094, -1.3701509569264665, -2.1397675954842867, -0.4101488167726541, -0.7495955138266841, -0.9049464358559137, -1.081521143641653, -1.3339527860472473, -1.532830827975575, -1.4225536579195457, -1.9603108982496624, -1.8338985518564153, -1.9312125700938552, -1.7074289140822012, -2.041259839564939, -2.0367436590073984, -1.99137837071962, -1.898204267779483, -2.024638130695005, -2.1699285556243946, -1.7253493538385705, -2.200241256363784, -1.5607644651509538, -2.1997983908351464, -0.9039346092863928, -1.9396888470347924, -2.1714720861821233, -2.125335918197149, -2.00157320650318, -2.2422903036769433, -1.9007989183256897, -1.546556276611135, -1.9944008347354358, -0.6176300094097475, -1.306514604182183, -1.8569842908955827, -1.8744045314909537, -1.9007833879205245, -2.0371247711060922, -2.009017392049862, -2.13976449453378, -2.043309241910524, -1.9647339386276053, -2.1879659951487676, -1.811286189888097], "val_target_nll_loss": [-1.4215651101703886, 1626.1974517544613, -0.902367396445214, -1.233114376852784, -0.5166811422456669, 38.63728431810306, -0.5094247271743002, -1.3424291731436042, -1.3519056854368765, 124.84747704222232, -1.8094385047502155, -2.0046245523645907, -1.898261992237236, -0.8298667548577997, -0.8818933699704423, -2.0858441485634334, -1.3407623948930185, -2.0390378945990455, -0.4065534027316902, -0.7413475596452062, -0.8934441276743442, -1.070476151719878, -1.321185044095486, -1.3975113532211207, -1.1776390756610073, -1.8799372383310824, -1.708901224257071, -1.8778384697588184, -1.6890990477574022, -1.8474465065364596, -1.9142869937268994, -1.920336495471906, -1.8176444255853001, -1.813281364078763, -2.0247638119926936, -1.7170052286944812, -2.095490108562421, -1.5438488027717494, -1.7424687320673014, -0.8936933897718599, -1.8980129896839963, -2.089341818531857, -2.040202964710284, -1.9646606520761418, -2.127439055261733, -1.8948739057854762, -1.5276058716110037, -1.9161065741430354, -0.5993390121037447, -1.2845948753477652, -1.7442953103705297, -1.7604920124705834, -1.8366381337371054, -1.85554283480101, -1.9078431023827083, -2.0582448953314674, -1.6384006033215341, -1.8637652276437493, -2.07813069337531, -1.7482306217845482], "da_weight": [1.4, 1.4, 1.4, 1.4, 1.4, 1.4, 1.4, 1.4, 1.4, 1.4, 1.4, 1.4, 1.4, 1.4, 1.4, 1.4, 1.4, 1.4, 1.4, 1.4, 1.4, 1.4, 1.4, 1.4, 1.4, 1.4, 1.4, 1.4, 1.4, 1.4, 1.4, 1.4, 1.4, 1.4, 1.4, 1.4, 1.4, 1.4, 1.4, 1.4, 1.4, 1.4, 1.4, 1.4, 1.4, 1.4, 1.4, 1.4, 1.4, 1.4, 1.4, 1.4, 1.4, 1.4, 1.4, 1.4, 1.4, 1.4, 1.4, 1.4], "beta": [0.5, 0.5, 0.5, 0.5, 0.5, 0.5, 0.5, 0.5, 0.5, 0.5, 0.5, 0.5, 0.5, 0.5, 0.5, 0.5, 0.5, 0.5, 0.5, 0.5, 0.5, 0.5, 0.5, 0.5, 0.5, 0.5, 0.5, 0.5, 0.5, 0.5, 0.5, 0.5, 0.5, 0.5, 0.5, 0.5, 0.5, 0.5, 0.5, 0.5, 0.5, 0.5, 0.5, 0.5, 0.5, 0.5, 0.5, 0.5, 0.5, 0.5, 0.5, 0.5, 0.5, 0.5, 0.5, 0.5, 0.5, 0.5, 0.5, 0.5], "epoch_no": 60}