{"train_DA_loss": [0.03498126014086402, 0.0361944450545627, 0.03343574642467651, 0.03080243787045507, 0.026306924011755797, 0.02949447971062098, 0.02669956550594603, 0.027497087910063087, 0.022831915360168847, 0.023652700503004317, 0.02296444931675355, 0.021176546975507162, 0.017356327709348588, 0.013655504291805641, 0.014847100468887054], "train_regression_loss": [0.1466869270646948, 0.020939396087325413, 0.021014397890669664, 0.027843491901291137, 0.01673693826738779, 0.01808052079435404, 0.015737497989238125, 0.02173300138189435, 0.008990106236707195, 0.018836284527926274, 0.01446557546569072, 0.013087750801568003, 0.010871131672869544, 0.012016034934506283, 0.00959184142365929], "train_mve_loss": [-0.15048835333011076, -0.1945551939690026, -0.2427597091868656, -0.23489775011482797, -0.255331400632041, -0.1903715913730522, -0.26888629911940753, -0.27594402368423926, -0.19831112909115428, -0.23840907888939875, -0.2770956102452178, -0.24041179758947773, -0.21353867423245632, -0.2863694056187513, -0.23187895906472772], "train_r2_score": [0.5523080036012804, 0.9366075681692184, 0.9364253929255846, 0.9155545959358128, 0.949184431256217, 0.9448746491046863, 0.9521843681100466, 0.9336387875683961, 0.9727279881477904, 0.9431110963332671, 0.9560453097554982, 0.960178441565583, 0.9669280125521384, 0.9636407888895324, 0.9707748052068531], "val_source_regression_loss": [0.02195168956171108, 0.015614317258513427, 0.032285620305168475, 0.022634241965752613, 0.012551642329538171, 0.01598601604375658, 0.025516654140775717, 0.012535320612590146, 0.009717890191115911, 0.013734980580644518, 0.01010855294976242, 0.008178416462733021, 0.008934246835923648, 0.010324383584806059, 0.00629819745103581], "val_target_regression_loss": [0.02396257461013296, 0.01714257703787541, 0.03212548389182061, 0.02488503581549548, 0.013881530282618125, 0.01659917330392931, 0.0263966735735347, 0.01753090913820116, 0.011345905799984554, 0.014497605541461631, 0.010912075573932143, 0.008680731181904107, 0.013015048265975864, 0.009787788361169492, 0.007284287911474328], "val_source_r2_score": [0.9322909411878221, 0.9519693681352722, 0.8994402316270999, 0.9304853553522469, 0.9615259348183168, 0.9512329144215615, 0.9215580943541104, 0.9618300999891284, 0.9703260745221058, 0.9578557597383865, 0.9688777152365597, 0.9750310191882404, 0.9725408376784451, 0.9683631776848555, 0.9806488606113796], "val_target_r2_score": [0.9286468539877154, 0.9491462450417343, 0.9044712041461043, 0.9259855661394248, 0.9585257936142014, 0.9503342710234801, 0.9212281076786378, 0.9477930198762442, 0.9663305545903765, 0.9566273382704468, 0.9675599784592026, 0.9741132954420652, 0.9568621764424748, 0.9705078013159341, 0.9783136065967521], "val_source_mve_loss": [-0.3336079033869731, -0.2516593367238588, -0.3251232727418972, -0.3137676915790461, -0.34909479640707186, -0.2799446533752393, -0.25314886245546464, -0.2185443138019948, -0.3296277009988133, -0.29595641622060465, -0.20434955479223518, -0.2807644428331641, -0.3009087556525122, -0.2232568150834192, -0.35090959185286413], "val_target_mve_loss": [-0.3311218525035472, -0.24689934959140006, -0.3252915755102906, -0.3097053577628317, -0.3475180075892919, -0.27880524230908743, -0.25259676085242744, -0.2050140162434759, -0.3282890927188004, -0.2954683945148806, -0.21377589883683604, -0.27861847605886336, -0.2958318055430545, -0.22418771759618686, -0.3491766588597358], "val_source_nll_loss": [-0.765312105040007, -1.5457521827915046, -0.7448996388459508, -1.1222880942912041, -0.8784530736223052, -1.4021250160434577, -0.38533979880658886, -1.7013212548026555, -0.6799046714094621, -0.5254531072664864, 39.643593822853475, -1.6188397860225243, -1.5013554956339583, -1.7835065941267376, -1.083962316754498], "val_target_nll_loss": [-0.7592352538169185, -1.5192759263364575, -0.74580921779705, -1.1015289720100692, -0.8775159279002419, -1.3994607382182833, -0.384693391715424, -1.6101415911807289, -0.6786907617049881, -0.5256701119338409, -1.6620218301121192, -1.6075158209740361, -1.4815204324601572, -1.782132270969922, -1.0805866416496566], "da_weight": [1.4, 1.4, 1.4, 1.4, 1.4, 1.4, 1.4, 1.4, 1.4, 1.4, 1.4, 1.4, 1.4, 1.4, 1.4], "beta": [0.5, 0.5, 0.5, 0.5, 0.5, 0.5, 0.5, 0.5, 0.5, 0.5, 0.5, 0.5, 0.5, 0.5, 0.5], "epoch_no": 15}