{"train_DA_loss": [0.038267773087434405, 0.03723601170115758, 0.03671857369706116, 0.03721370721675142, 0.03780314936157881, 0.037485991878744886, 0.03730804963510695, 0.03558709317821689, 0.035985848129177, 0.03518283475442386, 0.03560456527325527, 0.035433924006097274, 0.03470359026527601, 0.035524201673034994, 0.03486325660928185, 0.0345898719037963, 0.03344587486925138, 0.03431757915104438, 0.03449290684361345, 0.03452723476375152], "train_regression_loss": [0.19841568287584582, 0.017081688461277014, 0.01621528156953004, 0.05377244635040734, 0.043279516604308454, 0.026536930354152017, 0.020138696518810076, 0.01872113436950844, 0.017713293017754823, 0.015505637205674072, 0.012652028614222677, 0.012463489681877318, 0.014827542092950787, 0.014112773041497963, 0.010655870328281055, 0.023263091349146812, 0.022727850596446005, 0.01395763694163977, 0.014215760289689686, 0.011171617740135252], "train_mve_loss": [-0.10604360056666477, -0.26309205523915113, -0.2543587995015453, 0.031224491014664606, -0.21127331414867798, -0.2893887206339967, -0.25083880836120254, -0.3163487990906077, -0.2678135591516547, -0.22724068077652285, -0.2609548285617144, -0.24466616614045783, -0.3176303171370539, -0.28124834515385916, -0.20855584052788056, -0.15957985420318038, -0.3161335177787697, -0.26865640121905415, -0.23582861129146826, -0.24877632741681838], "train_r2_score": [0.3946668137004071, 0.9481508705383696, 0.9508916168997895, 0.8374196412767095, 0.8689324530001182, 0.9197638764416322, 0.9387786299790923, 0.9432915646753994, 0.9461830166066335, 0.952950620681233, 0.9615792281770326, 0.9621407280022002, 0.9549968424702062, 0.9572362834049749, 0.9677187434403275, 0.9296563266578224, 0.9311196004223057, 0.9576145532397764, 0.9568414430716418, 0.966069273479676], "val_source_regression_loss": [0.01890850995514023, 0.014222318813487698, 0.010297025206109768, 0.0428648227472094, 0.04302096753558026, 0.019901362353865103, 0.018227295254510414, 0.01686781704944523, 0.014491197782792623, 0.012629172387473945, 0.012425593542571686, 0.013494205814373644, 0.015013785749862466, 0.011175011496849453, 0.008982888269650786, 0.024149604896201365, 0.017049025119388404, 0.01051650977917487, 0.012973209536528285, 0.024614965731773197], "val_target_regression_loss": [0.02339435892203186, 0.016728313757648952, 0.012258491195926938, 0.04898997466964058, 0.046830744824454755, 0.02340417668883559, 0.021579826840117007, 0.01988068396296305, 0.018012833781540394, 0.015269231947162483, 0.014453589102795606, 0.015716647328455235, 0.016855554454783095, 0.012985662663284736, 0.01067845323535649, 0.02612458560851556, 0.018956700964724717, 0.01163481441149606, 0.01383581355544208, 0.02799294360830814], "val_source_r2_score": [0.9422270546680853, 0.9565333880758954, 0.9681812214695291, 0.86945546156316, 0.8693510364767709, 0.9392560125001066, 0.9440487370809864, 0.9484011968506632, 0.9556953342168358, 0.961235583124126, 0.9618060931070144, 0.9590135426289422, 0.9539093004692988, 0.9657083974334572, 0.9723026307485572, 0.9260768265160553, 0.9478715549969887, 0.9676801041218736, 0.9602687003754867, 0.9242988306026686], "val_target_r2_score": [0.9300808997749279, 0.950312314419692, 0.9633633215837629, 0.8540512467978779, 0.8604440675025175, 0.9304276099623462, 0.936079851438958, 0.9407297732328783, 0.9459262077285423, 0.9543160802788865, 0.9571931515281016, 0.9527152238278302, 0.9498099905322793, 0.9614458616754787, 0.9681839885868847, 0.922114388170229, 0.9437882824372826, 0.9653779423458934, 0.9586503800569859, 0.9161622722230343], "val_source_mve_loss": [-0.2787735805481295, -0.18534815820712078, -0.23334787899180304, -0.1286190230446526, -0.2105451899616024, -0.32344420650337313, -0.28838193605217755, -0.3421162412136416, -0.17462744582680206, -0.19049071067873435, -0.30095557208302653, -0.3077862526797041, -0.250991477241999, -0.23190192689624015, -0.1531273683037939, -0.23957594946215424, -0.33845931178406824, -0.18787371697305125, -0.2930201673054997, -0.16066740755038925], "val_target_mve_loss": [-0.2685581213688549, -0.17500148713588715, -0.22576738988296896, -0.12637683786923373, -0.2080189468739908, -0.3165744226190108, -0.2854188397715363, -0.3386054657682588, -0.18837456640940678, -0.19277335175230534, -0.2961574061007439, -0.3057892514935023, -0.23932863630448717, -0.22551088827320293, -0.13936639671461493, -0.23801768373084975, -0.33555005245570896, -0.21437580213893817, -0.2914468642277054, -0.14811428773063648], "val_source_nll_loss": [-1.3674371287792544, -1.544272300563281, -1.6332023083409177, -0.16213874839529208, -0.2997744430469561, -1.0604549857634533, -0.481863433047186, -0.8089586345455314, 148.4289901000035, 55.03416585620445, -1.3626933701430695, -0.5426138118852543, 24.01599894897847, -1.6316039320788807, 92.61791910249976, -0.3524600425853005, -1.0085904666140109, 112.34707266620443, -1.4175698953338816, -1.1816095136388947], "val_target_nll_loss": [-1.3100589543958254, -1.4213958691947068, 1.0956455665298654, -0.15929504134986974, -0.29604620684551286, -1.0336970173859898, -0.47678956993018523, -0.8002987956698937, 67.51119630548018, 25.075665870044805, -1.3363820902908905, -0.539056412026852, 46.256091710132885, -1.5725213938121554, 118.5185462062872, -0.3500591976733147, -0.9992063837715343, 21.703448770166954, -1.407822323750846, -1.0337764281260817], "da_weight": [1.4, 1.4, 1.4, 1.4, 1.4, 1.4, 1.4, 1.4, 1.4, 1.4, 1.4, 1.4, 1.4, 1.4, 1.4, 1.4, 1.4, 1.4, 1.4, 1.4], "beta": [0.5, 0.5, 0.5, 0.5, 0.5, 0.5, 0.5, 0.5, 0.5, 0.5, 0.5, 0.5, 0.5, 0.5, 0.5, 0.5, 0.5, 0.5, 0.5, 0.5], "epoch_no": 20}