{"train_DA_loss": [0.37684049552657267, 0.22316285144449152, 0.18962590345326247, 0.1768427155298986, 0.16800496907703838, 0.16238629523753248, 0.15795059586573781, 0.15383672667241619], "train_regression_loss": [0.9861374315848298, 0.11130404409184588, 0.07655063061932378, 0.06485633767623679, 0.057268481211263475, 0.05390201764048454, 0.052392199208152905, 0.04926591178987999], "train_mve_loss": [0.440704857991409, -0.08388373968523452, -0.09342408844889559, -0.10253145306335398, -0.09760113224988187, -0.11258208055570176, -0.1147109528107933, -0.10915827748350376], "train_r2_score": [-2.1080783067678373, 0.6498899109905389, 0.7587782028450148, 0.7957303735398642, 0.8195154152556701, 0.8305705677234311, 0.835634952937966, 0.8452817667212396], "val_source_regression_loss": [0.17372899526243757, 0.08449664830592028, 0.0713286413366248, 0.06452825988174245, 0.06050328345625264, 0.06033055179390558, 0.056050939010871444, 0.05285738275688925], "val_target_regression_loss": [0.201829003585372, 0.10769922843879196, 0.09374918515799911, 0.0812191537753412, 0.07496072143126445, 0.07033252250996365, 0.06615019423566806, 0.06345011459983838], "val_source_r2_score": [0.45574972167801975, 0.7299010456655858, 0.7745313204391361, 0.7996410842110667, 0.8103458457338949, 0.8124679109104416, 0.822297872531187, 0.8329777421822885], "val_target_r2_score": [0.3592728964742501, 0.6590042705281632, 0.7067476773161677, 0.7414471834608829, 0.7586302316868708, 0.7794735169441005, 0.7923314679713486, 0.7995333957898217], "val_source_mve_loss": [-0.06611098974326234, -0.08551391233707879, -0.08370790407536136, -0.10460494603415962, -0.13304124440357185, -0.12021103221329914, -0.0867680121675893, -0.06986011174406595], "val_target_mve_loss": [-0.049841734379007935, -0.0843020575180365, -0.06377922005026014, -0.08814120679429382, -0.126526453882266, -0.1153634996301714, -0.07027929391605174, -0.050488040755817275], "da_weight": [1.4, 1.3946666666666665, 1.3893333333333333, 1.384, 1.3786666666666665, 1.3733333333333333, 1.3679999999999999, 1.3626666666666667], "beta": [1.0, 0.984, 0.968, 0.952, 0.9359999999999999, 0.92, 0.904, 0.888], "epoch_no": 8}