{"train_DA_loss": [0.1746043798665242, 0.08830020120418486, 0.1592608494530866, 0.16098689008674413, 0.19504151866521, 0.16105114849764424, 0.12870070157092495, 0.11361720941456842, 0.11242468062604367, 0.11637619092815318, 0.11480240691351062, 0.11768613668529818, 0.10588479687679403, 0.10374541719609248, 0.11301630431653377, 0.14661926138717035, 0.1364658039465029, 0.1431537408797135, 0.155819648280876, 0.16181453489025943], "train_regression_loss": [0.13030869364091477, 0.02332549939405384, 0.017240292133875804, 0.02506830640668407, 0.023832929257637185, 0.022562462163976713, 0.02263974299964238, 0.020298507956743678, 0.016610199274832357, 0.010291940118892754, 0.00924902040702061, 0.01024867624207868, 0.007483697126038931, 0.006624794959293259, 0.014157042406598137, 0.015490315668965934, 0.013516283664729794, 0.010727699951590524, 0.007933051908521538, 0.005674359737256954], "train_mve_loss": [-0.14374282487056864, -0.22381210318294914, -0.2563216035446694, -0.17971563404783525, -0.25369927357248895, -0.27453213368952817, -0.18130119489863433, -0.29358317083262003, -0.2744674788042222, -0.23874917270877896, -0.2516758508666996, -0.2818106048667235, -0.21101343550019552, -0.24194290559786547, -0.21045301192639296, -0.30892076756008363, -0.33872413858635114, -0.3502802950154711, -0.35653657255050686, -0.3594755780435349], "train_r2_score": [0.6011123382045404, 0.9293268664706252, 0.9475967174464648, 0.924029304925748, 0.9278134666904364, 0.931644242971036, 0.9313601616268102, 0.9383690061576794, 0.94985067004319, 0.9688227955920667, 0.9719188826496912, 0.9689549381997138, 0.977383674537406, 0.979896825054751, 0.9568667941538447, 0.9529491345880211, 0.9590595527280433, 0.9675139430410751, 0.9759889335049453, 0.9828430780475637], "val_source_regression_loss": [0.018972724570032164, 0.016461788193334506, 0.013016694472937644, 0.030112411803271198, 0.01850984067526422, 0.014291088910231108, 0.02740773447801041, 0.013838866336530522, 0.011682828027707867, 0.00988871713840886, 0.007849969635894405, 0.007646782842429378, 0.00965443614846732, 0.005842932942028665, 0.03724490365461458, 0.013948858939582788, 0.012303282035208201, 0.009252106688350817, 0.006721156944013849, 0.0049969004260824075], "val_target_regression_loss": [0.02286977647461846, 0.0169916907325387, 0.05531444129404388, 0.09872782838684094, 0.03941743523825573, 0.025860356473470035, 0.04514241015797929, 0.019732119657004936, 0.01829234557815745, 0.017893110484450678, 0.01805366871619149, 0.014675634677368628, 0.01826001262834555, 0.011346549591450374, 0.05384891239714019, 0.023966812729081022, 0.01824669725014062, 0.014300100705763208, 0.012779530715433102, 0.016197720955161355], "val_source_r2_score": [0.9416520808076764, 0.9493712989895775, 0.9594737226262819, 0.907076535207113, 0.943297904515582, 0.9564168939290564, 0.9161436402981724, 0.9582030908450547, 0.9644383204421958, 0.9696057808732105, 0.9758372239137775, 0.9765744970099801, 0.970379408552799, 0.9820936188385965, 0.8853231141699365, 0.9567873379561346, 0.9623361641140131, 0.9717621474451207, 0.9795489600142074, 0.9846798305195488], "val_target_r2_score": [0.9320031291266156, 0.9497501817678055, 0.8360291381890497, 0.7031772702103536, 0.8822687972723431, 0.9224886847531821, 0.8654983955667035, 0.9412558915947161, 0.9457078148734442, 0.9464962424007816, 0.946323814445046, 0.9562529862953006, 0.9452259011723856, 0.9659347271804016, 0.8389662582311359, 0.9285498687491832, 0.9456982536381783, 0.9571612484508232, 0.9619854791003832, 0.9516479033214936], "val_source_mve_loss": [-0.2395909679464147, 0.056379721464612814, -0.15734413105852996, -0.28186604795576653, -0.34052476513234875, -0.2800645375553566, -0.21682348055175588, -0.20292311265498778, -0.19314880584236943, -0.1272830209117147, -0.21073295543842677, -0.20163406469399417, -0.32690510229219366, -0.2424440823401077, -0.2638898201381104, -0.3306485056122647, -0.34562941631184346, -0.3541278850428666, -0.3583762509913384, -0.35985300246673296], "val_target_mve_loss": [-0.24062440723558015, -0.010720902794524085, 0.42050028481532503, -0.2118189889418928, -0.3169663691822487, -0.26640658042853393, -0.20592085696473905, -0.026018945382365696, -0.10592548101197315, -0.057750693557760385, -0.005058398776793782, -0.06894074738780155, -0.3102008968214445, -0.20941467884975143, -0.2513166019056417, -0.32078579596326323, -0.33872428385517267, -0.34754312755186345, -0.34999258835104446, -0.34359831221496], "val_source_nll_loss": [43.8173554501956, 940.0370718210559, 169.35447252173967, -0.7099610567092896, -0.8168370980250684, -1.458851491348653, -0.30434749209428136, 186.10343088002145, 109.87199870959113, 238.4404218174234, 4.323925609830059, 2.0515791524814655, -1.3143434192560897, -1.824258415004875, -0.4268176234975646, -0.6708538811418074, -0.799886019924019, -0.8982011072243317, -0.9771790617628943, -1.041336862346794], "val_target_nll_loss": [23.211185720902456, 752.8680507208727, 1603.229909656923, -0.522855716792843, -0.7629734745508507, -1.2697265299060676, -0.29163169823115387, 682.2581577859347, 318.20293669534635, 385.01955452976347, 570.7548068482664, 315.84771859570395, -1.2510573879072937, -1.4767435509947282, -0.41038797361941276, -0.6546952837630163, -0.7855790876135041, -0.8805030848406539, -0.9515618651728087, -0.9912469734119463], "da_weight": [0.0, 0.0, 0.0, 0.0, 0.0, 0.0, 0.0, 0.0, 0.0, 0.0, 0.0, 0.0, 0.0, 0.0, 0.0, 0.0, 0.0, 0.0, 0.0, 0.0], "beta": [0.5, 0.5, 0.5, 0.5, 0.5, 0.5, 0.5, 0.5, 0.5, 0.5, 0.5, 0.5, 0.5, 0.5, 0.5, 0.5, 0.5, 0.5, 0.5, 0.5], "epoch_no": 20}