{"train_DA_loss": [0.11953618658035721, 0.09892889220519518, 0.0829094133562863, 0.05682660296041743, 0.05113736116131546, 0.07624702455928818, 0.062428433567258294, 0.05104771921823186, 0.054839559740487355, 0.06640152488469096, 0.05785890511310297, 0.05143062448575139, 0.054056743262046215, 0.05754105743340862, 0.06050266241024792, 0.055907951392083544, 0.06182367486072197, 0.061025595057490105, 0.08278462702793221, 0.08339310674783408], "train_regression_loss": [0.3169496231039874, 0.02700040703111582, 0.0248947206925485, 0.015743955218963584, 0.014334629996385174, 0.02142794261187642, 0.01091984065566246, 0.016622646064778458, 0.007967118731865036, 0.007971087408080097, 0.006331032987810004, 0.005508576499781754, 0.004085577444226177, 0.0029538584303985976, 0.005825741474271515, 0.0034934069194713473, 0.0048978931625532005, 0.005698820390488264, 0.004513699922308843, 0.008620791230223038], "train_mve_loss": [-0.008701594909091209, -0.2724005569460405, -0.24325824560005033, -0.27608553151952503, -0.2698102240438762, -0.21020836853703154, -0.25899191817755673, -0.26823075415338415, -0.21506745986626832, -0.23010339623681478, -0.2193794906398169, -0.3055004410418449, -0.252505235748546, -0.2026021557926478, -0.28402666492860973, -0.30120551767307835, -0.18369079284860296, -0.25547695848443824, -0.32185111450920156, -0.3078098093351891], "train_r2_score": [0.048027519683844964, 0.9184458982214584, 0.9245788645412014, 0.9521973478037599, 0.9564445142007449, 0.9351923329308663, 0.9669489547099911, 0.9497994402942295, 0.9758609870936483, 0.9758447685764994, 0.9807763402623153, 0.9833077854964046, 0.9876095212804559, 0.9910459506863633, 0.9824203053926611, 0.9894278130396614, 0.9852915303519346, 0.9824923131841574, 0.9862553371571714, 0.9739271160909099], "val_source_regression_loss": [0.029893686263998853, 0.018481222087446646, 0.015952318187661563, 0.014962549616075769, 0.029318518913056278, 0.016797860671730735, 0.007035432854973817, 0.011319384273566022, 0.005288864114569335, 0.004256369266069576, 0.0045058967315745125, 0.010265359660917068, 0.003689932931638971, 0.0022371479021267423, 0.003644995376632749, 0.0028722396347365237, 0.0028838945812062373, 0.030763149874497065, 0.0024322057408103837, 0.0065000675194248365], "val_target_regression_loss": [0.037479731053868426, 0.02936558583397654, 0.020940680646255046, 0.01769095489495917, 0.06392348159246053, 0.038629860982676095, 0.01796134224137928, 0.01625880360886266, 0.011175134844040568, 0.00935153139731552, 0.006850016362304929, 0.009666035028433875, 0.005185732488296455, 0.00379972413029003, 0.0056538583970145335, 0.004273201182743982, 0.009108630745801368, 0.04573367019714434, 0.003953416469282931, 0.008610875275033184], "val_source_r2_score": [0.9083961773295371, 0.9432354527277291, 0.9511276119380334, 0.9539473386092553, 0.9104781157188804, 0.9487264142036516, 0.9785238546278544, 0.965328664568548, 0.9837706617826902, 0.9866423155724983, 0.9862674002053294, 0.9677881438256606, 0.9887562043126191, 0.9931786471724144, 0.988814096115653, 0.9911489482335002, 0.9911348968429153, 0.9058441498130158, 0.9925559036187809, 0.9801207827324354], "val_target_r2_score": [0.8882311009993213, 0.9128595755466593, 0.9376504364491742, 0.9475017676574999, 0.8091469192627957, 0.8843871835807141, 0.9464052977943405, 0.9516730071360954, 0.9653316598967727, 0.9720287530286237, 0.979508578881484, 0.9710682294524056, 0.9844495861201051, 0.9884748640111685, 0.9831909120968154, 0.9872351629008186, 0.9730222278065727, 0.8637268237773476, 0.9882984740322956, 0.9742970111727716], "val_source_mve_loss": [-0.2780224358356452, -0.3051255334027206, -0.006921567965911914, -0.3463224976123134, -0.13388698142540606, -0.28394201133824604, -0.30866829956634134, -0.2755000247985502, -0.21183684864376165, -0.15779247483875178, -0.20250318227689476, -0.2803459484365922, -0.3419154018540926, -0.11053828253776213, -0.36233533032332793, -0.27082619976393785, -0.17828324946421611, -0.303287471019769, -0.34623544163341763, -0.34923296223712874], "val_target_mve_loss": [-0.2595423680694797, -0.28304480299164975, -0.036543097960043555, -0.34287065305287323, -0.11271132434470744, -0.24211875603923314, -0.28622731679602514, -0.26230502788779103, -0.19679859601244143, -0.13764040370153474, -0.19333435293239884, -0.2817430654658547, -0.3391332513169397, -0.0992866140094739, -0.3594472898712641, -0.26520307418666306, -0.13885608956783632, -0.2800258458415164, -0.34327757698071154, -0.3464459063886087], "val_source_nll_loss": [-1.136740108079548, -1.1287274058861068, 600.9226401259627, -0.8437849177589899, -0.16237083662159835, -1.4082114605963985, -1.5022699636749075, -1.5446805787991873, -2.036031928243516, -2.2512183657175378, -2.1242963875396343, -1.5575824070580397, -1.3266425449636918, -0.6518415167361875, -1.0266682316985312, -1.8566835650914832, -2.344627178167995, -1.0492995147463642, -1.3123471586010125, -0.7718863381615167], "val_target_nll_loss": [-0.9913420873352244, -1.0141017595423927, 466.28801193267486, -0.8350178252292585, -0.13766276308252842, -1.2015686623657806, -1.394752959661846, -1.4542492371571214, -1.8970303565640994, -1.0014796407916877, -2.018576027471808, -1.5672807120069672, -1.3132792183115511, -2.331576286237451, -1.0181798980205874, -1.8196757051009167, -1.8460770739784724, -0.9639897542663768, -1.298843908913528, -0.7635835937306851], "da_weight": [0.0, 0.0, 0.0, 0.0, 0.0, 0.0, 0.0, 0.0, 0.0, 0.0, 0.0, 0.0, 0.0, 0.0, 0.0, 0.0, 0.0, 0.0, 0.0, 0.0], "beta": [0.5, 0.5, 0.5, 0.5, 0.5, 0.5, 0.5, 0.5, 0.5, 0.5, 0.5, 0.5, 0.5, 0.5, 0.5, 0.5, 0.5, 0.5, 0.5, 0.5], "epoch_no": 20}