{"train_DA_loss": [0.06931513827804892, 0.08861873465397785, 0.22402319400630877, 0.25127046453124646, 0.2318300693355487, 0.16739002691489904, 0.2016522716424365, 0.21249908933473896, 0.15561399006810878, 0.12083331051485194, 0.11900857974940288, 0.13013399528574465, 0.14091553292501124, 0.132189537083536, 0.1292757241692142, 0.2256748641430787, 0.27289985681473666, 0.22731655536447626, 0.2361927755735474, 0.30198414277768876], "train_regression_loss": [0.11984800390041071, 0.026439917975290928, 0.03098010057600477, 0.061315918007569296, 0.026930559198397604, 0.01670629004871224, 0.01673900790025618, 0.011806139361515124, 0.013171363188638275, 0.010500314533948844, 0.00884818308177988, 0.008141014026903584, 0.006604219588044166, 0.00830648236923342, 0.007491952161197389, 0.007110362243370393, 0.006524725586867174, 0.0053612375623415445, 0.00386920169896533, 0.0051334337156838045], "train_mve_loss": [-0.18674968520496074, -0.22291415309536883, -0.2364360930149527, -0.1765243264683054, -0.2823996065112965, -0.27453884030172987, -0.24921351806064845, -0.22670681783469765, -0.303757348583102, -0.2565091458682168, -0.2400049827175668, -0.19601701324638762, -0.20491668894560072, -0.334415054353979, -0.26853158971945157, -0.31703108524600593, -0.33639003330981276, -0.20328985497192012, -0.2517236928903316, -0.25773187568734723], "train_r2_score": [0.6355256974334411, 0.9198217807676404, 0.9059302592989418, 0.8156488933236898, 0.9184273599356734, 0.949441035670435, 0.9491677511366122, 0.964149286264253, 0.9598843591272459, 0.9681395861106673, 0.9731088097578214, 0.9752027034184451, 0.9799667967907997, 0.9747685340071047, 0.9773010955876444, 0.9784099438370163, 0.9802162304471648, 0.983747755061214, 0.9881911338462097, 0.9844008552995819], "val_source_regression_loss": [0.0178539437607308, 0.03843826534155803, 0.025954048137498808, 0.0320249066181198, 0.03092448677443251, 0.011624712520573713, 0.013022541893716854, 0.010717128668734921, 0.011753385827605482, 0.008361560569580975, 0.009482030774454904, 0.005540044094093993, 0.006727797332915324, 0.009813393153768928, 0.005041394005470638, 0.00631033047397114, 0.007490453375149754, 0.004115789282854788, 0.0241244885174534, 0.0030990142369336344], "val_target_regression_loss": [0.019382382271504853, 0.08843900150136103, 0.0813235532067999, 0.07153678270457667, 0.06476611245565023, 0.05096858742210684, 0.01982493099721172, 0.019546550014822542, 0.03615591505283042, 0.021129861108581477, 0.023081559711430645, 0.015062643663038182, 0.027504568153261383, 0.04122415359450292, 0.038014890673228455, 0.1540129339746848, 0.16334858557940285, 0.08255502444845211, 0.20685783250233794, 0.11541326860366743], "val_source_r2_score": [0.945112122857295, 0.8816873926684041, 0.9205989127289734, 0.9024520938482026, 0.9056946454112342, 0.9644813460928515, 0.9599526738275499, 0.9671428797840786, 0.964127842234371, 0.9744705782507435, 0.9709719154387483, 0.9829263652368996, 0.9793181949455702, 0.968934387978398, 0.9845820303823869, 0.9806977594298155, 0.9770550982854659, 0.9873720683122357, 0.9258917231561751, 0.9905008290642497], "val_target_r2_score": [0.9424383615055912, 0.7376983393065291, 0.7579182078871705, 0.7878556449940426, 0.8076734821180259, 0.8481361593912192, 0.9406233944331838, 0.9419708810051809, 0.8918367383238208, 0.9365762193489376, 0.9316115083582142, 0.9539148954885733, 0.9188316716053025, 0.8773505922150384, 0.8864241318131469, 0.5384062105190155, 0.511881017712618, 0.7542072568130882, 0.3879699711024377, 0.6610636799315395], "val_source_mve_loss": [-0.32860828426819816, -0.22063316423681717, -0.28615884803518465, -0.1839475107343891, -0.32704333904423294, -0.13216810607457463, -0.1919983152913142, -0.28415353388725956, -0.33827314120304736, -0.191031663289553, -0.28249955894071843, -0.1747473998914791, -0.35689882047568694, -0.3371299980561944, -0.20394450652448437, -0.3565490736237055, -0.2639736797236189, -0.184076254880881, -0.30554297755036175, -0.14019044781032997], "val_target_mve_loss": [-0.3258430565459819, -0.17102849125107633, -0.23427489286736597, -0.10927938462435445, -0.2937124054643172, -0.1616626207398463, -0.12046528876393656, -0.26683041981503935, -0.3126671065258074, -0.1863028631557392, -0.2665769957666156, -0.11624439001743551, -0.33724385990372185, -0.3109096043472049, -0.16576197894313668, -0.2619041283673878, -0.1399960178834728, -0.07831851558028897, -0.12150607663619367, 0.23084122056872408], "val_source_nll_loss": [-1.1219347111786468, -0.40819296919846837, -1.1408884766735607, 258.41368644712844, -0.8399101541012148, 319.90823255309573, 47.51459261360048, -1.515753279758405, -1.1089192598680906, 50.878516405443605, -1.5651260870921462, -2.0782975245125686, -1.0396409381794025, -1.0794989036608347, 1.5140343557430218, -0.8665957828111286, -1.6823062066790424, -2.1948469077484516, -1.1561484246314326, 2.596099624150916], "val_target_nll_loss": [-1.1152480946311467, -0.3013306324240528, -0.92660098890715, 415.96593047885955, -0.7397649620152726, 142.93898924543888, 194.9779893748368, -1.3839721755136418, -1.0099815703645538, 22.54552678216862, -1.434386847894403, 121.51899447697627, -0.9814601585834841, -1.0146628987940052, 14.446498738059514, -0.7167006783847567, -1.2594653798055044, -1.3871917158742495, -0.6841048202182674, 499.51826741508665], "da_weight": [0.0, 0.0, 0.0, 0.0, 0.0, 0.0, 0.0, 0.0, 0.0, 0.0, 0.0, 0.0, 0.0, 0.0, 0.0, 0.0, 0.0, 0.0, 0.0, 0.0], "beta": [0.5, 0.5, 0.5, 0.5, 0.5, 0.5, 0.5, 0.5, 0.5, 0.5, 0.5, 0.5, 0.5, 0.5, 0.5, 0.5, 0.5, 0.5, 0.5, 0.5], "epoch_no": 20}